function [Y,Xf,Af] = MatrixOnly(X,~,~)
%MATRIXONLY neural network simulation function.
%
% Generated by Neural Network Toolbox function genFunction, 05-Nov-2014 17:51:32.
% 
% [Y] = MatrixOnly(X,~,~) takes these arguments:
% 
%   X = 1xTS cell, 1 inputs over TS timsteps
%   Each X{1,ts} = 900xQ matrix, input #1 at timestep ts.
% 
% and returns:
%   Y = 1xTS cell of 1 outputs over TS timesteps.
%   Each Y{1,ts} = 3xQ matrix, output #1 at timestep ts.
% 
% where Q is number of samples (or series) and TS is the number of timesteps.

%#ok<*RPMT0>

  % ===== NEURAL NETWORK CONSTANTS =====
  
  % Layer 1
  b1 = [-3.2124737286149800397;1.6329442436006444961;1.2505120929008308739;3.2189190339823086084;2.6334468087041909001;2.7245288735010193548;1.7085308244731600702;-1.5951311418733156167;-2.9877145797472923761;0.91521547744014852821;0.7388152486105498129;-1.851168830888232586;2.4436914862693708272;-2.1246098121932806002;-1.7114296538970645845;1.2804464047513262059;-2.5012899453649657389;0.25316047454451329202;-1.053217410668487064;3.6409303743751828542];
  IW1_1 = [0.00016857500001696528857 0.026749578614749382893 0.00021753007306084834547 0.01157618680515641596 -0.0073909072701351741577 0.013433705897084799452 -0.019571933966303436264 0.02314315254807285116 -0.0061307140178612617304 0.013204354690518213533 0.019707383617006735826 0.019928643747614046416 0.020428058697013962847 -0.013657752499057804196 -0.014749160125899741028 -0.0095736583010573896024 5.6263950157918435997e-05 -0.016813749721685086053 0.017678182554869015936 0.0011927925591045938133 0.010661119478055067905 0.010454175358847088775 0.027852819679670747649 -0.0022282248230147522726 -0.028905927105826404594 -0.056454553818945166221 0.02378112648972700513 -0.12435928053910166868 0.063394682206364252885 0.35570813288723751588 -0.014592492191946969046 0.0097831274023345276419 -0.020752991328553512668 -0.022968803592435992067 -0.010260543649721958967 0.0067680913413094801953 0.0097555289638840553268 0.015331865882515347335 -0.01371127283067631597 0.013095839246128513148 -0.021330389690373350448 0.019665779620765901775 0.00085055513437994100315 -0.0050200716740972286395 -0.024709089160499481813 -0.01274735042961962217 0.01816643437958892493 -0.0065943530229590876027 -0.0043340779759939822291 0.016697846679308351453 0.0072700498796417472452 -0.018570256369729452178 -0.013496116015540982405 0.029101057130320649724 -0.036168928963757236705 0.03193548154552892232 0.0826484959993951801 -0.051798204281622739487 0.17309037646102179431 -0.052612869297622898157 -0.012672927468191756695 -0.02153169983969610915 0.024192111564098797705 -0.0096143389709488161904 0.0028538583595665387854 -0.009012525968433483109 -0.0083937939515287447734 -0.015764523048957361506 -0.017467074773867708598 0.021712532253002545662 -0.02325670106504290971 0.026098206437086473447 0.021487939156005924496 -0.021678645224806659259 0.023057596877971792138 -0.014934888042026426072 -0.013397552154126789528 0.0082176760856452028825 -0.010227510997260704992 0.023163625152052249451 0.015454677943884366498 -0.015010756908650774513 0.0053687657306887882902 -0.025899327818002693125 -0.010951360393944191765 -0.061786301244772870445 -0.030027407247346003805 0.13310204728000377128 -0.10821465818064945896 -0.32154895588140924856 0.017020187519883614446 0.010512548259407067039 -0.022296867427348907725 -0.012289410162118570916 -0.02187612843026123452 0.015820094641622022696 -0.0051163068379509084663 -0.026538129665089404269 -0.0097188258761882733577 -0.012716079709716670773 -0.021341276484212915593 -0.023331752319298983828 -0.0097782732213718744768 0.015389090351258405409 -0.014122890359530251847 0.018829164689696677171 -0.00098206646310891316902 0.016886424910520066167 0.014117571661977553268 0.015171906784083977193 -0.010631290515311919709 0.018184719041778613785 0.031731185701563753565 0.015231411397697841928 0.024981641798501198065 -0.0090878265253582050931 0.050916966082333467436 0.090455986815303868198 0.1343265298552158149 -0.14484170999719531148 0.012411718334779994061 0.010054837275149592843 0.023615674810173303139 -0.003979287069962454855 -0.0097178460797583895991 -0.0031210090724294054648 -0.013132269287816352582 -0.017478851412865568232 -0.0030235549222220451694 -0.015942544394074564112 0.0091205196480349127325 -0.010642100219849784035 -0.011282297884772822874 -0.019631313610692383009 -0.012516360944630693791 0.017925746133302073587 -0.02577856392824413867 -0.0013609519846982166304 -0.004618758636692584657 0.014127119440841764617 0.019282541108190491552 -0.017783431181167482643 0.017087300914405065266 0.008772827122880808362 -0.0022667528656060585354 0.013074002639899851355 -0.045155131269128692684 0.071109009192745931127 0.026404474851139038416 0.28326055946819106435 0.021632274964947934004 0.01052239252777916606 0.014114948141752722832 0.016089793873812520408 0.00070725934216113797715 -0.014831424280782603067 0.010722549306790445101 -0.016505398083171533147 0.014363543978755477157 -0.0075653555353445865392 0.023353209299720487785 -0.01818764066606562077 0.018519485133800049625 0.012364735696810059268 -0.0095619816166642029875 -0.00060025712458142426071 -0.024561974240006837628 -0.0030597125081827476409 0.013204214386390850447 0.0023873010838292244712 -0.012421002450900981914 0.0065495163944910943232 -0.0033119691197388747422 0.034979315379542547104 0.037336123071124369122 -0.014459289948752325136 0.018013011812275887824 0.13178270515527212847 0.15548208634562973862 -0.23649945737043379101 0.022014555265862757044 0.010742992408443625962 -0.018902061263388066081 -0.0085752641138951667121 -0.0092877214152711461137 0.00012611582860286280451 0.015108240253656349608 -0.0066290199611238600705 0.0052426640601585744808 0.017385473866354441558 -0.018399014460866999071 -0.023159582154179601116 0.011991275552543112851 0.025271407714713055304 0.0047878891575768058042 0.023312884782145690959 -0.0024200675301756006084 0.023554820293586072738 -0.012099288654724054196 -0.0055136680444639032603 0.00072716247679338065751 0.0056201028548531111254 0.029233040228499981156 -0.012032463211614285309 0.023379634640286087871 -0.052628708217108237377 0.066716600866482261845 0.093179922596160771886 0.13149912681203732023 -0.2924819435101016496 -0.023478622097963319088 0.0072204848972197621312 0.01015744033032443816 -0.0054695975183477974976 -0.0099227330514539170692 -0.015777279906547477667 -0.020704293175445774577 0.01109976688322323983 -0.0081320476628057528773 0.0033993033531578955089 -0.0012901117666351440746 -0.016293919183368501397 0.0076512746098556768184 -0.0017541282845896356921 -0.0038548165839285180104 -0.010523089881407562615 -0.023456282992794022513 -0.008806988870168864017 -0.024403338495340355652 -0.010559854687897017589 0.0096021116187725245178 0.0253003918685405782 0.0053320810111957221006 -0.020464082170034338798 -0.017770511310707517993 -0.0071799406324562255188 0.032202978295960242583 0.15022838000724625385 0.14808852042317241504 -0.065951592523034216486 0.00052311658361698634614 0.0031577282052220791847 -0.022272040945293020836 0.0084619073904733076164 -0.024070590314419226113 -0.0010743853795600998968 -0.010822155973379241761 0.0059311782173700087692 -0.00011520330520464329795 0.013718853706359510417 -0.0035642691474984935715 -0.0024559014853021286957 0.022501775710653953988 0.0014694743199969067041 0.025469562451656217045 0.027084686869104875051 0.016175616734444262651 0.020731009108234429994 -0.020287103971533330254 0.022844086626785685412 -0.010913850246792641124 0.0090006075459552591783 -0.029945192784731792385 -0.0074513334272792363863 0.017813540261329054853 0.01540966207732758983 0.080084364681750133674 -0.092831771762530282399 -0.15355149735027126545 -0.17029385425156942646 0.0038213389858842341379 0.020046607690760401277 -0.021684274722284145598 0.019530151602307237874 0.022005121247645885452 0.026032782440415791481 -0.0086776798840227827025 0.018488043965539581459 -0.0076533320246962820155 0.012382742120189126414 0.014497504992384500563 0.017834206690662608719 -0.00089058331242167622453 0.015680137743752195489 0.0043457138463479823287 0.00017035682116688747874 -0.0021194566176948046246 0.0156430064408086128 -0.025758351356327587739 -0.021821141749301317669 0.0012111723849092626091 0.0049701042139773674369 0.016858789321422842228 -0.021177031374910938039 -0.038099756663087444575 0.045703883703574942066 -0.068717328944260622214 -0.088305050860544354041 -0.089387168833403266022 0.14884117299782947952 0.021300267309839089613 0.0091547086435772133395 -0.00077799296734704505123 -0.014745145945712665597 -0.014957692705242137121 0.0029842470536520361406 -0.024771525060487412789 0.0046190214734877724917 -0.013374126773128608078 -0.016807450727273368085 0.0080789655805828426705 -0.0048161122040739946792 0.025502281697506918451 0.024629467937642372105 0.019368204902110549431 0.0012363776342565343212 -0.0079174240977714568923 -0.01578571669827449897 -0.0076632128999477881412 -0.023731187081754152868 0.023521797598249349903 0.018831417560464615291 -0.0002412738602738960026 -0.015817760137165095408 0.0048460008959498217587 0.037745223025729732202 -0.075331987657200699671 0.15501480842610304567 0.10070695736531466713 -0.17790055299393592314 0.0058336727261580120091 0.0013883352700927084882 -0.006338325196891985043 -0.015846788430777743878 0.010819461762642998068 -0.0039263055596597479582 -0.0027333155964510661047 -0.020889269132287276859 0.00704639077670337656 0.0048305670200146661603 -0.016918596523557826589 -0.014961593887043083545 -0.010869198749606390902 0.024637024444601179213 0.014114515990159942974 -0.0080606503776271005296 -0.011069302062453984306 -0.00047362561149014745059 0.018362343488529924568 0.0063068972947826120595 -0.024427379565054297555 0.016039696650032884279 0.013382904511943708933 0.031504521332471807638 0.044842120161265666689 0.027649251143230243327 -0.045019440378477021403 -0.018141583018035142144 0.0033357293999939688876 0.21786212384641506778 0.019725155895579545712 -0.012849745888143505879 -0.011903217259660340763 -0.00332290586710940394 0.0099521408694188649713 -0.0034918036992456704011 0.0082813437402889465005 0.012942732310086737732 0.0093049720541179634786 0.023305300046819524967 0.013185807529086697107 -0.013493097881949330311 -0.0042930035684937122714 -0.023365208702177391042 -0.01885356097109473425 -0.016289924876747345628 0.0068495783903749973484 0.012482401951628609854 0.013864530491831554559 -0.013617599741490906198 0.0055799378163285768759 0.011197950496256599967 0.018740462310636293863 0.021566548975461962562 -0.040551160036793001962 0.040515811239414348255 -0.015552262526461177461 -0.0016794467253462854427 0.033310519943864892733 -0.29879978301931398033 -0.0062488434440279823703 0.011613075932702800891 0.013103833708890821538 -0.019621568109157199594 0.015474674149413770313 -0.022485558419287197951 -0.012991465547762414204 -0.015046466647661854363 -0.0078429986967362193967 0.027360342588375587136 -0.012968480204340998227 -0.014415405657920720567 0.0018069644595211770653 -0.0035006037563900483864 -0.022087052318598966033 0.018785605080427657948 0.021755208733901278129 0.025474084502983947165 -0.0082248173590286615536 0.0013023823080320442482 -0.0008049433236068833904 -0.00034424122857151150329 0.010167154919442675937 0.031765459384630746753 0.041826296372673293922 -0.054736900293541994322 -0.033395205432853319882 -0.12832444808254589441 -0.14999486136149658977 0.084542446108068838861 0.02026398353847431652 -0.0083539641355728777583 0.022262512205814852934 0.023781456941865439236 -0.014842254200617719523 0.018733995053215827392 0.023769556604402303224 -0.0016669113913811732172 -0.0068895665050317054373 -0.011115065256450893869 -0.0028995392553743605697 -0.0097435625429512628254 -0.00054829275961047686978 0.023800288968523028443 -0.014098520180136324062 0.020866462902984592165 0.013377246380767400871 0.0070961636436056279437 -0.01653191955197309132 0.013259449961427584655 0.01772628111644762583 0.0095795679984053676986 0.00021960993600856390084 -0.016565591370079738726 0.035456496077119092902 0.0052866882748105236203 -0.041015346161889246202 -0.13561604514099201424 0.10601256389100852107 -0.077382579227886938433 -0.020635182207400386972 -0.025725339120416308714 -0.0075954846721304749776 0.025856821541365648809 -0.0036663309081850915631 0.025577305259611719107 -0.0001759896341079882705 0.0089712129051229688725 0.012162513518368198856 0.0073862357404884384712 0.018331476942592815627 0.027672918345307960519 0.01202431540808131076 -0.01539922382223525392 0.0015506489664313006117 0.015676970103636105047 0.0059258991343918831357 -0.0057098267579572987984 0.025422999457285863634 0.013283381804327878961 0.0084151222892620593241 -0.0041732713373666373291 0.031866725270436220552 -0.0032173276843901806726 0.0033013441296778304329 -0.021670695796688111551 -0.010899189848999377844 -0.0048186758824784008126 0.078707752896576332891 0.075872919921331882787 -0.021206969744323435345 0.017669914398967260377 -0.009480789810131560677 -0.012957717912976578559 -0.0050267918201422857535 -0.024345999054518559918 -0.0074870005210684398636 -0.022429154850248076564 0.0012997109384047644126 0.012221447172148132421 -0.011320757725068440053 -0.021348590929518483639 -0.015964637191738594024 0.0036366453462622445533 -0.014586771885360116929 -0.0017523649802473034286 0.0070567955982869879153 -0.021813851700543639145 -0.0010711732236779753641 0.011799763353091814039 0.018314538382570823977 0.01655029159543526876 0.01502335899339917423 -0.027693987418348699203 0.030087279636818498735 -0.033656603889032299382 -0.0817530897782472038 0.007061479010153352831 -0.06203967522030133519 -0.01018621624060201715 0.0097762773878880028511 0.0013812632629995439965 0.00040505265702400056454 -0.0041535577458800118297 -0.026039628410377116396 0.012162597998150847384 -0.018678852242935594513 -0.004523420762301336856 -0.022409185407496340359 -0.024998847693273450188 0.027249303111351617923 0.022267144473536507748 -0.022826260699674621318 0.0010654980884249646254 0.0060125726056449620149 -0.018780890462422785564 -0.0082317684133628287596 -0.0042835948989309521884 0.0018221037437855045881 -0.011611250000423433901 0.00076503214097771855655 0.0057333878647233375847 -0.0083758725441424146385 0.028545964931742412451 0.0089638131794004278358 0.0046286542457420424418 -0.027680565889980895261 0.12694380958554424277 -0.17197978728656521108 -0.090079146277290716993 -0.012021383982121578576 0.024775276351670458969 -0.0027289974902908208966 0.017614531096909517849 0.022500377779622025148 0.0042551795306419865073 -0.016878322824079621672 0.014197461229864188209 0.013477300650357038406 0.01647176398579777018 0.01738316134002650809 0.0031875364686386469144 -0.008575319169798313948 0.016355795021164458436 0.0072608085276303913069 0.01313824704748988402 0.023536905371262260844 0.011613327602462331437 -0.0058262653536163546905 0.019500315707907080881 0.027762088422611085753 -0.016502398782860177445 -0.0046828092446952150618 0.038140936089879701187 -0.026339672842813629389 -0.027116328585698856041 -0.013678453040193792878 0.14582835145044015235 0.046653218252799770471 0.28483253331001945341 -0.025842584983289264289 0.0036416923827421502323 -0.020398247346284030523 -0.022736153820136727893 -0.0030345048124301309163 0.010262246540725071531 0.0101228150462687079 -0.0060078807475805505803 -0.0142703563427766765 -0.017543902830138943805 -0.02484020080381858786 0.022474436119717746546 0.022960323852867368238 0.011272102345939392573 -0.022276510481880815867 -0.024026977611780010041 0.02434697794301748236 -0.013178529932387940751 -0.0029048096476294782073 0.0074596443654236224349 -0.010686487529110466968 0.0038689990403659468322 0.031328616173595599803 -0.0038649659350926835605 0.040303738089911222975 0.0080853296732289938603 -0.01259028437191669729 0.044076761901326588777 0.017502472288992289989 0.011368032383795963897 0.0012594991734398628107 -0.017968190272853058059 -0.017626470962163381939 0.022630934861765251292 0.0042249949598501613038 -0.023833362965998732691 -0.0049498696023435101096 0.024396017182303601778 0.0038735941345891034861 0.010709396269245601008 -0.025692344530028603244 -0.015679260847837238335 0.0082452941918132825055 -0.014913851165946193089 -0.0086871753464486077545 -0.006510753174595479767 0.023338113035248207738 0.014596875485639638353 -0.0188040770163210684 0.014866537008032679537 0.021580910664236153951 0.021619263097334306956 -0.0007839851091880242458 0.022473645839331375662 0.046014869778396152999 -0.0033817413288076483835 0.081477969081202930579 0.095676923776876005023 0.01809469742442081433 0.15105065884804785847 0.024352153848029575028 -0.002448744441410399212 0.0031503328693222370713 0.027717974816363677437 0.022514896225967570564 -0.0084943660463078669853 -0.019853694353606100853 0.0089523306289289363707 0.012985644330595205037 0.025445004552741446596 -0.0062508535875286860839 -0.0067317437787371399785 0.011939555935742829709 -0.0025240996679250543751 -0.0010904866365814113848 -0.014341510055715359431 0.022923775275861663775 -0.0027925858992867689558 0.010590442472274952043 0.018546284054316315021 -0.023012163576281607913 0.01605258345548847207 0.022835767566049346156 -0.041155418568127308254 0.034717903405395017513 0.033816933988473248107 0.11349840062853815137 -0.16308291815716546846 -0.079658810071475599779 -0.28569636412287141569 -0.027671728505540140602 0.026358847727342159944 0.010770813740452772622 -0.013349128929134724056 -0.0014356356234158963725 -0.018094256849010420529 -0.0036117762579476360429 0.010197178767331243135 0.019582108316043275731 0.01985389689381273845 -0.0024706685377326805149 0.020405147668467592259 0.019466866673454843312 -0.025715893774038177388 0.024210310290159464675 0.020413870812985419195 -0.030958799469583193897 0.021686643327043206991 -0.015599113847593645832 0.0065193128940718254524 0.030842858929730078421 0.011526599606326327907 0.037938385986842598774 -0.029984431092577205208 0.00024770253133954260333 0.056733899216413682942 -0.074214478918596143986 0.1585181750039732218 0.051089499683447447964 0.12851128463792862999 0.0056261525874520060264 -0.0033158975369491265964 -0.018199789893758758913 -0.01308290345514256936 -0.01210646998836954584 -0.0078772484476880046123 -0.0082099940606201390891 0.029564554355747754005 -0.032103814581669172512 0.032809651945870835221 0.019757443364192515955 0.012252336828380734624 -0.027801404371932743331 -0.019516832409022528971 -0.025012049876472479404 -0.030145342095209137767 0.011195170100098038313 -0.00080554214894851337413 -0.036020753541892949756 0.035123788101976791132 0.012549403335485992059 0.024967742551259108907 0.037163786066986219392 -0.064311438757699596058 -0.088578858801420884417 0.10922778760986734392 -0.15548546223201087368 -0.099912311005943679754 0.030051253610188292248 -0.14559948612057316275 -0.035844681042201419208 0.011357937081215109532 0.045103447767922459632 -0.039270053994679539333 -0.00080278279491239256868 0.011757457070491720771 -0.036947506601063967446 0.042208902017309458954 0.00075617275110722095843 0.042798074078665281073 0.0016277993211359913662 -0.042001572189940106217 0.044977995883168496449 -0.040538555293533236334 0.026178299337806774233 0.030804379955645992684 0.038782108510173225746 -0.034927321987529208469 -0.0033610480508360338937 -0.015296676219342070918 0.044659758431639835774 -0.0021825072655587084668 -0.052172481931072281491 -0.11363077648268905817 -0.063347914014927730886 -0.13249580382060643924 0.15721393555716930979 -0.1672147948040072496 -0.11092831708046357875 -0.30963668141335326522 0.054357437159472436761 -0.059413226238238733834 0.034060315009598121638 0.036320318180566170396 0.05656006974506425089 -0.0015954344593380540961 -0.03985694924341065537 -0.028639444507011335705 0.044233947960697031498 0.03677668539293123956 0.019117309191602881863 -0.025034127623578886213 -0.026521799454031488169 0.060879682721950136026 0.020651499944888653676 -0.032364664088968063405 0.028222305156453367236 0.022474403191476928499 -0.057815056473413874161 0.017646754986105968321 0.0059150200119725184628 -0.053095590276564776089 -0.064631372566931744039 0.064362190634917090803 0.092868327818234730486 -0.096397111932601461937 0.14314651904112093983 -0.099197456054207003295 0.17198346362317940006 0.26252213326342771493 -0.0076499423580106504922 -0.045805561831456717559 0.0760132336157039179 0.074718243347299345691 0.067893417720038456986 0.034178485471280543873 0.042633909458579477558 -0.067566817663188324938 0.069895300041266969493 0.0027668458308359672806 -0.052226759036952459525 0.04194911177812465225 0.071458657863291488721 -0.086206457246685616602 0.038679757315633930825 0.058205986581914261058 -0.05444065039937494993 -0.039394488700168768525 0.027120192258819030007 -0.030893736414053466627 -0.029785185986355940113 -0.12590538222535566093 0.0011302992796713210149 -0.022806840678593821858 -0.14680874495931980905 -0.05284101461778507175 0.12627653928190163413 -0.15118390075367865721 -0.087770688849540021148 -0.32030761371065857857 -0.019684298130292134099 0.10295534777788842296 0.050758350627027840063 -0.11198140160758046635 -0.14594525882600106748 -0.096908319360530001396 0.040903703098340064848 -0.1485022140903646537 0.098264231542260049856 0.15126346853077268784 0.060102881305644548227 -0.062749467948024273412 0.068728101479783906824 0.1073230081583306933 -0.017923639547288070656 -0.059110493231682589843 0.091769743346146528951 0.053575194998623607012 0.078583993374083518924 0.013485160753877740991 -0.0026751897446458017434 -0.10061882376970099351 -0.1287923760284473973 -0.069034723471468759093 0.024429985097652567871 -0.13755825741243921101 -0.12942632392242883754 -0.002257643311451453319 -0.066047849136840988682 -0.17714468992034335115 0.091159049755021037686 -0.11297086008181714267 0.099458201035915766441 -0.011705328740739878376 0.079000288639860569151 0.15121632330630846441 0.17447003999103519178 0.005775916568616411631 0.065185668698630641615 -0.18563583031562611025 0.1529772757159771901 -0.097917392175038989177 0.11148521583822150471 0.1021948667404622979 0.13843663069672643151 0.08745410042181900323 -0.10998600880139629277 0.17020164005898774651 0.019068426963200192648 0.048519796980130862341 -0.10008272809970826522 0.18964175287381093704 0.083672024838452180306 -0.054400438149332097648 0.010738790051253348581 0.13261041544547877424 0.042475046457661140564 -0.099236049224381561729 -0.16282732457946758053 0.35081593802601795939 0.14990463481205512641 -0.045620159723861915257 -0.20152041763831887722 -0.28126028458782864616 -0.18843139031645839143 -0.028086710634975198264 0.01409244068567596514 -0.073694733019096528293 0.21990266097646210541 -0.16277758316185525489 0.056139530839955674446 -0.21295395361621491381 -0.039003991302617939396 -0.015173371207074024328 0.12871812763663678658 -0.23876096170634367177 -0.11834433648021870644 -0.092936399937978642072 0.15088841032634001116 0.072889287572283287253 0.12785631674455549822 0.051844243089055351559 0.16028324850587624684 0.23707787832243726323 0.059968357503723597468 0.29268131337255431923 -0.31845625700986951445 0.17065918055095394279 0.23925261797210456427 0.51450105037466686841;1.1947693639848544353e-05 0.01333092524480037136 -0.014584958957529458798 -0.0074664284910053923747 -0.0050890797631596455461 -0.014966403071099166136 0.033141186620247148342 -0.017091287297448125304 -0.00030041727319095453894 -0.0073233755653537725011 -0.00034464916044770697303 0.0052646220573005315588 -0.0095073240857673976811 0.026984060629411624199 0.021496120697843901226 0.0060670378942104261424 0.029068486006070363981 0.010425626472003284018 0.0097072715846823441621 0.0034209030480414851644 0.024522062991856458797 0.013332484335818066412 0.024851050365782459406 -0.023442255692256903227 0.0068337680836087722966 -0.013655634015794513095 -0.022424243563599358109 0.05887918990302123956 0.19294851033617393954 -0.082009893800764774308 0.00540977443639972886 0.0041204739034495195538 0.0086905694344775828025 0.018177738171229175512 0.011841094335427279627 0.034129975008297203098 0.022501255233934074756 -0.001431893683176536881 0.032175595848767155061 0.004262884916382524321 0.019387044915171396109 0.015630248878690120029 -0.012091831463399600743 0.012375998473806531369 0.012997117999498725843 0.01895611668865017016 0.015273390670788443424 0.027448522764140347724 0.017226349093355193542 0.0010401426703300366804 0.0036061123638084437333 0.013721395765084808821 0.032126593892702483279 0.001510170219470828145 0.0061016780609344564018 -0.060008094300984408942 -0.027489336911630260496 0.14648325266307735126 0.078103635452236558345 0.32263107274341051856 -0.019720815463231535641 -0.018344406161695241131 0.018533337337190463473 -0.0053751764218073379287 -0.018069467530463626664 0.019363378818422930655 0.015380649995999020815 0.00089528998601392162024 0.021992138979598847837 -0.0010090311409515998614 0.01162157769006615278 0.021980371634111754708 0.023237872518592220944 0.0075618311653910643202 0.028949047109975162978 0.028107006908017206914 -0.0088687772075920125875 0.0028718054249059756997 0.027445732285960727781 -0.010639673511610152346 0.0087719182585821609682 -0.016645236621063465299 0.029432145608780341944 0.0019844126126866853087 -0.040562098493756006123 -0.026877356026496577318 -0.016001680612679244908 0.1471163316823531908 0.029328385419744636836 0.2114457084599803971 0.002470927334379340555 0.016550008704218511363 -0.01479474460291693369 0.0094052975290931008917 0.0011112675805783932877 0.020792280221413567826 -0.0025419511346563812906 0.019155306048622960241 -0.0038171490282502950481 0.0070183884604615286856 0.033743792425990064288 -0.016631094567802883616 0.0060521963785214027282 -0.012775712734418402661 -0.020410639664305594426 0.0046611142265780411073 0.0086383638803243234516 -0.015439862421045244187 -0.0021006634777244251322 -0.0073910130136535679563 0.027580598210235292289 0.0047374008428812935251 0.013311596163084226871 0.0058084022569618734902 0.034881267972401153177 0.066529994297377187396 -0.0069042946297056999663 -0.11942868333798284386 0.1622280093615940666 -0.051028462455880732596 0.0072354381214765573979 0.017945339811752052117 -0.02037672097838456528 -0.017956993207544048874 0.029361242119379304255 0.019248285059520645751 -0.0016274515616151957829 -0.014872276748812968475 0.020331525166832634111 -0.01654256485378849742 -0.016676907097110803269 -0.010412408143496944962 0.0021618104936445402958 0.028252802511977578859 0.0068229072315854535219 0.0014234516208729698465 0.010796167175851660233 0.0080100505400177417908 0.022360188874855416868 0.0084007173474021056003 -0.0056847866247591357508 -0.007279328996358421823 -0.0076773504668406168314 0.025290944806657261051 0.018512156954565161388 0.041785160219064365617 0.0012941155627197856778 -0.069891951519214762234 0.052407186691335434781 0.016198416002125758106 -0.0088750740964738308175 0.018993980837875672207 0.025202536465364810264 0.023692595553051698509 0.029180775432251442048 -0.0048115154597682804546 0.020103336864578737891 0.0037981311942724927874 0.0048043598792864286237 0.031789404479502667011 0.0015653059390866870104 0.0066430648537441905344 0.010661751862738573851 -0.00060762078389578174156 -0.017378503978369035099 0.025758726561293958379 -6.5220806297533936709e-05 -0.016603791914279127789 0.012706211790782680898 0.025479672038855576827 -0.015590473553078281616 0.028486236246814952006 -0.0041993373470744386686 0.014739391870282085237 -0.0076404892141425616303 -0.057869360457630837635 -0.086669784241887801168 0.10790903438231547185 0.04622548847552027107 0.054300005561144670807 0.01962704240951741036 0.016588476890141989201 0.013322914365905548853 0.027616028698384698092 0.010329808101445707089 -0.01793548658396072748 -0.020591141648890021881 -0.011897445939645395763 0.022010358889293684531 0.0030898800402118045162 0.030208200546460183683 0.014126830447522126938 0.0012177303426421952001 0.018662922052189619138 0.0094437936639174911019 0.015838887697559297929 -0.00069947340945012358941 -0.013291913864531009967 0.030373343705149189603 -0.0098354233240255072024 -0.0083801096222991689616 -0.005659466155847312635 0.0023520295201543439147 -0.033496641295695885054 -0.020649833589543257345 0.055150805125746563129 -0.031853270997784004226 -0.089381067119330331883 -0.10956964235856557488 -0.13602755355064347076 -0.014507689409576305858 -0.0067719724905435227033 -0.0092929375015892816403 0.0017047856323202394656 0.0059194367734248147864 -0.011837284787262864275 0.0095630309884733276371 0.006817839699865182318 0.018536773979704886106 0.015874365329013217368 0.011816197282730391688 0.021607392674805703942 0.014266445683844591191 0.024961188237181308053 0.019865294626379228354 -0.014414025823840716581 0.0047118231555444665959 0.0021997080274599885817 -0.017261163835947345574 0.010179637388027535511 -0.0070152458789877747414 -0.011089440571663980797 0.028604228723703817999 0.0023717803000463701102 -0.026102690874018667777 0.064752966070805217935 0.077726108550767281091 -0.0032786462025570371932 -0.052692900099084588605 0.21188911160732951111 0.023629735282337416269 0.010515109807571483558 0.016282390004031074837 -0.0016234640414977392995 0.025784190935058688698 0.031054330838806046972 0.01130797221333760573 -0.019201112225951753182 0.00052955373960458611542 -0.020613112301281464461 0.030186080329974957631 0.024891123770119861353 0.021136904118909373429 0.023264613799266031791 0.0098059268200196107734 0.0061693581485268000203 0.019040414605569568746 0.023933850834209045161 0.0081412970913073336859 0.028022955657684284203 0.016973305006198639855 0.031139167197838584639 0.023140803775341962228 0.0094570552273414067862 -0.034743326890661035966 -0.035007913292003388361 -0.067643250501756249649 0.094026282709513284153 -0.048933904018811605341 0.3083024583163201382 -0.016502126519386359216 0.0323710048766191541 0.018326920850222902515 -0.019285773759607934691 0.028255223394737405407 -0.0070816106910530189633 -0.018652675620588546335 -0.00083087616945188549813 -0.002297363004425952409 -0.0073946935051425769989 0.030127487081879129882 0.017903360036827083157 0.017280359658097287079 0.011758327948971185328 -0.0044358146010728934441 -0.010183194212603250556 0.0086436965902139707707 0.0072997534789312236436 0.023746593713938123765 -0.012411835348753612329 0.015629825571782093863 -0.0044946399896586847894 0.018112181340106614513 0.018510457736952035113 0.016494786745557411811 0.028073428280294795284 -0.0024348272915245107798 -0.068703527808126177434 -0.13819646989475575793 0.061270016082599278173 -0.015106989360075453316 -0.018950531198371447367 -0.0059387248512084269206 0.026455463988985149226 -0.017273461378537725841 -0.0084163920685182604803 -0.01055506252558274273 0.0042124333659051453951 0.023880148979926910796 0.016985334567047330467 0.006933936661319021165 0.014637489000715866658 -0.018194470826714360945 -0.0062085852307452683504 0.015567562243136198741 -0.01163161083600194011 0.01144497180721144175 0.025175035318736011664 0.025058893901386793818 0.00073035598637392678753 -0.0057134419879880408641 0.002728289674063404547 0.0095247603857241992797 -0.0033525899696393401776 0.018679636984098500069 0.021341859555872332022 -0.037053211108663733353 -0.023598472576828174313 -0.12816474357459869959 0.034168358797972343821 0.0036691780315779212035 0.005008152349219627264 0.019257908066456823348 -0.0067605243760268099104 0.016977873855262202302 0.019446261595036623548 -0.00041910453300151478181 -0.00097833296631405714319 -0.012277678663424183847 0.0099538727251096432297 -0.0092533585275347118165 -0.011545728572393831879 0.026009875629508946715 -0.0039901079881098904661 0.017108130728519684721 0.025264875561359884798 0.017892964931307524939 -0.0093560342559284564307 0.037624102647872588456 -0.0038994826105192672075 0.022434119768656293759 0.017507284590053302786 -0.017147161021882767473 -0.00081472509915265643905 0.035206854844489168799 -0.028929813145970827842 0.096849219866024974235 0.13170346774226984743 0.070206177914661965778 0.018642619050179155132 0.032313723019757281674 -0.019140698344957258331 -0.0070111123365539798971 0.027226148141247498435 0.013651165107176880045 -0.0036816247603758240313 0.017433003227745883651 0.00099807215401291702467 0.0028150009353220400987 0.028644326711134534408 0.027508611241467504499 -0.016026167335778392087 0.020422213119487421518 0.022066454702437808544 -0.015411001873671267837 0.016470469879401990199 -0.0088607792721552870729 0.0080030916268165330774 -0.0085568897896552264387 0.0079081037581120814522 0.030260716841234040764 0.0098452094738507977406 0.0084069184837214702005 -0.016877810604256457405 0.020327840907541631921 0.014349697478366497255 -0.060177447412771069291 -0.10703110018233917555 -0.17156571112339114027 0.32904177920504945609 -0.0045083211447545824824 0.006705990985848017151 0.007312595562528693624 -0.0029799062210535309965 0.027179505485566440859 -0.0085678562548607735405 0.029910726253010489623 -0.0050206757082474143261 -0.0095140418010198641446 -0.010536162022227209614 0.026800714098956939652 -0.010919965715528298297 0.00096926596610333662363 0.010529869446740860311 -0.016632425825412546633 0.031515968474107890207 -0.00045069010254294853465 0.035160744965940189666 0.031345164959370896973 0.0056560757652785341107 0.0053300708816800979745 -0.014430222601701698376 -0.0077452848407636764108 0.035339048222163750579 0.053814682389099394166 -0.023653456256013907777 -0.068727515104729644535 -0.109143413179595139 -0.11905568545266626002 0.13256026987073760148 -0.010006095695164630294 0.01966950745499612338 0.021807896109005471541 0.030517267613741124593 0.011990959562599363616 -0.0059193861905493120115 0.023682794263566977339 0.02716336920822745235 0.0060692108950884194121 0.020759744888757349079 0.0074799640941489997648 0.011026081198786421428 -0.0046940550696057282282 -0.0089486628826304093209 0.01122639981388530786 -0.011299723517033481365 -0.0030199547909232167184 0.0074873093261435064508 0.038875662216154856232 -0.0038558602058153838496 0.0025909751098279884193 -0.0071626461232029660017 -0.014281826286379152233 0.03784655038736583349 -0.00095324723504889728645 -0.0358923904431169144 0.053261305595870257756 -0.1277775062463238076 -0.023145128462204806602 0.039093878131476592075 0.028342613712802652848 -0.0020027655519608248032 0.010683914303489134082 0.018484675806218986427 -7.2485883545091671755e-05 0.0088528210283591105001 -0.02246161592169241758 -0.00039962500358490155071 -0.00075424833807585789629 0.025362757559205910407 -0.0073636305916368596444 0.018806607499918734372 -0.0082327658722784659989 0.024187945776738252468 0.011149534928140171497 -0.015058265729907021474 0.013150959111962958262 0.032830023485785578274 -0.0046134171866889827143 -0.0093598684862825857339 0.026823952022647912924 0.020634443104137197705 0.028520771290478003079 -0.031313460291553699144 0.050636845853478079649 -0.030075359134701225294 0.073965473475951559745 0.025025732948400557926 -0.0013167707973037244377 0.21394489112324394098 -0.0092315446226642824956 0.0048826781943405129713 0.011326396519494619924 -0.013921919849779617814 0.0023483096177859333342 0.0022909790115685584565 0.011985429155215856362 0.017313617526215414888 -0.01819630308961961429 0.0059685322141806293125 0.024532073943301830471 0.0040382074314094101863 -0.0051813004140422403918 -0.0027788208688175929442 0.024005918920944228218 0.0049387801222678783669 -0.0065710617926664086422 -0.0048886976990938435864 -0.0078252083365883250837 0.036297711064460995434 -0.0052370549304964538612 0.013459303021944370518 0.029545840203766344373 -0.028659275383822058886 -0.013465654206361300088 -0.037758483340076177959 0.0082560218863165883707 0.10572731960406628327 -0.03158962605413769692 0.31671808746913276966 0.011111507384480606708 0.031894986922895829373 0.014844378543162320763 -0.01911976486990121446 0.0091486522805045104173 -0.013250875542713912505 0.011634720967013595372 -0.0013147487801423174154 0.028409108564797773411 0.012411219912384261269 0.0080075181027948246631 0.010791764687112081339 0.036089839886082206166 0.033765125577956224545 0.006709175982742704436 0.013439350137143628999 0.021568584849547080273 0.040404059895645848266 0.010718664028316997328 0.010902431383308106363 0.015170990626451694855 0.021394878669982537317 0.016193032293340681171 -0.031876075412657543795 0.031861373845071552791 -0.052047875537062610052 0.075883929066968835997 -0.032630754824129894198 0.11747057725860361732 -0.067642864429212093413 0.027701291579657335434 0.0064968734340469921559 0.022999673753815900318 0.029990023612297168898 -0.012073172252837277227 0.02758876605666004192 -0.015731949408811139735 0.023924073317904602509 -0.0087583799424108405018 0.014330172018235342452 -0.005436840393226734236 0.025228492659261452652 -0.010735819967094911709 -0.0075519118115840193003 0.045972268166006864665 0.0067643911477650760233 0.013891021455108133395 0.0018274785428717616517 0.035438770968637352266 0.049530992180499756883 0.0032430536906465252944 0.042594756906253770923 0.038692662995218798927 0.024922631827356586665 -0.031523603824059998058 -0.033389528321095401919 0.029954516940208088943 0.094013292095144834759 0.095452841472627600328 -0.19099795055399079735 0.014478301746016244284 0.007738927506916909102 -0.0060935763317504455447 0.034330800305823028218 0.0027206574249389013642 0.0039116715357693345248 -0.0080411069436822375095 0.020342522904979953857 -0.0095822048745443557521 0.028683920007652838335 0.013662884505227712237 0.020385635652343546409 -0.0040612353991353530858 0.023159357757524586668 -0.00081237091400906166327 0.01837120643136193332 0.016098262429877729235 0.032294828327827075631 0.018497362825883229692 0.042771218142802186479 0.010086730653162257268 0.017790333263738546815 0.021520071432743592688 -0.019190948183060139304 -0.00058579004422450685601 0.025426080675136894516 -0.072921569211163606017 -0.14468974421243058215 0.089118647534769640517 0.10582347221019330896 0.0036572680921613822357 0.024955825004813844692 0.025402251809608568378 -0.00096146528003245186871 0.014083729100728721931 0.024281475292187274656 0.00023123483254009825124 0.019938759906842181552 -0.0048837708418468387186 0.03818839535053714096 0.0334801730001490494 0.039889890598932775667 0.045941789842242446162 -0.0038258431423722925532 0.046758324172302162536 0.0015510503979085802154 0.010013887355328458459 0.040330441168361798321 0.020070553382395387582 0.015557168278552359689 0.044937414337006063858 -0.0021121185205907892952 -0.012197964524830576943 0.032035474539655127424 -0.023942906991031534525 0.054220528057924696763 0.051532010602459779602 0.17023756310717072515 0.16479817612433653173 0.023557292362698881855 -0.011473057296739110761 -0.0015119667577824505086 0.01250619407352258905 0.0023477225273232393311 0.014482591303193802917 0.027080471268487549957 0.023451318725492994316 -0.017489166028603342351 0.0094190513273382202308 -0.015920342414769184797 0.024377033775110266978 0.020920841164380542948 0.022588505229138081815 0.0025056034366538726919 0.015967548850416860007 0.0029003753142927270019 0.041639630685310076441 0.040738294728945551038 0.011163621129790083503 0.019666562791928608039 0.013653580798084178835 0.0056555892730143324243 -0.026286789938029807984 0.038843665707408547849 0.040877125495497761143 -0.069695915497631905078 -0.16456604308451763807 0.040342783548833485718 -0.1083817205354521418 0.25255877987779556948 0.0017974991803050960858 -0.022045958692227363152 -0.022099562154960044474 0.039573143758308601536 -0.020043460432180824904 0.025057148706029798435 0.0075182954199650622179 0.013138949286864267177 0.015741645743003390007 0.026281412341301838009 -0.018985524008311920746 0.022361345952305128337 0.011905329551981003525 0.019024048947983301233 0.044049734889967467888 0.03204022662406898897 0.0066935422666291252702 0.018053006979799977177 0.048476237915788644717 0.013057867479836851587 0.0024780954755772885249 0.017970843189133237083 -0.016149298224606072755 -0.047523653831535804526 0.017596807188856859738 0.078452072317205870378 -0.050374968089848821962 0.15639916146054347323 -0.059997356886468178327 -0.23679149968824236838 0.027068205436207262715 -0.0163644774486254585 0.014989970687061879642 0.032966002025412978471 0.03300254084193005033 0.043918950646677334948 0.03079212249627858583 0.037190132162309902375 0.002354582405783097257 0.0095494280293244079155 -0.0026364130160044145848 0.0001568197435446181732 0.023437043359991499569 0.027123623317303911795 0.0051026295868637442515 -0.0039716598395662947377 0.032293245172373225005 0.018205839428000254732 -0.0049583248539819399156 -0.014799044707160494139 0.0060977119325541133746 -0.012557191229763000825 -0.030427608408297796699 0.015480641582111487331 0.13698863871286587335 0.056412227671247996974 0.10275771403041712715 -0.0051015544841640694113 0.090990086474913037251 -0.033254670703387195774 -0.034166609626638505537 -0.016646193861497283334 0.016770559838488262316 0.037311722953933652847 -0.0060266345095850984079 -0.002864230158775215359 -0.025526936708975045409 -0.026550967569014909814 0.030447410290742757399 0.038599636651047493363 -0.016728455783979589294 -0.0010509189537540289568 -0.032669024045705485904 0.034857774237443087118 0.042526553602869304749 0.034730646661123965036 -0.024283594450315360014 -0.019632178547216775494 -0.012584210548332121216 0.0026694517240395052027 -0.0042210938992480557738 0.01017016917603552964 -0.041870194619492075161 0.050888761882397555436 0.045716611050510003178 -0.023641689314046105547 -0.074560958597410006976 -0.053308305394175928282 0.029961096689257959297 -0.055965007259302188003 -0.035908107095153060651 -0.0099318660312220970882 0.050341177544968064572 -0.051829093833977310513 -0.016435090575534338359 -0.046707012457291842422 0.067504959125069943782 0.025757508999510170949 0.072848560351854094175 -0.028273827557010779155 -0.02024745714378645145 0.032177042258170029942 0.014899574511179316388 -0.021114319862643605302 0.066118827196747220754 -0.034474811495966178887 0.019157934554338854061 -0.020111348373587013133 -0.042162859548723063963 0.019444505990466931511 -0.04412394687541926902 0.025553755675104029149 -0.082232022192448531173 -0.14938714901489980047 0.026425770528013047683 0.10957840787493157431 0.16651743724732925855 -0.12443647924776297942 -0.11333887728161595732 -0.12547544904389854037 -0.083811480589778025729 -0.062683713469865703916 0.049654969033103193987 -0.017970634841239539053 -0.057181943704520989125 0.015069832812139277722 0.064094166362003421322 0.047386133019808346356 0.026071014430502973541 -0.012089286152338951652 -0.0072983399512606961235 -0.080429057011053586845 0.0054098381589520704027 0.043159504905047059442 -0.075718762883234258521 0.046799514752640769544 0.003347276951767817494 0.023892216717031407314 0.040508234435409129492 0.072831846192267665763 0.073088406185180351815 0.15397457842536590999 0.091143973247161058637 -0.091124218015028082829 0.015676148334965566561 -0.087472368349497425788 -0.14797630508968942498 -0.044745860912675454457 0.098453381591425442876 0.08024775838435545261 -0.028941935001098532954 0.087502813225888279036 -0.056964115689264863129 -0.078059567632479995303 0.040764133976288523253 -0.11452505570620540032 0.012427119607544287808 0.12316895531863750191 -0.13078932413501739851 0.071718233124442351545 0.014618012335956160133 -0.060905042120429062069 0.10648369697781723264 -0.050503771275858498624 -0.057376073917283977599 -0.09281923338284460423 0.021605456318693809503 0.070477501137302112078 -0.12158161595140670741 -0.11718919363033616921 0.15643688535077873714 0.052921262139245840717 -0.12182846920577093675 0.093867750107111833091 0.17151795531828856189 -0.062037780761399159701 0.098643703436835192266 -0.050555803552215602958 0.060273340162648091078 -0.26362011364651438683 0.23160421324335586646 -0.0063838012248844467136 -0.15093266296348212263 0.011990662461137013145 -0.11216337959444845629 0.018030028724524863742 0.00072299582422668433931 0.11512921116706127667 -0.12937334092421354237 0.19561314968631285383 -0.043094565669452050694 -0.1094024583230530645 -0.17889240974314221666 0.03956469680785448112 -0.052215582318001822759 0.17682348768600680833 -0.032828327445094770964 0.1406598170591534247 -0.1276570929185524006 -0.090844627092662111334 0.1589318294286621025 -0.021293914324713430347 0.16907810803643297248 -0.16740281807553294979 0.057751185718084616094 -0.13863700185326854886 0.15190968968885745771 0.15088474488282319075 0.10800269257770894749 -0.22070190829080216233 -0.29424288787292024461 -0.21918295240364099596 -0.21493275547958373695 -0.30596618360403976533 0.17628564150971401392 -0.070984950827276294127 -0.21520583017649361213 -0.15364580540183767066 0.064968635496761004133 0.15313692543745269226 0.23256621867978763407 0.10798317239658662692 -0.31432925358569752117 -0.049321427792850272565 -0.31480678622581365067 0.019688929675145606935 0.20297857536376751053 -0.15877285033042570772 -0.14037133177808983064 -0.11757711289978131641 -0.1337517650042351347 -0.27387892104849964614 0.062954841347540202445 -0.21949345089175215096 -0.19331159311090359565 0.074713894629979946127 0.32065044641407897119 0.15143248662827443751 0.16401429465154504506 -0.45967092055841268783;0.014605161076717200486 -2.1036945416892016876e-05 -0.044254486104306385574 -0.03340871262726191615 -0.016442997738355318721 -0.06519298010204536975 -0.057215125780121132981 -0.046929782063139337256 -0.031288291928702367806 -0.02959086779947095458 -0.023018467150744726518 -0.022660638066175426558 -0.041102017541332518114 -0.013007410931064371934 -0.018273444867381818946 -0.015288959888940804183 -0.015546158866595705811 -0.049705535219533386604 -0.020121581030462340478 -0.0089408689051966652728 -0.02961172367235075098 -0.015935297065837867453 0.0087465914173724176178 -0.013577165786070466078 -0.012260617190343704036 0.039570822324395578395 -0.096144675054613021326 0.030441357869317849094 -0.097064585513976203712 -0.0068965557041582980363 -0.032358141245375365846 -0.056505533718654223085 -0.049874358924729397802 -0.048497111645753258891 -0.062736615513170307379 -0.046198656931436300754 -0.069924855145033687487 -0.058890585113370030879 -0.057445373147960616944 -0.057990122047783115855 -0.053549506082586101341 -0.04643615275646432311 -0.029848917724351619468 -0.016084740790641063185 -0.052587252156826663763 -0.036611202616622470773 -0.016850092602745753156 -0.04026140185241758318 -0.010997934899023304595 -0.045039538631432833593 -0.027081568311002286731 -0.053737078690960470018 -0.033752864475222771334 -0.00017435439035221094112 -0.032745491026194062378 -0.060160876064464949287 0.06373435449629330507 -0.098265340921667360119 0.072355248117271911412 0.22225301524653742757 -0.036147375646673689242 -0.018637733996006353859 -0.032042563340542951078 -0.031444662117586112682 -0.041132594913808336046 -0.037784322182507240617 -0.048594828353057110959 -0.033169439654238665194 -0.049020579938608449533 -0.065270261970584067535 -0.022496425437026883881 -0.0064625558185149346857 -0.028760769234095543562 -0.030079177846669663543 -0.053166025055048631021 -0.035506074910865159655 -0.010307593498503441962 -0.016245648498253873609 -0.055221378042563572242 -0.051491977364679593354 -0.03729790732564047806 -0.051280221229430121566 -0.034354811536772354719 -0.0080688143257763387389 -0.018087784221907550475 -0.056478445393156599674 -0.043693632474411832345 -0.11424884465441428882 0.14172516924461223131 -0.085349662059094263955 -0.053150235006852682151 -0.047010583952811477171 -0.030313938010073444157 -0.039920682274464457107 -0.041196053900849231855 -0.023653081667046115671 -0.057807163196985499043 -0.048011306745254687944 -0.057200517942201739574 -0.038349957533338016602 -0.031202818927601124604 -0.023468090462424182757 -0.038010805061533696481 -0.01009073383131338375 -0.012245853187471339787 -0.049829330066614385686 -0.049565045144046811221 -0.029824528090868784175 -0.0049958974491738222801 -0.013729659171322385058 -0.035158787758257835365 -0.022465245072426764245 0.0025338140174232240062 -0.032606575220587033503 -0.046878360087751660967 0.0079362115021791128366 -0.082588894044968372277 -0.10159249384194535271 -0.054999863643042865013 0.10475643230882537849 -0.050663991479293547793 -0.041573170716995747065 -0.066711876663116231878 -0.030035673145339055606 -0.047186689152066696451 -0.045139007668349183378 -0.031716084348560470707 0.0077587550715662615894 -0.0014000535317238598822 -0.032272412485961167461 -0.020178034075603538261 0.012078132282341081175 -0.024353223980989827796 -0.038802503843011523776 -0.018486650455038833307 -0.037273142703474648751 -0.049296632066910497927 -0.052070290430364866985 -0.045401264641700224411 -0.03559682213568998721 -0.021415963024447537411 -0.011953491619502919566 -0.031064292358245898518 -0.043639855865399014567 0.038652052394752792197 -0.017402866897970274002 -0.060139954986391998271 -0.13693930799380274466 -0.18412027382900247874 0.21591810410387746177 -0.030809916403658831746 -0.030475850755688847077 -0.029884691962570052864 -0.049077910969359310467 -0.028462126575696859027 0.0007229749274222918836 -0.014391641235956374387 0.027868533943356345317 0.0040577823109128104834 -0.028387452520779489495 -0.017859155978641908652 -0.0071318047642752154316 -0.012244411355525935264 -0.0090072505497108892869 -0.052894066021095947905 -0.040197204653683760167 -0.042545355025193354326 -0.044239791279459421414 -0.050947369900530746489 -0.0040389722573171806322 -0.019461191073880921426 -0.041426068316096409383 -0.038158213656292551408 -0.03329195499733902941 -0.017589233408624858901 0.0039281004643215563718 -0.093914780918591178605 -0.044867049132033674785 0.022885012391034111057 -0.16250654964759070342 -0.056083927939172925625 -0.032910390892654593775 -0.06365238760153305031 -0.030211687393990077632 -0.0064615604403761538188 -0.010585230373455973771 0.013942769016502105928 0.019992682431483985162 0.027478561442021424976 0.015319599727700578332 -0.019116882837186526672 0.0007905170854048491208 -0.042992240094084477331 -0.018872214235861377307 -0.049703339179300955186 -0.046230862868090256967 -0.03300590500231559421 -0.065073059859389242865 -0.037383724708036761286 -0.039332136682734948618 -0.022696955332293732022 0.011556134714346877682 -0.038523105334123154686 -0.021099639572166491164 0.014437744373801424461 -0.052364341220829446755 -0.091142203136516636297 0.0053857272896169769774 -0.056545799086832541913 -0.1275865468302106176 -0.05502999547430199867 -0.033337679196201779053 -0.041371061409913388596 -0.032720663553720115424 0.015273451692018533143 -0.0051515712369570526921 0.054196950801697771349 0.01703054201649719171 0.0033836921370899533147 -0.00010604665312951079591 -0.026987391259857395481 -0.027709548776146272764 -0.053847942914642801804 -0.047055075316036601429 -0.043823322427697812553 -0.077717190558451762494 -0.045908125546684469542 -0.062016873017164193815 -0.027131471113825255531 0.0020970314990159180657 -0.032069795865628060449 0.0042316040752365174579 0.0036836398040483385972 0.028067088616023232878 -0.043004211835103903216 0.02689917748500498737 -0.015685292244788134192 0.12836589985018187487 -0.016113473774146944151 -0.24213704479936334901 -0.035465391956520972427 -0.061294215574701674254 -0.061527712071330967203 -0.026286589261677501678 -0.023532594588403971808 0.011024082196371754946 0.0521035123164494407 0.008856505353860273308 0.03859733711765656744 0.0036893338712261510536 0.0011198162971809855898 -0.054756490800931277574 -0.042397259753676974636 -0.076393920323629779801 -0.085020190595966521618 -0.072710319963270722554 -0.023248746579114701327 -0.022460052354163855676 0.0081859394400079811549 0.0023378725592248976797 0.0061814993140619734976 -0.016592291596487677291 0.0047672705810829470521 0.016737261284593692168 -0.027020201452705221168 -0.026770406485937803948 -0.069452743874216599229 -0.0012279670134872219204 0.012848126482991568259 -0.18653159933237667412 -0.058129999434058748919 -0.070053994414609285779 -0.056679977623618447991 -0.039840118959425151191 -0.033580487533951541845 0.018465843930464850148 0.0025610880381474404946 -0.001530349395625773103 0.01465604095600405582 -0.012768945389144539804 -0.024557240965059425747 -0.076207737805886119342 -0.079122776584019449686 -0.051814356864742762421 -0.063884875392426571095 -0.018799848208671823824 -0.01688742563904864144 -0.014895833487929319161 -0.026474123579088404412 0.0056540373247609167218 0.0041529690102419507952 -0.024495000537193674373 0.014289479181353269971 -0.036831565616472841662 -0.0069913369797283382925 -0.0060505499171418890281 -0.092859636199504297371 0.046112723179490576475 -0.12944752687217286891 -0.14225213220958449201 -0.060920681818205653368 -0.040743223258461747083 -0.056588528004624896739 0.0061347571042152972132 -0.012283510417698310924 -0.0019368165442919728792 0.012344445036183883044 0.0069657380850082269846 -0.040534610985157995544 -0.057856667717059322154 -0.071149002863651569784 -0.04867370173646529824 -0.082538262900543432621 -0.035783092984641481915 -0.046311506215684333787 -0.020246156230811919452 -0.0051435334561649708601 0.0097613714149733278591 0.001179486427889395346 -0.017488911662548262127 -0.012281613206304694066 0.013908716490502718091 0.0090461900465603779092 -0.01551312367091976438 -0.044704544753434327653 -0.027799270129319014755 0.024992616878491136223 -0.16405790165930839164 -0.1980304927496024936 0.21872840268540943987 -0.044173644441600240507 -0.055070567080865169551 -0.014154383811317037406 -0.028193079819342079656 -0.018248601004605610743 0.0045803241906076999634 -0.014621355220963186058 -0.018067369085904935733 -0.033855614889493367003 -0.079803533195355824681 -0.065395897942599409691 -0.066311638529376909501 -0.018769854001311262609 -0.046829984415717680613 -0.0039717081626652432635 -0.0026355960118043877949 0.036391805772701631139 0.038143000235572009637 0.018848700212036838958 0.015596290005840241985 0.0086865731934062072328 -0.013100214938756220978 -0.033399287271951898226 -0.031380865204222369025 0.017890009857353540712 -0.010552760187608938372 -0.022018746655901495074 0.042889840996465679324 -0.051629837735745490179 0.083639394861279942051 -0.027095384856635693072 -0.04189832336851016803 -0.044503166033738654483 -0.0084405732324828331575 0.0080440568650008131141 -0.0092596460045330109684 -0.015450768402924528952 -0.046123477635575164946 -0.035630565946330509941 -0.07070691422073628607 -0.04633552820031539704 -0.064031239958381225286 -0.01675785072361976949 -0.0043610550196917880969 0.01630854569590388034 -0.0039937592867029560184 0.035287555734768549787 0.044781683459253221469 0.020589005601348492336 -0.0073742205413995388225 -0.018968726719507129214 -0.044795563387396049315 -0.016343264281919796244 -0.041470086153902768755 -0.071994411705794222889 0.027993963562667697337 -0.058642616730790089741 -0.083024798067052915651 0.063231956857989990439 -0.069173365020598343023 -0.059074493592505654405 -0.010556283528096972041 -0.02854155212745893011 -0.0031166266372777968845 -0.0075234922081500793176 0.0093373082648146640133 -0.037000642250211143724 -0.045174305056278500625 -0.068511754788927695103 -0.046903043055260301708 -0.027163534890440189928 -0.02150160733626816506 -0.020216099689390150396 0.0056953260744391819362 0.011008814454341479816 0.013057312203681779514 0.016311553627367029323 0.0063281820067710384953 -0.0069593583092178437285 -0.035456643426358014359 -0.051524664586671355127 -0.077508844498563017611 -0.06322794141341162022 -0.041798350578056850391 -0.038321275492049687583 -0.015943158275267224622 -0.029659758566486067732 0.1247106898132164382 -0.085376842615344131215 0.15563216024160334006 -0.058396594364112333619 -0.050644418146688650884 -0.050911782574904876353 0.0043300219096950795516 -0.030725828259580617585 -0.036896772350512856142 -0.021281889124917349049 -0.034548104757091545325 -0.057904563005157512479 -0.07060160956457828263 -0.040756303590013850946 -0.017153417407314144882 -0.0012579417864746207222 0.013904630077334166269 0.053123792494427939104 0.052066883189310630975 0.040507292555827613401 -0.020018033455891863504 -0.032579813552716128944 -0.060650980298794079926 -0.08059963720089377559 -0.049369395770627377829 -0.023366832675050529938 -0.041521243168987628791 -0.019380126863878743837 0.023452149408720739804 -0.086579328264907245982 0.13132368177895553663 -0.011350139967344718625 -0.20261485653395208684 -0.047182017795093726675 -0.018812348169757998895 -0.022606129358785278377 -0.013351093935068468477 -0.010326852580154612798 -0.014600284239298110672 -0.01584747876988568463 -0.03285579697159018292 -0.060187120544001389277 -0.062465094725061322267 -0.044026716970373670768 0.0090754281125859613544 0.00073266782830711863796 0.015683421102981726786 0.037250198398258813071 0.0034550536825967096549 0.0026536315195400911153 -0.041773397550608271089 -0.025956624033153487957 -0.069154565452178962115 -0.054280788910761990085 -0.038289490729951192183 -0.054615448119062055821 -0.048416188108634752862 -0.00382478328578769863 -0.026858898634004049755 -0.01672924578495224926 -0.12678510605481557727 -0.031666925774389141635 0.073320354280719604589 -0.014809884318667346573 -0.018598863774402625559 -0.023123377491262604028 -0.043954453941587923183 -0.0083506604990302175234 -0.026977435074086335287 -0.046315534612786389557 -0.04217003751151674612 -0.048754143528568931465 -0.056226157139969389076 -0.022964054294937145256 0.0064714456213723877201 -0.0081164627669566540707 0.025159865323468900977 -0.0055763305651945465485 -0.018142577616412650099 -0.016504898153218292706 -0.057062106125701915482 -0.043644814144233025355 -0.08111328922316461687 -0.050220193941853737141 -0.044849452386090227218 -0.0042468873841127758456 -0.0095680724052621072412 -0.035808328006327161397 -0.0027714036598309797592 -0.0045284669144424784248 -0.16951057408928180137 0.165626054716710297 0.11082795076684788527 -0.03185817907529060744 -0.02999941483720188623 -0.027317504358328876385 -0.018238526041692831176 0.0063935685552866583156 -0.028554463979047383509 -0.041636313557810972208 -0.0056411999306290663836 -0.019623269031754261155 -0.044961372079964583015 -0.0021274157118745915147 0.014947495114813851014 0.015078997903146753798 0.009640145293880998667 -0.013120370428378243591 0.0072602737399430818804 -0.01756301260583635962 -0.0455029108729959747 -0.083230885139623900226 -0.05948872609269573869 -0.054668754867979875434 -0.031218066140236113565 -0.017441071104209952131 -0.031927561731390156907 0.022330830560802102103 -0.061775703411327403947 0.022479595553230560107 0.11915227426245789122 0.05614730164972387555 0.13625403130179730704 -0.054793294482898755038 -0.034033046967485304501 -0.016763227037061873004 -0.013901941721967679341 -0.019865956102616263296 0.001394879294150986682 -0.045539206290730133153 -0.019060412526432722602 -0.059469675114790662707 -0.022089837631988223227 -0.0035574223754782849372 -0.013682263013968559012 -0.023796428860408256473 -0.011094906128632234937 -0.041371202066424160593 -0.036885459095639568095 -0.054917357535382758937 -0.05544011833018309271 -0.047970665764718707635 -0.055777580993030873024 -0.052029680004006810534 -0.022176827997609779158 -0.033920520666587669623 -0.032084063174121081607 0.023269401561419704449 0.013354408368220429745 0.045965691216585335965 -0.10646772692623111822 -0.12814209238321069839 -0.25555337207754119655 -0.036281316369710589487 -0.052546173070481358436 -0.049177515376021961602 -0.045199581048884565626 -0.021802942069345583598 -0.036384332305341202107 -0.014779398013083653099 -0.028776729756275164912 -0.049091667018759235774 -0.045058500403016309155 -0.023809722415439840693 -0.017824014534241622298 -0.054129961744634531862 -0.055187062682042743733 -0.048749714674842591078 -0.036812503237112874366 -0.068691646830642258403 -0.056711151099871591474 -0.089083848073446575411 -0.064821553688958422068 -0.063652275419444917515 -0.042807868596258555338 -0.0084169712236618100809 -0.032566840203488246763 -0.051689619485915376529 0.03992809397336229138 0.015257940113161089224 -0.044091524347076672952 0.038497736585861648539 0.1759268212511926055 -0.028937465233780858276 -0.020001887932152458832 -0.046176969035207994507 -0.046040927574398531064 -0.0075453713957140946741 -0.016429451332098918975 -0.010450381229762797236 -0.049878095636800248713 -0.030192865438453554 -0.045188208855702099997 -0.057634516803032817545 -0.051193015623427803873 -0.010369267673845423625 -0.054018517148534374306 -0.04580971961267760878 -0.037423860855584287211 -0.06601658361939397035 -0.043338111388093486509 -0.052258161390134921787 -0.037649021346573260938 -0.050619993607526579671 -0.034735699330062971835 0.0038860235115500195262 -0.024915867333887266322 -0.029092663231346474473 0.030990860374794343413 0.036891820216549041367 0.10036706864926293881 -0.16813704760095171675 -0.099342989398739908746 -0.006425211133823463712 -0.039101794922422744571 -0.0062639295065655426625 -0.037270268300762736391 -0.025130214684261992231 -0.035207414321865936058 -0.019448420056344995627 -0.011222664654480404151 -0.0049829419358944004523 -0.0048885416591480301482 -0.028631366372061747838 -0.00068888285997691252587 -0.010474498773553178599 -0.03340390891210885671 -0.039151352612537229647 -0.034462650637327479908 -0.030302881317276094547 -0.047185911946202724332 -0.031100966948074224017 -0.014136261703813039758 -0.038823595123207495228 0.0069861264257050168652 0.032817850384818686438 0.018397315121849718705 0.047724635032603546225 0.0084309730696210012646 0.13104199632435908907 0.055430869212123617951 0.12122869857740838084 -0.17695273052643981093 -0.0087426251217419329032 -0.043561333092379313225 -0.049581449372349796489 -0.0047160552003078590882 -0.041521595908426314758 -0.025170231685943306871 0.014461114166616701945 -0.014943202885026389895 0.0063464490273159087502 -0.041898872304765757968 -0.020629568353629695876 -0.015325788900241972892 0.0045244620542274219602 -0.031907497376672588896 0.0016872680709977450238 0.012781704335798716593 -0.0054942647073815357311 0.01445098652645057484 -0.029733347970465465182 0.011526185080625117249 -0.018014553155028235898 0.00089380405064496109419 0.034469788451775486282 -0.026218580338102003002 -0.013404242686951157656 -0.097655684885665589023 -0.076602411394144254153 -0.10626039875534640244 -0.16186865650089390933 0.27713197401421946209 -0.021445324204841631488 -0.019327466014545484352 -0.031854472875209385863 -0.019757447489650924871 -0.0071200417555859754279 0.023830532626256024226 -0.049736336660987236213 -0.0071142095296602980703 -0.042640341548612861744 0.0048582375264852768748 -0.035549804454961593525 -0.022624441636190931876 -0.044028969642318720179 0.0029456421685475466313 -0.0067342370660954742681 0.0056165089306294737476 -0.029602202969471282101 -0.042179838875556575906 0.0094751191657487642689 -0.018562035785535207361 0.023962775290122799443 0.042589392986852617207 -0.0097142343447157077779 0.070641978810069838701 0.032134840241766202129 -0.051214779110195667033 -0.13199288019322802379 -0.055875219167765562134 -0.1997487911171936803 -0.16210690218825868358 -0.001292487695134954739 0.012778412980901335261 -0.015991041736316321392 -0.059053586119005220534 -0.055262985230205369236 -0.056946191206029075915 0.026914027178295649168 0.022517887256403842922 -0.013430041001303145293 0.03044000801135626072 0.02271202222735837703 0.025028636468283058103 0.025397953682056776531 -0.056002709778387838035 0.0014824264804993349948 -0.028396895432907690721 0.027590808648171889078 -0.026821460637070346222 0.012833918711226674492 -0.012211549351590734319 -0.044676284177544621501 0.011020950021585236914 -0.068197466228772055108 0.057520652524710259856 0.14067501709950727684 0.04411843870765992659 -0.14699837214538155616 0.1035548315952264653 0.13795236261392568311 0.14323154183903075154 -0.063524541474514847894 -0.069144497590187981029 -0.037705553623465011548 0.023500882086311365021 -0.059952005699273801242 0.041701576315035696063 -0.062730877323969688741 -0.066671166540650417254 0.0053657564770046260738 -0.0054464662898255781012 -0.011892379333560658058 -0.073743752169810855568 0.032242531353398502791 -0.072502621112714146778 -0.0081378747239008297071 0.018672540062890517071 -0.062615380792128375043 -0.077272348103583549106 -0.012280807026794647585 0.031608018087525634188 -0.024780662210229061765 -0.029878535104455688359 -0.080237242207760170465 -0.11328817019678927291 0.10746400095307390155 0.064571320318852667985 -0.1154105087498265847 -0.074031142473655595082 -0.18118658215120025945 -0.030961738951308430401 0.050700111216929293068 0.029271164873356347869 -0.070115048046707512119 -0.054001879812007887172 0.035673610763068963614 -0.06349578688740263599 0.0068249074977288232829 0.046174612749452836891 -0.059527570082824089737 -0.089682759922894927929 0.039610233114175025237 -0.063024865803857493818 0.04732223247665549859 0.045019648256530771235 -0.090641238575377092168 -0.0016290304437888705139 0.048874245576631100696 -0.087088023791105431681 0.050852519347543000128 0.046955654149373575457 -0.10687717679421210315 0.098807051827907263486 -0.15490191355394528072 -0.0070584282203372972903 -0.10696830675717014514 -0.12239102175815652629 0.034972950136038766233 -0.013098333449475370316 0.010147431181664308755 0.078944273122683858435 0.11223652210246801153 -0.14785133893830215701 -0.14671006063219241278 0.13215873369208400168 0.055222867672853122312 -0.096101275087902685024 0.12418229463408697599 -0.15820302420129114807 -0.052956231362250111294 -0.13715831901651545643 -0.14033016679650670011 -0.15390567422291992483 0.042944882221364680253 -0.17537286558148756921 0.051914129755549910661 0.026991420700617146239 -0.037357029041185776941 -0.17034179247020009296 0.048755067519560803257 -0.0070879485439316759071 0.071723904162551463393 0.0082567536293979403722 -0.0068277180427538577273 -0.13429833077562117194 -0.019915777175807641841 -0.0068290578662661043444 0.11711252966260979336 0.14676896045329673735 -0.17991581382765742259 0.28299608921588181865 -0.10739535655321030827 0.16943867009913213262 0.084634209566650631107 -0.04799019333629209183 -0.1417136588518823348 0.13473009256252116428 -0.017595537081142354624 -0.060401633360365733494 0.050228833691856218657 0.024663346120591272265 -0.1377030000325337733 0.16384935864353689094 0.051809776775228473522 0.12578704308479526919 0.13790221261731322455 0.057079458874461919127 0.074192129499254008684 -0.18026966279219319711 -0.20529822066079289611 -0.0813866957025517479 0.07457404383592450281 -0.0010233389693263929623 0.015294895602641035356 -0.0011846402735925470971 -0.1025911132103789758 -0.025186798759025932209 -0.11578922099170564641 0.0050094507437185940152 -0.0075478716431783650018 -0.3739287901002461556 0.28466201853353673146 0.19143055912141665464 -0.22949957250609001602 0.18456378562893593909 -0.19216685876682115808 0.020153579466585094804 -0.16971333351282238966 -0.18369117810544274838 -0.28621261701826000712 0.26342021774523793898 0.12858976608993599733 0.12552680116075348726 0.28066099724658755132 0.026419755771831671121 -0.11551919251715023207 0.042144019440116378683 -0.1670501257971297171 0.29995873264987493734 -0.24714913348360298406 -0.044427302264731974302 0.074989518627321810618 0.024393647763031833103 -0.26701340393867339928 0.1318993773180719975 0.14781518214254907306 0.29193357236171307845 -0.25501953154032480642 -0.25612351336971977966 -0.34012647978642029933 -0.10176255645846028763;-0.055625325818866110106 -0.090540148327886121882 -0.050996983263777544149 -0.044010032915727144431 -0.037490452973874675846 -0.029850730394672581741 -0.042076252567201301302 -0.068712247178475113762 -0.023638637465913523578 -0.040159110378840665034 -0.077219887410715282172 -0.043488018455374449767 -0.067290057815945589215 -0.045349632199733126703 -0.068642041147073201701 -0.040639840125746978794 -0.033839590048566944858 -0.041962427439603877666 -0.043779088619243483604 -0.077587194021665181753 -0.065996505124589516234 -0.051059995821299150598 -0.022202434393050172329 -0.061137488011371796115 -0.024790734069221630198 -0.066722547356051570278 0.054912170696032408523 -0.10734376021387642686 -0.025869453339743241072 0.2115535889512486778 -0.046210863797633359995 -0.05264169022525556213 -0.055307369937242299718 -0.04712843517785281211 -0.017298750909705652712 -0.05500606207927191682 -0.0089284580125020048674 -0.040942586157325655538 -0.037097259607121180203 -0.0088106362457289390949 -0.014863310145334433093 -0.028534409893365860617 -0.05206552117396794771 -0.03261276308416789782 -0.032733344630808153264 -0.031258261615908763953 -0.031584347098346371441 -0.038490707223253456393 -0.031185362564841681565 -0.0385851736408350382 -0.04502762376630814467 -0.01442621418028615897 0.0053652493045486067055 -0.033435784094576759262 0.017420449553163221135 -0.010172815060756292341 -0.018200302281100456947 0.014896604450621391685 0.038903141905485792706 -0.22314795375730742122 -0.021707597484788614117 -0.024998558896715174921 -0.03061711244320712913 0.009651858999295617747 -0.017853807588250506649 -0.0037477156138372735329 -0.030119595490304969243 -0.0043021803811654621072 -0.016591639322752638891 -0.0060267388519515269207 -0.027224931096737695069 -0.010366353138244488799 -0.011874603614649299407 0.0091589181022016085548 0.024806412971691466779 0.024489381232915087561 -0.015802794374033500568 -0.0004731472166659906383 -0.011148784009806176828 -0.0023215503709972241768 -0.02381572338303305017 -0.0043867567681725857728 -0.051157183079539307602 -0.041294672253630503034 -0.037026740942601284179 0.0032953157315011617767 0.073327890050269434186 0.033520811919999352058 0.013361709787976679825 -0.21027728887389871004 -0.040320316238597657399 -0.025100325493207197025 -0.025105124875031307324 0.004521897126511599356 -0.041123544791916454011 -0.021556693859491736498 -0.061105316298127203278 -0.021963954246346610588 -0.0052724842298195401594 -0.026737005742143514497 -0.029161229245803863691 -0.01853086724841677968 -0.0090490834974416636816 -0.02526517670117517031 -0.023582218509621749591 -0.021913429000116960155 -0.035565956516207912486 -0.012507751801258855384 -0.0090439983515740972331 -0.016167794777903778808 -0.036550526606588480683 -0.025270943109312046099 -0.045171124730574101214 -0.042007259920072675952 -0.0556253089102101278 -0.051816898320861094762 0.024433326576067782021 -0.13514409675217312068 0.10319048308979056339 0.14460591006428596961 -0.050396737639266310504 -0.035616770644036975513 -0.023494595687549430646 -0.0079581080821105598666 -0.022706040852199502189 -0.032937914984955712905 -0.012463628610685312248 -0.015390941471685239475 -0.042488825826724821444 -0.0087909663786241969835 -0.049320299588325247631 -0.031959942527032665638 0.0025292174001645120404 -0.035508240472922114606 -0.050391207774952768983 -0.028860309701452601522 -0.044810335334640599703 -0.010438014945526744373 -0.027857715167989249155 -0.064541541545113850775 -0.012076688470846636339 -0.019284947793968193475 -0.0075849898763795404327 -0.034855404863663876081 -0.034456798079846605309 0.022620851004071892976 0.071628099874853912166 0.0030211372680085989487 0.12655895859918356305 -0.22487899059866839346 -0.056529960077472712898 -0.037021601685398378145 0.00020648785261418762952 -0.022195248422058427157 -0.041607081742319612649 -0.041701240696861048562 -0.016110067470396834816 -0.002485281132090307217 -0.0053031692416507653087 -0.041213978686700535048 -0.026702750480188795767 -0.035781901302310098467 -0.014986265734392309468 -0.020155421131128656298 -0.05347552108984405389 -0.024560650063701189999 -0.066688862976894372481 -0.0023920145761098647076 -0.025265211580565254817 -0.0045199687099150695144 -0.04042932522028789416 0.0031583644270105834528 0.0053267399134187317505 -0.05493159122291088603 0.0091670575306131187043 -0.085935902592568919056 0.075712219871666944226 0.062697920835318637911 -0.13027825378232690823 -0.14459802150638742524 -0.066305044364029730453 -0.016022610626128499373 -0.022798491858536266974 -0.029809214673046462857 -0.026283663344716941268 -0.038363050340114349113 -0.0048022300409747984209 -0.019981031216654145805 -0.0087724856729628174212 -0.012757870543338139385 -0.04405466100891189396 -0.050324080367726044261 -0.022739200550931024103 -0.011826991463077966837 -0.017254024213745593891 -0.051630452676976287818 -0.042698807824654710918 0.017065683664237787931 -0.016983840417383124638 -0.022565290037223722369 -0.032333363445286131266 -0.018995770870542175168 -0.031774252852902605537 -0.045967121943477233514 -0.031255227380643610391 -0.0041268609913904285083 0.044489842005692815941 -0.045932362997059349163 0.094170213549283857124 -0.16526059303932313926 -0.038351090326475524572 -0.02774985246219290741 -0.00079245557454233543464 -0.044942501770131759731 -0.025699465165057795019 -0.0048217615485809731113 -0.011033464654006166702 -0.036708904226189047193 -0.041552480656141359272 -0.019644072058146059417 -0.038878198494315410749 -0.0016352561843447472288 -0.039832041308740108454 -0.0026804383861671597124 -0.0046518453937995181066 -0.019352684011367766309 -0.040845023405361856328 -0.03192320964259479088 0.0082316319631181474048 -0.049983573263131762798 -0.023270826518733779553 -0.010910750753328877019 -0.040961234637298518657 -0.05057873579427082239 -0.035384335902524523265 0.02441967280361518472 0.00766687224589332212 0.00067428559883663257042 -0.10089948083458905037 -0.24301718478231604248 -0.058975718436480174811 -0.013625065261624789981 -0.048011240749209496692 -0.030512971984248005858 0.0038286765984450812916 -0.024894556502255426461 -0.0011277760438508084399 -0.041008520777448181915 -0.035270222209312203365 -0.011796945724817421014 -0.011174069262627279314 -0.015593911068848734236 -0.0052163581560307169249 -0.035433650353424037127 -0.015967560679900256321 -0.02998943511910947754 -0.053564728830544666716 -0.013763339999797669436 -0.014736597876213772262 -0.050860701894790388833 -0.025035127292639753477 0.016526064163768925536 -0.0047269723708130611042 -0.010636687370755003659 -0.055811503163438941355 -0.078690551124969018715 -0.057086409377711082314 0.021829545585469747881 -0.14566765825281988156 -0.17824307128604871542 -0.018264985834102551859 0.0019128934119493580177 -0.022133667725277979266 -0.024350591376675802952 -0.023238075275658156421 -0.0066968844864145659138 -0.031131172211754348789 -0.014007829100548910631 -0.035586825473132084607 -0.053367023197031258908 -0.021785474786299250521 -0.011087384737370132443 -0.03225465734230308773 -0.019540133668437098535 -0.018598403495657996748 -0.01684600682380578765 -0.031271642312943756514 -0.0084542513019535605462 -0.014712874428085206957 -0.047283357526868470544 -0.047583867260809036004 0.018504498766766235007 -0.0065846095612597764501 -0.038206097214334579226 -0.03388253621316432429 0.043674788900681035808 -0.067312638205810126912 -0.11800969006562360419 0.1034437235826290713 -0.11947231738242829191 -0.066588806459585536679 -0.049304644274912330648 -0.041395097734427052649 -0.031580007466563100871 0.0089381663149531772466 -0.026983091258351254299 -0.013080947247220855653 -0.041858009046139545151 -0.02846136142823334908 -0.01380732019555434148 -0.051028812217116498173 -0.012925496198178759721 -0.023721504769095725501 -0.015027135267682057568 -0.033319288121941473269 -0.040627368343855274624 -0.033454990978324009032 -0.016097562420782980663 -0.028826375439492114144 -0.068524767332545838405 -0.055656641332067414984 -0.020042615908029921823 0.010886059355569969315 -0.033384671529172120497 -0.044221916086495227649 -0.030460955822495278111 0.045344795008605422171 -0.091915366073689427906 -0.1017731632411821574 0.054029608663641488786 -0.053310972994503068312 -0.041350375411685881544 0.0088882886106013084954 -0.022375542519723939233 -0.039398056686317413366 -0.032753356507941304432 -0.056751472941450685494 -0.058069134520823122159 -0.016548820186477190136 -0.029365478056734926199 -0.021954748666855785494 -0.0072483721595923570127 -0.024787140516275472935 -0.0119930298591871317 -0.041945490313394194481 -0.017100101115395657803 -0.052043865894664594063 -0.022411286702764609408 -0.0060270100953811649516 -0.055999449840876201756 -0.032339319165715856019 -0.022109876401679939839 -0.043533108182968294209 0.00045091938464266655097 -0.058676356847724035759 0.030968977307430044926 0.028931056828418809379 0.104211706849906105 0.0043473915096472305966 0.1856625182834897303 -0.072458264380036913055 -0.035752408853914362241 0.021018724618315026698 -0.020577505235089891406 -0.043255849284368354246 -0.018765569495224222046 -0.016379056275434022288 -0.0297109921974807005 -0.043983174372423293474 0.0020812077364933774179 -0.022730793620245923203 -0.0085976369968043930142 -0.055193719003632513154 -0.020901643665286934182 -0.037188258250956070239 -0.029397139083359211109 -0.020360953418679543503 0.0022125572904574536404 -0.0075444540305999972796 -0.028576408863357261742 -0.062655641804280223783 0.0028942519151336477089 -0.0074017335801257588129 -0.007191829509805507982 -0.069409780657168393403 0.027734761422190952473 -0.070574404081635469521 0.12863436027354557822 0.047105508485279792841 -0.11231813808104842978 -0.074826883935105725776 -0.016918942320332253093 0.0075361073368609915804 -0.026555266757991396326 -0.046423661314423041169 -0.058668703720953604974 -0.029388521773109847757 -0.030045140488548643942 0.0011555546156659366776 -0.0021255973127418501152 -0.023886623601999362743 -0.020010363849664470487 -0.047118594779049977062 -0.033622875249085006077 -0.029285404536386731161 -0.036318270407763440788 -0.034830543121956845931 0.0015496911412442194046 -0.017327931073830193237 -0.036336691271672952319 -0.041290895359761686789 -0.028985750487635533745 -0.035080271216523434274 0.0057003511604076344266 -0.032568981534176213999 -0.024301027598425326004 -0.069972924813691689261 0.0016853774172341069119 0.13407803385304770116 -0.23263927031475209461 -0.062739243050024526283 -0.036395069455851192242 0.032979463395442901175 0.013969071344089522071 -0.03530583547764450103 -0.026961280935160709948 -0.041225061156153743058 -0.018213952109465747498 -0.021270946021938415271 -0.0086766229035493084437 -0.063279655067251416867 -0.039159235378453109699 -0.024832445985429919821 -0.035363044212824878976 -0.0369915891337970551 0.0024611067171857541579 0.0013163084733855815768 -0.010340023161893493672 -0.003744222374332098046 -0.058939221963456051023 -0.045683667844918250667 -0.017594763718285406223 -0.021463624952994572737 -0.046078950767395279731 0.019853438057853351612 -0.060373506321565115207 -0.0094414808333553919967 -0.044504012353210151143 -0.10926184115525365559 0.22327183810581477386 -0.054823617543628272442 -0.037428382557712233658 -0.021890686630802194679 -0.035771295671867722743 -0.040767453213493294595 -0.047393362092740955183 -0.047270166559078778679 -0.040178026582303925929 -0.0056774275502607827668 -0.021339787120424245914 -0.058438271109203153431 -0.029519982133313513173 -0.0083876901361604038615 0.0025796641070655827038 -0.017111872186166589282 -0.014179348084224632082 -0.018368377103948115708 -0.039142417696922275627 -0.017307271829485652848 -0.074568358006859097875 -0.034480449825560199884 -0.022316885445298143692 -0.029070307668190673023 -0.015738196758490856364 -0.026421354759871378687 -0.043279508284739885704 0.048096310155751373361 -0.014403328359431873118 -0.088723686925408204451 -0.098642899613055848307 -0.035507027435295053508 -0.0044351665721192720312 0.008426537596717820558 -0.0067914431306113527687 -0.051628141935351146152 -0.046239052383384972311 -0.026408163102405686484 -0.00048731468421614302939 -0.048460020475260795481 -0.039424656147861114608 -0.038470815230575411414 -0.02211998342700741832 -0.053623106607697118564 -0.03267353685297318816 -0.014891958541403578498 -0.0045386955487406593912 -0.044683836877259755505 -0.043452385197531154248 -0.051302066716007919955 -0.051744534156217561471 -0.042317976576389630672 -0.022231275259896987606 0.0057423318563601900497 0.0052683002717776221749 0.018068652951162292308 -0.074180004790368569978 -0.0038638690113017896098 0.095193037656909798572 -0.1628466236392027422 0.04693712989382305828 -0.05166814827641403457 -0.016728069705459355787 -0.030899197986116320319 -0.001181008580551448162 -0.0074238301794139049256 -0.025268491383229608332 0.010702449242582789957 0.0045716057024354521052 -0.0051322652469243581347 -0.03875738924187873552 -0.030977085906558822492 -0.048307101171583877175 -0.0005166261509414414848 0.025988956564588140685 0.0086476641711521005235 -0.046164810220677830743 -0.029321052049136105133 -0.039308005955776728624 -0.01446045568078383782 -0.022061941236574435232 0.0017890544203881082134 0.017536713770336612855 0.0053324141135726380036 -0.037385692232394115986 -0.0081229127963037099647 -0.0019711065429391634932 0.02358217597458090245 0.030774760164554649383 0.017055350858888179699 -0.12101286074467920706 -0.049964044767640866662 -0.052128471495067052466 -0.01532238734683831656 -0.053807494878132966498 -0.053377755227615453215 0.0015764115580649755259 0.013377745139251448828 0.0006375305806680987581 -0.016403184596968281572 0.0090688691947011824956 -0.048131086975537848427 -0.018832464410967669766 -0.025692977939207200383 0.027931159547965194595 -0.0019130356032168896289 -0.041310442269512415159 -0.015681385823941469682 0.0050028417281425680008 0.020830768719286602009 -0.01778049898063596701 -0.010435908867981104342 -0.017170975300204567582 -0.01150131778981443309 -0.033862520443218052657 -0.060857742698248534774 -0.073758102045960616255 -0.003752292719809193107 0.051371630680570712357 -0.14651853096169800694 0.10122245169500411477 -0.050032875061866058375 -0.054419694274537688816 -0.019282646486213542159 -0.055732391463161799761 -0.012952148731395864145 -0.038135409588574489814 -0.044960572044012055148 -0.040046208532161620131 -0.054605601677187656784 -0.058595239098849255521 -0.05086294557229198432 -0.039647067470154326307 -0.043521232675337154228 -0.028783162952411324442 -0.059537091698132066364 -0.06519172588850889738 -0.034914861373774884468 -0.035920266171126098709 -0.020413030666808180263 -0.058971073373707619258 -0.078267179401117645265 -0.049774917000492559238 -0.036200975263394316594 -0.039297217736079019523 -0.017064023630981701996 -0.032943852668924862581 -0.091333513722153952807 0.011778074770115940992 0.088574056144896606835 -0.066921559420689238906 -0.030645908317211478789 -0.046288050261276268704 -0.0233346446194967784 0.0034762231930008068159 -0.05170211685926100198 -0.050574339726593357802 -0.012441643307370825466 -0.037814116456088307794 -0.037487817033503421926 -0.011931803183163308679 -0.038398463565968016242 -0.035017836212546574193 -0.0080026401171984749838 -0.020070216413846743431 -0.043054107232447687281 -0.075394807087976703497 -0.018527420968752175007 0.0012923743941048572523 0.014384746166508139212 -0.066851773875006945125 -0.045153841974279448901 -0.045072594037648204546 -0.036828908397411347364 -0.026986664462823488353 -0.061996479660671462153 -0.077007171752505210183 0.073277077226299960899 0.12834198842441360555 -0.040420402771789820662 0.14910047565616074694 -0.054030049753156603187 -0.036539738893732270908 -0.012649752640291465899 -0.0026178386254337069304 -0.027720282964050168423 -0.009648559412646631403 -0.049962893703730124062 -0.00014363616252235456103 -0.037930126760465865399 -0.0040878136852873260543 -0.012396674159921934957 0.015396842608444318359 -0.036660266142583275428 -0.020548405516483878724 -0.016422678365148997426 -0.050545458829827749625 -0.01200919038086624771 -0.0087608799556134573511 0.019225680604845862831 -0.051992328234701012946 -0.05183396903429743352 -0.022586564872087478567 -0.012813662452063251385 0.022790514756113801342 0.016706879753556901774 -0.065483905216279225669 0.04992873401343030787 0.0090385375621254166606 -0.038456548041539882765 0.17572838247470840001 -0.053753760379452203422 -0.033354180092847060535 -0.033092348622246761658 -0.0043575626796950404224 -0.0040886297015735595384 -0.00082788824402341533795 -0.039126211797047234786 -0.021407275554804178208 0.0056354542121851269182 -0.0064175786330267180213 0.035060462926794003224 -0.032138205584253475011 -0.022741973276700792883 -0.025954685665932265837 -0.021990601534809316869 -0.021936843529103657729 0.0016683779968621221135 -0.014958079997141144821 -0.024317428891228665827 -0.061814858798648182614 -0.059856851636276020567 0.0090129685016717142609 0.023366452238081484444 0.010565647509551677821 0.068472247457478319088 -0.10185421541304859328 0.1505979090137161136 -0.1233801349171652767 0.08685665046243717935 0.31132639585211441258 -0.0087500057055707423925 -0.051808832494192852414 -0.053949163206213533728 -0.029646937548351789266 -0.03714564209483690177 -0.021079067531267620117 -0.020809708560307244724 -0.053299748826495289833 -0.025275408269055138488 0.0082850405567216501429 -0.033041314170370657266 -0.025827953567783005356 -0.01356506575710139835 -0.022448472580751915872 -0.014908459527619358567 -0.022485570554896732592 -0.027005885374028294754 -0.038082156109449961934 -0.032971312909092435894 -0.017326814819710205373 0.0020621895725776461829 0.032525652412176135619 -0.032990781643096753206 0.001219735755690116389 -0.041258244606303853819 0.13241224524996447753 -0.042262620898263221492 0.14883782737752992986 0.02572181901723232661 0.0027268546239010704735 -0.017214695437147920637 0.0025321716838927394756 -0.0016289861711297820221 -0.0084952342261329100853 -0.054511360644445491785 -0.0057924080978617288953 -0.042731415157028128371 -0.066023371164595570648 -0.061387994509122939535 0.025756351215671567656 -0.036431670397753850021 -0.0071198217773683512496 -0.0020919071210810918221 -0.03778682465561346987 0.016732333837441031726 -0.0053686883166998728562 -0.034877929419419091694 0.042119745937035150962 -0.018721966101493358464 -0.07150648880501737914 -0.053608705199212416947 -0.022314111536357907062 0.073881275483768202306 0.11099021095952860128 0.1857883883779672396 0.02683111748591587159 -0.015631721369585075548 -0.024539554365098473904 -0.081559570783686877182 0.12752933397825924611 -0.067191036187251265699 -0.024625050458675665915 -0.045884854181560505437 0.010220328585163470508 -0.048679971974844825355 -0.0087276842285599221666 0.0025899614125002518375 -0.059196406647230380427 -0.026752132109537866272 -0.075347846889550360028 -0.016168417525964654674 -0.042364887171644001473 -0.03401858004769072602 -0.068550657114904031686 0.0031468219946586945511 -0.061877222341812455897 -0.050093885321072506578 -0.014514890944364726086 -0.029175542356618823503 -0.038689916869312619696 -0.027931272506292591229 0.076139205189693512366 -0.13466734939732327714 -0.029467795708190660381 -0.061240778030201718785 -0.044833397988112477783 -0.063203698766097438089 -0.078746575622531456151 0.10335559603501261183 -0.043675265309086719334 0.061790886213079106171 0.02407841822994818623 -0.030807699016043636059 0.04206330786407236344 -0.015307452723724255042 0.0084129305451397032312 -0.0087140784872632680302 0.014650184487480436349 -0.080869266043102891461 -0.099704038903896050061 -0.080805109223494042681 0.068755452036421110806 -0.0021464094280980281111 -0.095753887893923139707 0.055589152315306068763 0.022627425718838765911 -0.037672141512496988558 0.055545097809236755604 -0.058170253209199461464 -0.088707134585212829569 -0.075478357809724491712 0.0085906742576751064788 0.056142979428446884715 -0.014307989226129401786 0.11593549490999856266 -0.018348052422640762776 0.098672121644895055548 -0.050077225387628127029 0.051865967361242944211 0.16302700913662329651 0.016509360233343532698 0.10609799545310934221 -0.12573842050490091626 -0.15279728917949075839 0.067985969515537231223 0.080591843604274765456 -0.084239525641926174537 0.099337307701174798469 -0.10224312917379610455 -0.10194997101153245589 -0.13890606370108227186 0.12003968928227884416 0.044689022594660891829 -0.082463515322718325407 -0.058515430262855119836 0.15009241409263565648 -0.040044698208937849759 -0.099946032536649964673 -0.14360139192030044186 0.090017636267862133348 -0.11938000097773079911 -0.14499643630500197444 0.06684792020087208797 0.12278440190693395984 0.15650214663599984477 0.15157149269914452216 0.038505277735320989074 -0.098135380294804994139 0.073100440191659288303 -0.24484587148981384885 -0.022026387884131838624 -0.18812164584148668989 0.16585828240659825084 -0.052136283211750247824 0.14515819611329408567 0.064664311584412895173 0.14016455688447132522 -0.0059910302158787780147 0.17934776151129819266 0.074753877900042758897 0.13469531475339596716 0.10790856672654110249 0.15375018683045832413 0.14376776515773259657 -0.061338103614375007189 0.11811623747533298023 0.013642367588549727045 -0.033668013192901538599 0.17559223307572993655 -0.11482962236141878998 -0.027438819671945880591 0.0046999924552469781944 -0.1239645401736055863 -0.16939726090257159474 0.099605691475864052697 -0.12242957578845278799 -0.058814929173886240643 0.022130561172933316955 0.036261853353599257654 0.24291585955532613017 -0.26074278630703756621 0.11135942793097333703 -0.25132772659123503445 -0.20046367692781957848 0.085743579526258273393 -0.26449468440938506131 -0.25853762312645600652 -0.17673236763349595146 -0.22619971528110713321 0.054240973892702937231 -0.11470476625902721601 0.12355030207914456664 -0.18676741244106331852 -0.26479834521501316447 -0.21685701012437541557 -0.091736092312481143374 -0.013821671398440062845 0.028691143371773471932 0.13336586051861637481 -0.28762440377598075258 -0.11491941800378945027 -0.20529810189719396862 0.18293142098331824363 -0.10967128625199275282 -0.014094264388853314576 0.23814234779069273773 0.090746799824979157423 -0.12258611925013192245 0.14004234329406117787 -0.58335223327071072941;-0.030236275901098598473 -0.055022878957630007302 -0.061321480442712683612 -0.042003201172610707403 -0.066198950936320777316 -0.026096697585848288581 -0.02858493600921525532 -0.062269851594078148849 -0.038858354074128818867 -0.031933421984734436383 -0.058609096440531388561 -0.046996679417209974439 -0.037963611424017877638 -0.041376993387307062222 -0.046657701706698750943 -0.063329891146271494184 -0.037115856602653311824 -0.033593157513520585655 -0.042970793071381914452 -0.047931274535032313 -0.05068998488547380582 -0.020225883139719111337 -0.058814845223417171194 -0.017740062886717603008 -0.054810143632322505525 -0.041169538050501441884 -0.03758887528327141403 0.076080899047116554157 0.029147403826456107223 0.25577448493719923128 -0.054588024702113789599 -0.010334591476883869809 -0.017084448983496550167 -0.036327963439418610447 -0.039379701802024609514 -0.020572912835858672698 -0.056684993401398819923 -0.0047681618513765993556 0.00045551048847100068925 -0.019778964225676241157 -0.046995752335364272823 -0.018464799768238816802 -0.0047300009305549870625 -0.009722639975793015768 -0.025957672263567880405 0.0055824207105846027077 -0.019281399885872758243 -0.035647008337641478137 -0.0018942335835854418481 -0.0075783554879434115309 -0.045449066011049546465 -0.033415027269741805205 -0.042537857175100987628 -0.054924356151822936734 -0.016995319629017274082 -0.036527868657606710201 -0.068744899066803366594 0.096180067154903653437 -0.11135571170356382831 -0.059860659468534895 -0.060332043459800595298 -0.045470669026884714958 -0.034436574313394155422 0.0050022490039490132702 -0.011736133622324866274 -0.001922873627545461199 -0.0029411218211088142882 0.0036919600757096774496 0.0044973021917828542512 -0.0071911507147748039009 -0.022644906317575267535 -0.01564563936498027108 -0.018566826297291432607 -0.023201698979211121676 -0.011192031400843410402 -0.006347601614727551439 0.010853161789630142581 0.0081635587493399611875 -0.027626851541412717622 -0.039869142886785551017 -0.0012856387557168005246 -0.013543629455766145048 0.021071985675478684813 -0.012211205260557366631 -0.040612855874143441448 -0.0081846696417135645502 0.068758324989379171477 0.12006317955990926383 -0.18446801639663437666 0.086411921012523193464 -0.04931797770406914222 -0.0058949161737423443411 -0.0030925216996244299893 -0.021912667095499691744 -0.017442164982051196892 -0.036793625485935003983 -0.016862518607304709944 -0.015373069134127004265 -0.036345402232153739552 -0.017001702638835342746 0.00057854031233130372418 -0.037263132978833476971 -0.018892010185209476975 -0.00546961266055880687 -0.024589911130171525355 -0.022316982438218089385 -0.010649925267200060011 3.3468123020190834694e-05 0.0024980442409590574403 -0.026090667737040999091 -0.034073023536312516124 -0.034043564733844067227 -0.028589388058529487113 -0.025901070629076566876 -0.062707149007554890963 -0.023038475607007190271 -0.070886087431161301509 -0.017965694381583734163 0.026520543761080470069 -0.17020932965829893568 -0.052756299411779318531 -0.0027223135525449785981 -0.037194739503302744199 0.0011467309465803890434 -0.026511934431171838705 -0.029663907282973255713 -0.033629348080520649056 -0.00093303915830677424705 0.0068179652888748706885 -0.027498002287970849111 -0.025708212129455607076 -0.035836035354901235594 -0.011860509130303717451 -0.013241135828074313344 -0.052037477019189724847 -0.019941401698795536285 -0.024553042018796104179 -0.038596926058949529437 -0.029126305197132128233 -0.01710394811660947631 -0.018121756943556881214 0.0003090710067206668926 0.0050147799048704663413 -0.023371192962660679304 -0.025210374623899352992 -0.028394759432884782158 -0.060959811830874253979 -0.10091561680796222455 -0.12421429139774420314 -0.17145780082967770896 -0.028029340252460316352 -0.02669159180096310896 -0.025851059130098049538 -0.020062733878529616371 -0.032384879839000096924 0.00070349696712653409132 -0.031389902162497124172 -0.031744144541960665762 -0.038325814680080942665 -0.043229899630332586924 -0.010926064276306985193 -0.042790094778596805825 0.00016383880764250454993 -0.01563955506806526119 -0.023838087901523440093 -0.061152105612031423809 -0.023014507139301181721 -0.0036157259184987217138 -0.015262169880141408448 -0.015717185149013157552 -0.038096507884085258067 -0.033547498887196144923 -0.012943231358784071383 0.013335456629570882278 -0.071737002083074707937 -0.030053533312589138932 0.049972197089732099673 0.014115491049736660079 0.12935860803129964336 0.019799668977890094723 -0.059347762437791523604 -0.014383249443498131309 -0.024698210994974899302 -0.0073582583755463235389 -0.0087296268803259986085 -0.016279047208751645792 -0.0099037874023213297303 -0.019091902392237965203 -0.013022020643700640136 -0.0044754813936700643326 -0.017031220722139830265 -0.016936084657266533421 -0.02529626252248816029 -0.025903335842756624458 -0.012001963890138783037 -0.04262350305328203165 -0.031189432990076697283 -0.022572686151150114786 -0.028151486070131924444 -0.0017327831613162144025 -0.0080249151333639506117 -0.0017054635070368881142 0.010475049145899624145 -0.011045941239325465788 -0.012138522533222874389 -0.012914333605491407075 0.046766459743254697179 0.029717746474897485665 -0.17297243931123618133 -0.23225375459733735295 -0.018682947876881340205 -0.026024107495802466239 -0.032886866801579830999 -0.021268134968288467807 -0.036180505814774978346 -0.022360132640073412252 -0.026694327721203295334 -0.0027157486301769059173 -0.053063375110613604513 -0.012173780580266685761 -0.024697003193171560703 -0.0087144520150400986425 -0.018475310549799693616 -0.032936333471123006855 -0.0086639019892123265293 -0.035254525184211564504 -0.045617001617994340501 -0.015529285582753392728 0.0051771510276680809959 -0.01547686047024625193 -0.023498584335432438214 -0.016979468377666916135 -0.031884674421712458359 -0.015925824461531234988 -0.025511154419610129057 0.032595563521860493328 -0.050414202609527232479 -0.11202735424590465341 -0.034369568154619611899 0.078987741389386079138 -0.03571619380836295321 -0.036361217187893070391 -0.0032737576245444512807 -0.011989055104781268929 -0.021444118831741239978 -0.020308778413532818652 -0.030040430737488098278 -0.012871488374838839161 -0.0087754968334981878209 -0.034428374357236918302 -0.040994913266222503256 0.014681821635571029247 -0.032060677926686487194 0.0081567976073066914 0.0047512421429816700455 -0.023473360877279216691 -0.020514664550655429404 -0.033843158288776299669 -0.02335500904776086073 -0.05440417605127984696 -0.027964653799032596071 -0.024991868335291329839 -0.0072056816014284845104 0.0072076731687256753028 -0.038191936350184772786 0.01382282662444298503 -0.023806466119547006061 0.021018497789384561758 -0.17568179583500273533 -0.29992860106737845305 -0.053629332984594678402 -0.042359612535741233974 0.00012591342932606827969 -0.0055648639076778805279 0.014329500458870970958 -0.025860267896670466325 -0.0058053077619988104063 -0.003534194923635733919 -0.02371692584244267793 -0.035613012586819536853 -0.0018790276911905910012 -0.029502704304767479737 -0.021228894611067018056 -0.038877967777925487303 -0.0085741314319333662708 -0.01599851890693004125 -0.018300739656324886695 -0.014185912252513487725 -0.010938126036562086096 -0.048701709066288713379 -0.022215914505141293178 -0.01953108972515553779 0.0022207553318838372906 -0.03320162226496624347 -0.037462550169096095476 -0.074893419305350178439 -0.079433120774674223497 -0.15516942282344706183 0.0078358430794215234994 0.064158181055611468446 -0.034358906007572957708 -0.0086626450791938390539 -0.011887596279291539822 -0.026489324935259166843 -0.0052232034350394333441 -0.031046459176965229138 -0.024960046039858983791 -0.034811351403922496939 -0.024900619639484006251 -0.026219097277225256876 -0.031523255692836496533 0.0050448399035573346025 -0.03287975769423819028 -0.0038905576051940973098 -0.046699866341538422143 -0.036548022023647673551 -0.0080166315962937675921 -0.024997962386886934255 -0.010939590224302752491 -0.03646861862406149124 -0.026840148499675527821 -0.010092253463454901874 -0.0089833412998525184051 -0.04496928839326554822 0.023050249415882517745 -0.011430403259055149298 -0.02361860000714337271 0.0012569805706491145401 0.16571901021178131463 -0.28184206299558040021 -0.067162113554795691006 -0.036892331266116011601 -0.0077907317140007217859 -0.025196934878510272166 -0.018185391734188777885 -0.040768874512075004013 -0.0068223412351425070238 -0.045344669642240362228 -0.044765434120781120997 -0.010551758281400662812 -0.024444102152986986465 -0.037974157347814396779 0.0051567474806634957044 -0.04390512934205098583 0.0027311372831114503167 -0.041940434431348774802 -0.023200028754651311202 -0.013656434352426603807 -0.030161929518075537848 -0.052870176528355426748 -0.040352589464259965013 -0.012343941906136433884 -0.048639312597414566253 -0.042616741916466673035 0.010044471001813574593 0.00097635301800383118148 0.060236446544795374525 0.046958065612410691825 0.018021986599950190477 0.085391562329679801535 -0.038862620926388841136 -0.030997860366064892285 -0.02050765786313239053 -0.012633808700593680135 -0.0018488944435462691725 -0.026409014037153753784 -0.020138016751289004869 -0.02355184345475027502 -0.0086000128306963907754 -0.0011319169483874444871 -0.034320159948232120684 -0.015496610778374265288 -0.010468611078005748624 -0.010350235400251256782 -0.024484238267057617522 -0.037877147333783750538 -0.026789817813479145647 -0.00059986169863957038498 0.0031438111210980797423 -0.026765280269909399319 -0.0160179716926393996 -0.037658149386869330111 -0.010634961807582459306 0.013740827620646855686 -0.048312385105191209267 -0.038481811080185890361 -0.052794698154394172074 -0.096903675393557292539 -0.15675305048247054063 -0.21147979960039747782 -0.066514004822411348927 0.0046223240883685448241 -0.023849192819052025816 -0.037942642477894909792 -0.04854011138176710094 -0.030888547337405425353 -0.026888992717043133651 -0.019123831284545873832 -0.012586101537431323982 0.01568675527914798265 -0.025402323136982905144 -0.030830773998677511033 -0.016984692689970291857 -0.029778640793410107029 -0.039699409860257751925 -0.03993964714391252252 0.0058099518097583721654 -0.0039933565652056947359 -0.04254405604446957756 -0.028708640077405544327 -0.0016898098785996038939 -0.033265737493519131895 -0.0010672820995286517228 -0.041491808477314019721 -0.052176211803665176192 