function [y1] = NNfunction_nomapminmax(x1, varargin)
%NNFUNCTION_NOMAPMINMAX neural network simulation function.
%
% Generated by Neural Network Toolbox function genFunction, 15-Oct-2014 20:57:09.
% 
% [y1] = NNfunction_nomapminmax(x1) takes these arguments:
%   x = 900xQ matrix, input #1
% and returns:
%   y = 3xQ matrix, output #1
% where Q is the number of samples.

%#ok<*RPMT0>

  % Check for varargin. This represents the layer at which to extract data
  if(nargin == 2)
      layer = varargin{1};
  end

  % ===== NEURAL NETWORK CONSTANTS =====
  
  % Layer 1
  b1 = [1.029505664559739353;3.6655150905048721199;-1.5805100025336664693;0.34792470789743934478;0.48381314237458933336;-1.790024184913395322;-0.73325257324583936747;2.4162875072623237749;1.7876280246539468788;0.47320950516334059355;-0.82743808805090213188;0.37855470029315568814;-2.1995292283479153106;-3.0499174255775751696;-1.6104878490487686271;1.5222321579947992731;0.48884329486895261585;-0.9548990845468827704;0.76418729980563215864;0.86029019839148601623;-2.5378290210203720001;1.4225212230164259175;0.2896995955044404103;0.51606256679257922482;0.29460617400353289463;0.69996339449810873745;-2.7130237113969557505;1.7265977320576508802;1.5100890730894267477;-0.92875252631315863283;-0.28115569555456648709;0.06830594027339977059;-1.1464748102961694887;-1.2629085734106360039;-0.83139781011009938894;1.4433111967627652028;-0.38384155469803832306;0.081597350863778686514;3.0707775195330722084;-3.2670081306107956465;-0.65002908888305288571;-0.65416460961451861067;2.3785879074183835513;1.6573340638329567831;1.9875679284030052241;3.0825119871596475818;-0.31665589613651262679;0.2590575135462559464;0.21136790515745060293;0.67726131835121883285];
  IW1_1 = [-0.011820433519499901412 0.0029657871613607993989 -0.025640152780370212282 0.0018243895258917611733 -0.030116147542111577212 -0.0058893699864594698662 -0.025052752938895698348 -0.019185466990915202301 -0.009922706447397334345 -0.0017926289379764945384 -0.025850414285014819415 -0.019696915932612888561 -0.011859560543260269996 0.012810751721962318483 -0.00086942788137418086907 -0.0042775003187361607809 0.0085978341133426065129 0.0048335172350964811933 0.0030395300978881324185 0.022600554154286554148 0.023343806530010603045 -0.023884087669076674298 0.010220079346656739741 0.022160012714622989022 0.039686929591296535302 0.050618785024812901208 0.046934895544184902783 0.11692984097731486115 0.17239495376777128066 0.26655803709694186887 -0.01801726343030409308 -0.013721239309236970758 0.0077046452357258021423 -0.013863805166861328452 0.0087811073623228850377 -0.015315951389113059006 0.0034779375866458581493 -0.030173589165602837658 0.0065493974291823738726 0.004707030071986724809 -0.018136597720607126882 -0.016527698487755454471 -0.021593435453866612062 0.0018195708006473894879 -0.013763550227949401805 0.0065221372271208116408 0.019884234305447910651 -0.020594223901750381006 0.023021535839151910374 -0.0017884011336473644525 0.0048651137825061474551 0.027015120385450133722 0.0073473141849077078236 0.028981558611654797269 0.020058771529891401136 -0.039770816993050260579 0.029147166403198844498 0.11362271291179507071 -0.15169177667031710777 -0.29974033529229121564 -0.0099268973298102559932 -0.0067131203227240310305 -0.02019085002262127615 -0.02043093403441479175 0.0089925277660392842483 -0.014644362702539348922 -0.036722507672841631088 -0.031288413311384807858 0.013416487366125603303 0.0025069686992485380218 -0.00064273047163692525498 0.019349342413268997426 0.003744078715374261207 -0.0015515903862090333308 0.016335670840737545606 0.012064524216207050608 -0.02283150040933482755 -0.016023514734379230157 0.0061273541842040606456 0.015323447108805765202 0.0066159950194119463915 0.02517357853951140978 0.013817612935343878688 -0.021877463887786805646 -0.0057032255295056686131 0.059638922776456333719 -0.044717703404030452463 -0.054840041539245792945 0.068934185285970936419 0.28415974443569391727 -0.022121964734923553475 -0.035469802335728883858 0.00056642942272875978701 -0.018603109893340949443 -0.033279199814102808364 -0.021742446426173622775 -0.031994636478491496334 0.015981567533118100355 0.012826055951684086839 -0.010491416111468821956 -0.028118106021977947589 0.016289800394299912278 -0.019587500222961636009 -0.019943679617405622034 0.01612187853779540464 -0.017631772282826467524 -0.00037549841879935840806 0.011440763326776813569 0.0084989460100102793422 -0.015418236455939801632 0.014180925588963673445 -0.019171831170264053146 -0.013272643867539655332 0.018885322844878569409 -0.0075459982240903738029 -0.039591355136072113596 0.0053985080816664242701 -0.01826186015470090962 0.049095900080963005008 0.31498326584514296789 -0.019331564015605737922 -0.03529334733895853754 -0.016795336059210665136 -0.01508842463300711853 -0.020931324669073613637 -0.023323870866308413913 -0.030286530918361042469 -0.025271568540044267448 -0.01911063643378189611 -0.021759632558824883175 -0.013191482166504328588 0.0023222461183237245487 0.016338112881078354494 0.019444742339562549188 -0.0034472234667590265222 -0.007592158322441898595 0.007834660318438553539 -0.02486677883980889861 -0.025427209462049432664 -0.016843301097739266092 -0.017598209007801877274 0.013888132789166856076 0.0095934618229938876249 -0.0364498363314578952 0.034010254000756592885 -0.020702827215274208217 -0.042850813617507303721 -0.13232082508766115914 0.021283530159773921681 0.079327946850728400796 0.00051803873222388586994 -0.030859397825868318394 -0.036331276807991516598 0.0044615731339497158303 0.01220116930650494598 -0.0071010076616688701939 -0.025625704049013715846 -0.0063905777434983546126 -0.021977066999723564311 -0.0042140445689664296491 -0.0052224866473219245036 -0.02120906407556216039 -0.023626215859861503937 -0.033951843153569923051 0.016389501221924909768 -0.03171514964965368305 0.00090236920717372184203 -0.028404621590068426101 0.017875246174657497683 0.0024306670207895541766 0.010409900861266857888 0.018819827273160911335 -0.0099120607202314685302 0.030882807948165866968 -0.019641182811394111707 -0.0394993053865309654 0.021394264275853534102 -0.14437852626601566097 0.025836842019079490212 0.25078413920116510161 0.001451316794517709674 0.010709903923205886522 -0.02043831255827174842 -0.021153922538803035525 -0.029120649829920509238 0.010649035224954373977 -0.024583426032591046417 -0.020760671897496651289 -0.015331544560070353711 0.011731896490971990832 0.0054850562367345220491 -0.024193460596795921674 0.012474052354076736043 -0.0031494541742361457926 -0.019708342969143703011 -0.015065455690740765099 0.011671832746677473364 0.010747793492464446236 0.0071879205630704552654 -0.031978802929594020432 0.008777512173188279157 -0.01633984225311735719 -0.017908819830713615384 -0.031915307930271578918 0.03452106252954344201 -0.051771882627253101861 0.068838042560668666336 0.10667742698709382909 -0.13730602415722287235 -0.05293490495926267414 -0.02116143395511088654 -0.023101078804839306896 -0.0095113095232301752419 -0.036745016696382332144 0.0076282618802553546142 0.0078081790628475649871 0.0053960290049764759318 -0.019058861858338153883 -0.013023171968750224189 0.01449167240278263942 -0.009936333438522466921 -0.014595442408426133329 0.010352988500230317706 -0.029560858453747656388 -0.01583013618002905229 0.010423179267306521834 -0.033235960503443594261 -0.029505911489263188241 0.016497886252302296911 0.010291508139111256795 0.006854646549448985271 -0.028359181009213096231 0.0031061098829678031666 -0.0034161285806651570628 -0.044469346750819475911 0.059058565585660152686 0.069815800112330600458 0.13053719641926619932 0.014638442449149821276 0.19131258601075890047 -0.030522390110212644504 -0.0087651136812971312817 -0.037961013434641401043 -0.036451703788514387694 0.017894464029469023258 -0.020895241300395949596 -0.00044962486028426204392 -0.012034828415529148435 -0.013146482788440373018 -0.033181600471416813902 -0.037293269510196361272 -0.030498093208161158874 -0.0082560468565175681999 -0.03665101673307748914 -0.0036325298336876924582 -0.030401434389825010562 0.0047437853979067816715 -0.0063244464341566976329 -0.0050331955389378985055 -0.022164879329397819963 -0.012548465649578777886 -0.012388212247604566199 -0.0097621773581427553901 0.028060824391396989308 0.0066473952777469889897 0.027251033908357650409 -0.027168592070972545638 0.13927434733540614009 0.025901812862033760099 -0.27921201517755345201 0.013026626802432694427 0.0046802133798438489906 -0.017659748957802635233 -0.0069397517689941323402 0.013477546074895452657 -0.028934834472283458423 -0.031518116045215933962 0.0013850854546346809057 0.0094841063018936064277 0.015054445259971870053 -0.027257500929819857005 0.011381668204109476883 -0.0081492201960473749367 -0.032698001355812196522 -0.036707389338197754514 -0.011502266356204382536 -0.0058354869893043545548 -0.017344314432062687276 -0.0091477756650025290885 -0.010058197190124015113 0.0013596460043306516675 -0.029145247546250162285 -0.03636354609681433786 -0.022666435580265931193 0.025121023103003289195 0.0096957156141783025494 -0.09056624510644976922 -0.03756336273361642053 -0.071883921350551521767 0.28121672397092062345 -0.029823616883795481952 2.4157309026986636957e-05 -0.030268685099748365852 -0.035836745086770670221 -0.035704673648613502457 -0.019334088172044093523 0.010015356666331753227 -0.023281338897862102755 -0.03073420005073957198 -0.034607548108761661265 0.0073853956065858409122 -0.01602174502363266223 -0.031381322850093512633 0.0011436717985340554699 3.2723694105400887022e-05 -0.0056024622422540986191 0.006168616720535919154 -0.030838371171592476178 0.013354482221076336909 -0.026438788907764784741 0.011919225789402651192 -0.012275919082619355521 0.023836277354573918302 0.021330134021245263087 -0.014594305751567719642 0.051795308553596521028 0.041231978792948709156 -0.00070260963510199213669 -0.11965603835511959274 -0.040172843810552673338 0.010824955683621479557 -0.0069471668799184760346 -0.024815336725947531593 0.0013501589941501844407 -0.022321549522742446109 -0.0071731303006572176562 0.0059870462402932334359 0.0028842643199621658019 -0.03427364330735481468 -0.035002885792496760131 0.00036550314210208280016 -0.0030034109897010331271 -0.023212678485553684543 -0.036468941693465678489 -0.012693432642019053525 -0.02142986903113319741 -0.0004617028241282574233 0.0048806147687671507657 -0.033237713613223786313 -0.014898594670884968486 0.0031914972615353360934 -0.037892563310361566942 -0.040011055246665608309 -0.020547843328657364875 0.0049768156323338101979 -0.022581029721692597034 0.083880237043307520617 0.110727627626553915 -0.11827187115936760309 0.15816084556399107042 0.0022684637940551160076 0.011863513951283054942 -0.011433144254308519674 -0.0058565365288711845534 -0.011695274211281277491 -0.0089283639124371084322 -0.014500170224647999581 0.0047678680114764358799 -0.00043159442892875448175 -0.021906634267912089564 -0.013051047667370599403 -0.0032383966466734332747 -0.032493687044172270273 -0.03213473530274716522 -0.013039627217030908685 -0.018799430202989651784 -0.012036730922382218173 -0.0032434416182963612778 -0.014665855000124846524 -0.023919930437922450744 -0.02203373019889282719 -0.025988688603507295594 -0.023559224871408039614 -0.0012297306208835768158 -0.035857875620741594402 0.017239390864324098673 -0.01195532307234381357 0.10103107306633929419 -0.020627296110076645541 0.095126718573751198327 0.015593719368700258501 -0.019003338802875198443 0.011360918466137508165 -0.039407291112963135915 -0.010510034200927683909 -0.028878940991786904852 0.0085636826048716384319 -0.01203111072028786345 -0.016691894530153246479 0.0033234360891908794333 0.012062841733445394191 -0.00052863606216900201409 -0.035797828081338238515 -0.020009742673683758585 -0.029332015209227089991 -0.0074244120123807891276 0.011448821423234969291 -0.040123025657602756633 -0.012335999984491833811 -0.043284770791761496833 -0.02976369891939731338 -0.013429872088752962261 -0.013912478043345838027 -0.0080235685718128054583 0.023792993156659378307 -0.021797522578279257544 0.018832210420776564902 -0.058289422872138174636 -0.13477491394158894189 0.24631723134495608907 -0.01094063536907328299 -0.039973962814207036898 -0.028707806446312867515 -0.029525721124372739101 0.0066777026027170652625 -0.032495553305901328511 -0.019887726355053772509 0.0023361705095582708386 -0.013808098468973744807 -0.011361289491942800842 -0.02168136866776732008 0.013272422682550164691 0.013727577275172998458 -0.0068502402417364698789 -0.01544686730242562922 -0.01165266624572955205 0.0089636776494508227375 -0.025849163772720899074 -0.0036985543225272112661 -0.041125383936450800315 -0.018133013636999005536 -0.042853357113755020935 -0.0042776319949492502132 0.021406340922588987241 -0.030230113458443737262 -0.035906235707979454463 0.075584500154192865717 -0.0069838513609847378827 -0.15573286320366996893 -0.21689551444732241281 -0.03060295623165964346 -0.0055739689147818981263 -0.035630994968136077417 -0.034334953085657628213 -0.025644181066171025524 -0.018540285382665552122 0.014079315440314824764 -0.006432050889016568615 -0.020629043768716128632 -0.032396947603371688273 -0.016179336659003621529 -0.031598088938954965732 -0.014406260063651367756 0.014025260064044326597 -0.019211239792320467662 -0.0017115864874376377457 -0.0046534589342052887218 -0.018603865065472322687 -0.0054269653898931513591 -0.048148772021818185551 -0.046386581984803929024 -0.029880269824074403434 0.0085722235336600175609 -0.016301470753177685347 -0.025754647102378947637 0.012252397676746757532 0.089995565906293886749 -0.10722488752416679814 -0.15574722017619374581 -0.15220234613981725724 0.009965170029400291854 -0.0056069226539315029922 0.010611683287607354825 0.0013093289814684631531 -0.021447570124043812551 -0.032379263318206168154 -0.014972443776076342289 -0.004607083116485488454 -0.014700533601028789241 -0.0039110379556847310253 0.0094797283701922134547 -0.0077781952265071419364 -0.030078767610527797766 0.01272114012077486811 0.0084657171514239144133 -0.027860766116435582013 0.006169407228103765059 -0.023380280989579008827 -0.017427441515965116231 -0.027942555580590045655 -0.0038273966081255961572 -0.015704902236849421771 -0.025645062296519856998 -0.033315499086856652233 0.015896943630775511869 -0.064361867500690908561 -0.049707474199337457754 -0.13497597509428968521 -0.16497840246979966761 -0.22637250495718286292 -0.014565537195275639337 -0.020998742075594874906 -0.0040331967195217895486 -0.0020529233391326793048 -0.020378211604461841933 -0.014225887370236320328 -0.022491556411792294062 -0.034360147753383252223 -0.031437954673272268391 -0.010462084119202125568 0.0012019076845590037726 -0.037590083690068110123 0.016372915804910764814 -0.0026868163054812365179 -0.012940208599106415438 0.0094273476343045801984 -0.012778773831166444913 -0.034689340982290262083 -0.014860867775317383038 -0.017203531554465627262 -0.0037402540468977349755 -0.022202812678185395584 -0.012196001809599021221 -0.0017522954393428527477 -0.0068745035480828704452 -0.0056649060347733846271 0.063354994897813002308 0.056582574897978910045 0.15656657947364002736 -0.27467829204851729186 0.0057055320545247277531 -0.016417807857216273199 -0.027679462168990549148 -0.012984104371086976903 0.0040276499404308880106 0.0049895563063930125497 -0.019377260779729489626 -0.029318607913902797191 0.0012228706705121122292 -0.033630968636841333808 -0.0014642595584908083776 -0.027232299639380782436 0.012737614099920841967 -0.007733211882093159184 -0.029013454606605211528 -0.022660739964507872063 -0.033179255737570780005 0.0041115551204311722236 -0.038762375147971143974 -0.017823330706636691945 -0.018239850528905074412 -0.020134083834927176543 0.012577992950433256047 -0.032894070312192602579 -0.040030956797057717922 0.055731881907253907893 -0.0096386274937565481064 0.073339418555715449322 -0.088315615806401515098 0.25861362826930223147 -0.019867347962071197492 0.0072719357568785851845 -0.0010728830625155469456 -0.043763458252807613258 -0.033703073343728684463 -0.02436721381916456125 -0.041471350980140944675 0.0059955751406525620295 -0.030204469382016332912 -0.014979876685589373075 -0.015843180417571052498 -0.039580024399114538403 -0.02700870032197615761 -0.023149037186552423595 -0.031732689873570980865 -0.0015456210850043001007 -0.029568300100289334614 -0.0045474581599297706977 -0.0032872534688279911493 -0.019561067493955579255 -0.03648817774995725266 -0.0028618348616533846596 -0.0075476732365015314352 -0.0135297861230873704 -0.041762185961507186649 0.03377800850018709139 0.027884688680004765526 0.040970832090411413162 0.14166642231961198983 0.32101742138135019866 -0.033410752411719896182 0.0094750250832478077195 -0.021023516552038209321 -0.0030492488844517085488 -0.019244129893847394114 -0.0070223816036960673773 -0.027613054058901777277 -0.0024976259776664034087 -0.01644495463717638925 -0.007440151393408498369 0.0076499887315035798585 0.0057105199089944377183 -0.0091531653768309149954 -0.0015643276572913727106 0.0049540793890028144569 -0.021805635597373862478 0.0023442235368702178666 -0.019823994090177248645 -0.015778788327307270017 -0.0079943658760466516922 0.0049720989855174587552 0.016937160056131557451 0.01248426271941580068 0.0018593770601148349331 -0.040678566594992381089 -0.002101361533923599284 -0.022933298221056858113 -0.15465012279761047864 -0.034476665497002061123 0.01907032752568344966 -0.0075560423902666850812 0.0015262587510309721765 0.010153761935104707939 -0.037215880096582873438 -0.025091787408439841789 -0.0048924163123139803588 0.0087430153985942529044 -0.021490454320208893235 -0.0011620967223076297727 -0.016468255676371910956 0.003655887203449311243 0.0026631385074849501203 -0.023747844230717091857 -0.031830411143052218803 -0.019947100048507037523 0.0050805801411808659482 -0.00141858726674001746 0.015740175782303036933 -0.0038089061383400949455 -0.027855196866201720196 -0.00034006970736205404879 0.020622089154622103013 0.031252553835297673668 -0.035748532759989022634 -0.010205324194875981664 -0.082431747120971621268 -0.034305553127601653984 -0.14555408025455834897 -0.044759834569296934326 0.093756587500817362146 0.014491029180838450874 0.0055393188233671623172 0.022724892746546158234 0.0074416098710540544772 -0.022993003820429205181 0.006941015222425141705 -0.034556409647613715863 -0.022419005281867923629 0.015186187552355213948 -0.024716634170155037109 0.0018179915309752419945 -0.0074326516001241432763 -0.032885010177711920809 0.014979980677736847924 0.024023170858400999528 0.0083551732626518711994 -0.023288194124434169474 -0.008303006527456417013 -0.0019323609976216508076 -0.018090402481274983626 -0.029369810968521842254 -0.0055814660880569967952 -0.021660499201862297436 0.043506936294467418724 -0.023938525329542430231 -0.049957035518773743044 -0.020046654273263929402 0.057848082676443202121 0.06081910956006462976 0.1760222264347185428 0.015155686531684245053 0.0035141443463809589332 0.02410741623207138945 0.01498334141153576278 -0.013773719375917117119 -0.04046474117425277045 -0.025076481333117191241 0.025734794461434173929 -0.028334317704465934729 -0.031442295084974640484 -0.040361346846236857699 -0.025735376315495082228 0.0080641678270900341713 0.0034917632160609557435 -0.029971184401458388774 -0.0037226261454640021016 -0.0047177968750617606947 -0.03624028400590256771 -0.041019390716817039078 -0.012995687545778926084 0.007771717256957423256 0.005201350510320766965 -0.004821286347922487843 -0.007664423524303067177 -0.064765101922649448429 -0.015262242847335653548 -0.048177795245989515904 0.15546830409659168071 -0.10113408878127802537 0.30012135098904374475 -0.020607930083629436707 -0.030430972487724122083 -0.02377304445280235129 0.0078423435313542469438 0.025183185343755954549 0.028465355607530846288 0.021945133528519046584 0.033306293972638366385 -0.048490569837886535187 -0.046512794150680311644 -0.018685829064347792006 0.014147586727012488594 0.010581934805520668702 0.035816792208580416901 0.043971966809137924548 0.039677900048677848532 -0.037939731519879407728 0.029241676454080305775 -0.0063747530979503114201 -0.048515537417348854332 0.028991145617170394067 -0.042552370644062365024 0.073389913468852499556 0.071327433998086858802 0.094761771655716864338 0.074001845727218490412 0.11856967652390415502 -0.0057198056266941814732 -0.09964213480621023078 -0.01952341417107587504 0.04280652193589808141 -0.06048511882934503453 -0.027984165786742742216 0.020731784674533272617 -0.018015295177844517505 -0.052456910866288355977 -0.046074123912921170765 0.046581620742285452519 -0.046393156270405848385 -0.010595135191878888095 0.025153722872734696897 -0.00062815208325137496335 0.001250057913744485839 -0.03737462736099503996 0.01266137714002705042 -0.010454066006908959222 0.01776001284098400676 -0.057179856853276887774 0.031833609554405929709 -0.0014726611242860184348 -0.021713541875465067893 0.014259755444516814676 0.14270282275944376482 -0.14058787064652972232 -0.018246892706925386951 -0.095391230410955887842 -0.029909519687701367069 -0.055329799866872905745 -0.07691297852904520338 0.30553878133603418199 -0.024419630231409833465 0.040692188399620521366 0.043092507010672992385 -0.0587306808307025488 0.045542392219378009799 0.024516869404163491031 0.033628738316082443238 0.077085426975942603067 0.072429944897309139762 -0.077016560183176180354 0.055372794380340061016 0.026298278798126271255 0.076144480036026904179 0.080216400513389282678 -0.046286612658397507936 0.059713132804374666196 -0.0047211820284836763378 -0.01960846122702258193 0.082195190628241418529 -0.076824543118062152414 0.069834940606390921713 0.11078391617711891293 0.15864369118984233964 0.013210944254178841675 0.1473312317393366544 -0.06841589091802491307 0.066634450458486746416 -0.16173705863708345842 -0.041329729390163133518 0.0043839349494026839948 0.054093295170818150863 -0.14556069366210513949 0.12706552157636755163 -0.0019662446846947737727 0.055384028599382885416 0.028056712772127428979 0.0061673216185307135409 -0.12408943583205825356 0.11656634541571225805 0.14564446251000670585 -0.029847413966052130374 0.11778978969094539009 -0.13895034739320957784 0.10395506937189646912 0.012773808000376000657 -0.0494407767966720188 0.06484103941178688546 0.093753159905661506701 0.064305044586557905117 -0.032751179305017238952 0.048070546972366332006 0.07887974570158148846 -0.11232452504089568412 0.004190793532233108229 -0.050457806066706481496 0.16212046288057127552 0.13815760764851547915 -0.13556407003622894525 -0.037614946682919037091 -0.085921374985639120681 -0.11154830097464429883 -0.15618857070618080707 0.10116060679717035764 -0.10517486693763876404 0.18898449146352380712 -0.18017138510432553766 0.02234820900235922822 0.10448433389137405658 -0.068573375877263351152 -0.053122224941941180443 -0.12938777139909307667 0.15980594175141327185 0.082738657760416195464 0.057723927222674144277 0.014745484508711353966 0.14875890264148539099 -0.033863391581872667735 -0.15156999875138810197 -0.16810426194654448651 0.080831977592265027988 0.069165179414294869487 0.064430456739872299377 -0.10831943147529271565 0.040950778024138864697 -0.18769541996460906152 -0.012871313723399335771 0.017999938667228120026 -0.048199307481936806696 -0.085421710659059457704 -0.26902209852379554977 0.005618477736907410286 0.03336557698854134002 0.18993441622788170831 0.18420532582914614372 -0.012812910034148304247 -0.00089799388105495179385 -0.027226339263437638466 -0.12764409723034139676 -0.13091827081078113992 0.20165458082224868575 -0.32423371166061992765 -0.14575500163773455475 -0.12747671395328560862 -0.24658951498086342791 -0.23948860732276661123 0.18093879502270113213 -0.005936836773280087555 0.01386311264834946301 -0.28444158461848023656 -0.02437210541980736056 -0.14556801325618859422 -0.16026864670805587854 -0.14807386134266409261 -0.10522312638146148756 0.17424347957162653056 0.029682047180422763133 0.17705924337720463368 0.28642895107284449541 -0.20543102936869503394 -0.036379980874775001698;-0.023322648348004182406 0.026996483931932737516 -0.021987668582944534801 0.026166757411167425318 -0.012651017340348980414 -0.010879711288530553859 0.022112185818684761823 -0.026832470008974818043 -0.0061947744640020313556 0.01454628755539636234 0.0055172384662423631235 -0.014069272494269896567 0.0046069755737946707641 -0.0051586825161096449763 -0.025565422387888048911 -0.014588548788547432006 -0.0065369408378518172043 -0.0092536963986815518046 0.0047902101305372143253 -0.0047684496168021919121 0.010285720356463837546 0.00017697357463856828422 0.0016106519785456345495 -0.003615211537336672238 0.02714824764757787362 -1.3263887932287915842e-05 0.073669778442003300278 -0.14420319100986300764 -0.20674821558214223627 0.13794199798066578144 -0.0088333047583188939456 -0.026213827943251430397 -0.025242658349259115835 0.0098860405498082063597 -0.015019867032009793367 0.021582082489873592041 -0.017130376070902227775 -0.017691042984773919233 0.010059468495518997591 0.00091348727335889025585 -0.012342454277865719248 -0.0051510247144483786372 -0.015117666086555689789 0.0042164621695630474449 -0.020705066652898309471 -0.01903723359202390622 -0.0090145231911789719392 -0.0071458977954939910046 -0.01834818784900055233 0.0047926511088691291923 0.017663524886038575734 -0.013051204422201976782 -0.02111301581083301418 0.032548806135997768174 -0.031070286741298740185 -0.060753809221937231377 -0.062651258352461089429 0.040069316861868972679 0.003573475197092768757 -0.27617892755493722579 -0.015377135959797207099 0.022311300981313505337 0.018020008285397237646 -0.010574192044663824341 0.00044758377471013110257 0.025438232451782848836 0.010988291942846738908 0.00067656609209897783114 0.018695331592889857797 0.017704279811912072146 0.0041730806778275892147 0.015183409720663988696 -0.023928313943471335445 0.010105962336389827036 0.024155240282304948213 -0.0040508942397338553593 -0.016407530393767744137 -0.024098050921375749334 0.00027516055532557647271 0.018071332290563450751 -0.026396992205021504313 -0.0011054693174301181979 -0.022441208923203746772 0.028321824673028548475 -0.0061108505691231116211 -0.040669477783076321553 0.064296129082598976745 -0.11433269673355331286 -0.01347801550174995526 -0.14793769216502150599 0.0050211356827507651335 0.0080494327182872686677 -0.013603203570070226611 -0.0044314130153347936966 -0.022353593371269877416 -0.016906312447583997371 -0.012935432751254622927 0.013453005274678124514 0.0031139425018787991219 -0.00062400976736941282663 -0.0089614060167320340466 0.017592362965151455562 0.02468489320264645806 0.0067091477210576462575 -0.023423681912805180416 0.018822221808895079481 0.018060571495282076726 0.0042304536220588032439 -0.0018343894280174923971 -0.008432108226259518724 -0.012368385280251978711 -0.016579305469240628035 -0.016961374887785932858 0.01228079720009690734 -0.043918667226697884198 0.013113681739237570759 -0.022370384175594310028 0.06035759680787240733 -0.071135545841199160355 -0.24532522616709889762 0.017146705040277626653 -0.012415406252351521982 -0.0080136272891106110489 -0.026557662995809423745 0.011389704519846364367 0.02362719138209035119 0.016760817502049562416 0.011754176848725773549 -0.025312688369068612332 0.026006989675159269959 0.0057626614432842943395 -0.0093038268126362788646 0.021351007017004531435 -0.011957168521610463813 0.026524822058476844877 -0.0092590061583498924069 -0.011097714710206551397 0.0021135060181656194211 -0.019389093282033777882 0.0049210307061586990723 0.0096958847278400973196 0.009668125150025167272 0.0121220005240820633 -0.024382096031944071324 0.046087318088399338578 -0.047347384344105070131 -0.080160103015329220444 0.03453227157760714594 0.15590294926596134917 0.16023060957918694447 -0.013056888234365994494 0.018332672064297519943 -0.017926509645730972359 0.0039576680403967676516 -0.0011158747185991469732 0.018433200756170040058 -0.017947941723959144611 -0.012873714214649605025 0.020566905395082279301 -0.017747639646416523557 -0.019864747684862398003 0.013248267377118634266 -0.020957389875236133447 -0.013946215046987994746 0.023585252749568068331 -0.016165295714360747303 -0.0045235806291751470137 0.021217571320915940697 -0.016616836131061740733 0.025846680697548311129 -0.0031728100294354591449 0.0081879312345283471186 0.0077617272287902969868 0.036980762411635885456 0.0047613377964678630511 -0.061043820873992404863 0.036806146380606433177 0.043832320203560821981 0.060472883835715064704 -0.29065393712423620576 -0.0090789764925103613735 0.021263265038761785392 0.0025685226331179865887 -0.013521846803842782828 0.00080093379234490549076 -0.00093458332349459797769 0.0068181676663743619182 0.0093565591834634236762 -0.025311806634513846909 -0.023340051203206240577 0.02144658957823794912 -0.021581743670702514815 0.023305933222209706396 -0.018584485489689946125 0.018909629953418691933 0.017140726784017703416 -0.015064719257105202432 -0.022095499824533539751 -0.013416136114230179516 0.022772919167278308367 0.010425295331740020224 0.012002217271321969153 -0.025331221899467338404 0.0057714884120009480803 0.041863716476681162026 0.048857119033517103224 -0.022550128137742545681 -0.048170999176356116278 -0.097484220940181318116 -0.30208974250150510965 -0.011112129885224081641 0.003908432202373238705 -0.0089493504161190107898 0.015468693284825233217 0.022812885409564293698 0.0090647997894325992724 -0.018127494107530624234 -0.025677382339325476035 0.026326508232988699715 0.013511896760313920132 0.016881496667911662785 -0.0018215043244184264161 -0.0021529415045999245742 0.0059143189024448046542 -0.0027210420718607295117 0.010454390210640849418 0.0080232810428222511162 -0.0082123712255693231965 -0.00060102529436462657272 0.0018524830871472146125 -0.0075441463161359644668 0.019517664300226261059 -0.0048373318679108216062 -0.022879280533490954641 0.0198921091493498986 0.008942203732506249364 0.0047169205273690732044 0.12102221039792984691 0.12957505915048384004 0.047719787033734695214 0.013497042873737185795 -0.015626827609721637147 0.014525205892230063504 0.002917272605061938754 -0.0062558635674355624751 -0.018449853628314031445 0.0048968373185451800553 0.017031434652821492853 0.012600838614574680699 0.012165692309687661452 -0.0061645972909672667323 -0.0096289163961307995543 0.013553321837887238877 0.023233890402169971034 0.015265456923705112563 0.0098524728401585964788 0.012367984453658961361 -0.0019180528990945849756 -0.023394592818499180403 -0.012430533844154439613 -0.0093821974840438589205 0.0100208782565001462 0.015408722685065512695 -0.01502418228140415743 -0.019548765277608400742 -0.029721993705074715997 -0.053062348078216865777 -0.0062626496684603490464 0.10508032021551276525 0.30961042428370949553 -0.0017872253384974201226 0.0036453339406883463955 0.019567426229781161723 0.00088716590014300471083 0.021628441117166517793 -0.026764841712362093945 -0.013518314764465468383 -0.024741556238120340772 0.022074402033789582156 -0.01823095755760243547 0.013472017917702529613 0.013844909948966862417 -0.016954698857219237251 -0.016200054841344350282 -0.0063732509204578206494 -0.0061258312471720692549 -0.010741336209441489091 -0.0007165948246825266715 0.0015869943273950685124 0.01758723051036360438 0.024853728668540474994 0.0052245752909592640262 0.0057114336246359680843 0.013056815561962706665 0.034626486585967695964 -0.0081413394522007291598 0.039706538449261696844 0.063502824636233815014 0.096660271723408811018 -0.31798786476504192766 -0.013870447575374710708 -0.010238388701778573797 -0.010338209715791081902 0.010714086463544438346 0.019599977322464257751 -0.0027654629740015658143 0.0095739419949783122893 0.0060053065417785952626 -0.013631963193845712465 0.0075101051731101481704 -0.003803957535149346883 0.0078813526051909749137 -0.0075809487743622996567 -0.01047777094450707755 0.012397545667995389304 -0.013898124451486585512 -0.0065522410810738406645 -0.019628594316311840512 0.00017919240731828194198 -0.017181032832667510191 -0.0070169805479840799065 0.027221422991140116487 0.0061298126889555394278 -0.034393535826440238545 0.0027951117409947649761 -0.041773575306457547129 -0.015612592573309313007 -0.011808553194098963743 -0.13321351909619685849 -0.028870820170172652175 -0.0045530806094513038076 0.000883932954224002582 -0.011176770835544963881 0.0019348900762934031095 0.019580703443342995645 0.015007370043045271252 -0.010674107022617351087 0.011682887407752896858 0.0013057568070884264036 -0.023300246097840888321 -0.023355704690785680094 0.00053087580159844266828 0.019995386116679163269 -0.023029298789571332057 -0.023386734648745233917 -0.010848845913751977918 -0.024914852673260406979 0.018366194569526247959 0.007267100594061567595 -0.013347998275664806761 -0.013551502913021755414 0.025875609625994323154 -0.026664990950154673216 -0.0091200789331715628044 0.042421493340919665116 0.0051733865127874412854 -0.056655331977765954754 0.070639854196472881553 0.14952024093562860108 0.11785476453246639117 0.019986487161782643535 0.00659427924081913263 0.008161378036043043932 -0.021913134791628437192 -0.019874419667540312029 -0.022552506651854802716 -0.0095763655478519962849 0.0075920102668227493897 -0.015444003652123229967 0.014441711152595196332 0.017480165771126446317 0.011258784936077933028 0.012140895656525346746 -0.011921256146333117365 0.017395424793850505774 -0.0022467086552954485847 0.0064396182474258959957 0.0079212885440650467744 -0.0042943709629777119391 -0.012007684295655999054 -0.018541362550676114551 -0.010917020333119793404 0.024693803280055881544 0.016128929410180545961 0.025665266202413255375 0.017006858674561673578 0.061260724060748172892 -0.12139905329025670044 0.13290564457729242553 0.31880679507474030121 -0.020470914940053520914 0.017961938716031501662 -0.0003721604837263252862 -0.00072853994988961233263 0.024450331171108289491 -0.021417572548982376224 -0.0091762067236554559907 0.0042745484246535557851 -0.0060320172282055748575 -0.0097967414527503279831 -0.008532157877461844786 0.023321232671288775334 -0.017758539226393265514 0.0023346035400432056661 -0.025561594212804291532 0.0055452649660225694986 0.021390130898430951417 0.0080601832619135033164 -0.017542134445399145543 -0.013723543050620066672 -0.019745674182954437575 -0.0015029282850885727039 -0.0052059120074179933424 0.009741027564416724488 -0.035220496486713527562 0.016180320920732862988 0.082590235932713473854 -0.13307307044959676423 0.14751129626997233624 0.31689716140362361729 -0.01669697340632909921 -0.014666741140524471032 -0.0060986864272853111638 0.01078704050759964235 0.014649151742207324259 0.013556525470577434483 -7.0896507957699306571e-05 0.0094030924734621410682 -0.012179942859128916471 -0.01774985629716396146 0.014123032692893579959 0.024967247194720629949 0.015239458666329936537 -0.026549785645075769935 -0.0079652939351479504215 0.0050151811278356158569 0.0063528860337465345096 0.00363194424333166321 0.017029917568309259346 0.020358611605545574169 0.00099239709443928593273 0.019946980242892094898 0.010614890535080485218 -0.018663470063946849264 0.00080908673712339626918 -0.013524979709244809925 0.00067522292111682057515 0.12262820745730028393 0.087615987604319836568 0.072534020196917556311 0.026312287102566001007 0.019336191203330313493 0.019372120833376457738 -0.011817589785066801369 0.017873863330134267396 0.0054033674883381494977 -0.020460219472772222388 0.023424170298701498666 -0.019713014079797582662 -0.014106321049792699268 0.0026605264322693091862 0.0032013866795862129001 -0.024101524082511635583 -0.012991300860676608872 -0.00455553948926253581 -0.021160030431088942132 0.019643195894204445312 0.018926276101773397559 0.020170267292750246324 0.0088142614482811694476 -0.015373912164939279243 0.0019360439894564606973 -0.019590334226037908055 0.0081793380770376032662 -0.035097728716409280769 -0.047216482129481401886 -0.019452109734278855147 -0.10885022019596658771 -0.088404848232987720547 0.0015906074101200192838 0.017413747272446062492 0.0064454778347411353923 0.024488235864357509736 -0.014651827576061239589 -0.022906354189543450678 0.011839487779804676662 -0.0086306445672871510977 -0.025962555162713396584 0.015363144782409736411 0.0067993944275321340984 0.016569179516173638406 0.011562847910118471267 0.021743126405147673863 -0.025218101367105127258 0.0047624380101723776115 -0.0097927580126307197522 0.02074939989097201315 -0.0091743403396634271713 -0.012679599883954595016 0.013705743166899120658 -0.0034696983475599940325 0.015601336078627760923 0.014588106827195254991 -0.02616062741618742013 -0.0028917694271881439969 -0.023132798332347777326 -0.048594099919357772177 -0.11199562327994562472 -0.062788115608241851229 0.1410381871320380287 0.021596517417771236846 0.016122181363813058858 0.01149549006999097539 0.023427081181455051279 -0.019964603180057032689 0.013380777545400023704 0.021411293217512079173 0.022424526673863999504 0.00047977512534581065549 0.024222708872540861524 -0.026217339818295312681 0.012889940647267741913 -0.014368493642930857401 -0.025613661825493266866 0.026641294911067189832 0.013471949239535648685 -0.021323407363384585395 -0.010131787635078669946 -0.020506429994455691035 0.010388402357545432203 -0.0093480808623609516761 -0.012582285824601639052 -0.018726214403098167399 0.0332569174986992247 -0.022538437695173454967 0.062000463388293972078 0.068480720117857329932 0.063257325943092301834 -0.1052981837854039121 0.043193388609832510106 -0.012407247758309562433 0.020965623746868770894 -0.025995476924556698561 0.026277353715567695197 0.020998477553426760783 -0.0084871902067268304576 0.024872838501464787642 -0.026182566111430955608 0.0046054436784685346892 -0.020346837437129842302 0.018110462724035006343 -0.0078963842425878345843 -0.018312526231873949706 -0.017989886862544903628 0.021133939696407529757 0.024904365668922130717 -0.010197510956035681084 -0.0056822391291127096261 0.024487157660188375169 0.014344730639295595609 -0.019225004641459219473 -0.025421236174240441352 -0.0098429316244874661551 -0.0095996189867354145969 0.017675975635517281181 0.049384573354452045157 -0.027548795253504572422 -0.081529931842414124499 -0.13070371324099239185 -0.07396618006532475198 0.025766362572626065608 -0.0068787657276622813513 0.022261981264631715977 0.0050712993187118663926 -0.015564043816846607343 -0.013517006135920550669 -0.01936739082894102168 0.0058530604170434581343 -0.014479009417022289247 -0.0088890729297823895677 -0.024565832363831405227 -0.0031426906451392801721 0.0015312285221465637627 -0.0021936940061086439117 -0.025455701208903280808 0.019003263051240198989 0.0036493901541263494559 0.0048185884027357279644 -0.018439470189113821297 -0.0070562454805806985522 0.0041897841713865622768 0.007968269356213033075 -0.0014696945987395185901 -0.024468996048140425476 -0.025840990575542528013 0.011075409455964878302 -0.079043299009216541617 -0.027304160321072235701 -0.11432454288227644756 0.031165757854242932129 -0.0035212170148209041495 -0.001537622897791453367 -0.017493168011727115718 0.015185514501655087913 -0.0057091880028811419628 0.0077981570056234175356 0.013573562225610848533 -0.0061804060568978183218 -0.025030963941343183782 0.015576909863472560708 -0.011420344455455144761 0.0061587956600760501366 0.014904414452433074889 -0.020885385029462258388 -0.0023670227544113527085 0.01501764609452784123 0.020910011137356233207 -0.023268014551840660031 -0.018031348278502157961 -0.023149149896327665676 -0.010911419831866659216 0.007235051953415866377 -0.02304718823715682513 0.037919158559887727877 0.038573355778641814362 -0.00047637198769314597659 0.096177357371720575974 -0.10929794010122899361 -0.1665027943265456889 0.25654385491546416453 0.0072191629052987009094 0.019379270698816997848 0.008292102116341466822 0.010543617844192694835 0.013359165957930596927 -0.0093163230981932552283 -0.012939375077120628815 0.018518402133935015635 -0.025992584786107102157 -0.010258586230166448494 -0.0090479166282018685941 0.022279483037805341422 0.0046381149723958535469 -0.026330912710437855834 -0.026563151879437231495 -0.0052840566324695538089 -0.0089799102903163115913 -0.0096337910438089729981 0.027174825929913805356 -0.0038151874351341234434 0.015542853334773150745 -0.025353094023504232912 0.033705245492944617414 -0.010150513864164767419 0.0021689302583606812763 -0.075672176020444945066 0.078554765966195261306 -0.087857397650441898529 -0.11297597031474079787 0.052102985519197189679 0.0065176084883774446435 -0.031075828266104707498 -0.024297239985036082205 -0.028694001903303359424 0.026137639659190962937 -0.011981966990624703939 -0.015189362765240162559 0.0030215948238764573502 -0.021787833323243896433 -0.0028877572636001611409 -0.003655671718607436671 -0.015066366233983883791 0.024851950087002187828 -0.006937098743221786247 0.029496112688708536059 0.0055809474615864411093 -0.022085171651549467819 -0.028241258536892854814 0.0085354533462318506187 -0.012425680271026896817 0.0044368938346749219742 0.019711356392295920764 0.031700576375541383856 -0.0072923741664750749494 -0.059940814895339776525 -0.062015241711203858421 -0.057834709622893346048 -0.031692375185191065667 -0.067349165496681767662 -0.26364468334114099513 -0.030529570760005467212 -0.0013697197564632153464 -0.0067764318747358161937 -0.012324655837269890904 0.016232827691522979524 0.03627838334302015133 0.011621064215760420341 -0.015547632541134476236 -0.011746543505471863933 -0.006147997476642862863 0.032686072448136559154 -0.030330125988472067533 0.004185312193171870053 -0.0015793804893739354922 0.036067623567812227836 0.0063655441744512953131 -0.034890875200358682784 0.00029788943064597853344 -0.035982895996255953586 -0.012773138805443048915 -0.022940270753027559164 2.7311136924270204172e-05 0.019090097310668251857 0.071553909566015511112 -0.11806789882586125884 0.15123094181194368657 -0.12229976190823263482 0.015581300221148298643 -0.055397843559666815061 -0.078493333152851632595 0.008566021657285548957 -0.019724350689496059075 -0.017387537706238812008 -0.0029384329738004889669 0.032974565181745352227 -0.036227146602193220637 4.4043341943179817463e-06 -0.016889308361520184026 -0.047335803298470133238 0.0051681482859575102878 -0.023596662885483052352 0.043416024165145804259 -0.013550892593241402329 0.046047352180033550295 -0.043015947632730297534 -0.0084410002862217916458 0.046551507603918365619 -0.046827216607014846006 0.028895242427200949764 0.041165492426126264192 0.02716154665056302181 0.024243349191949654931 0.028584014497763994556 -0.0738276425645481571 0.10188411950284707863 -0.028330546734441020007 -0.094748179229023746228 0.1053013979036656611 -0.10811332965547855445 0.0003196954543659475843 -0.059305836731691416452 -0.052319421049681326397 0.034427247417505628391 -0.047514916384538273542 -0.039438547241406260446 0.00045672127441110369666 -0.039385222428488339541 0.012767818480857943964 0.060940899190230400639 0.012886478490141075118 -0.043097323579088707424 0.042398427612189384939 0.017280409564232032671 -0.057894417232366338077 -0.031542013180664886518 -0.024270839804795149575 -0.0065687633909356085704 -0.0042437468036316244174 -0.060938364043156709182 0.05351660441427952275 0.020950998282801058803 -0.082728461020645085999 0.10736983556340461143 -0.14755440095304633852 0.064380521314872291017 0.06811011017425157299 -0.0032449921473418296379 0.080057479387308644325 0.145455746875232661 -0.12884126188030911586 -0.026592403268956562451 0.0077975080286885730882 0.0608118129168720295 0.068955519642994608787 0.0075196615615355970677 0.023852987870731524184 0.04124288006004554058 0.04834546123360904113 0.024758895974028867493 0.020368557309401704586 0.058979389990427608104 -0.0053550052193522875571 -0.035388185130193296202 -0.082527914312315722722 -0.067473458598471758307 0.020887555776845041777 -0.079577180368921029974 -0.022302804005761220352 -0.030358935696820556205 -0.069150708534021568252 -0.046176420784474300762 -0.052930169363492832191 -0.037842478998735905316 -0.14998510420436683699 0.16071883220707519624 0.1607116213879280775 0.080748153841575825984 -0.055753083916756943084 0.11368490724695587413 -0.28177808202335469234 -0.10061618086602010236 -0.046959248869902499302 0.06500741725255729242 -0.031531893604575061962 -0.0083324334241297679654 -0.088438382726653455568 0.10971516497784671029 0.15180551737426689618 -0.14103151594636048616 0.089832841987901340675 -0.14877922070782986785 -0.0070138661859746164601 -0.13847747078396316356 0.11778317616675527957 -0.13046129938873043952 -0.058719227814694310852 0.0031142816294638482263 0.047370904738699627645 0.13210077579842516293 -0.13509083131326787841 0.02351102367111091232 -0.15322839770255058944 0.097402730588397143374 -0.04130336762585633259 0.11410072285157805971 0.059632724771904545291 -0.16448450945459242023 -0.024466829708153191303 -0.069801950315817845594 -0.079881547899450858208 -0.025750618118450085969 0.085520054142412149645 -0.068251856135336075315 -0.12338118302981368468 0.042679886790458664014 0.14300606050023259574 -0.049155885056801712496 -0.082214215938123766381 0.043428244368146046162 -0.021738695676976806798 -0.034186733592699351802 -0.054363272622856027849 0.028208326094934069866 -0.13593312586662847918 0.035667782766257927207 0.027861677288871008334 -0.16634454667517112325 0.076560647068586076824 -0.11280569125099249028 -0.14733885277427721805 0.036983456752838192449 -0.088436590310082302535 0.028861299775388878086 -0.037984502210915607745 -0.18889026016655074969 0.027022678459623878516 0.14973925989745981435 0.097198470800417935411 0.117428210630889443 0.035913134720871965622 -0.11196986671052763795 -0.12340305045849891963 -0.12495927054944891421 -0.055895054810427349801 -0.10217936037774114078 -0.0092872767292795539718 0.14753068245559297633 0.046742291266645356884 0.1493589180755783008 0.27823463572928786025 -0.017931511756854982137 -0.26655477923309878197 0.14043043946476410633 0.19081828778415230174 0.13281534655127763545 -0.1200845725689421023 0.30446165326509744276 -0.16085461269911183191 -0.26109148808594856428 -0.027760655201827480476 -0.2977726316922410521 -0.081035578882030334658 0.30843414505866345587 0.25006085641153757981 -0.26490247937083444274 0.14441774761058989718 0.18325902653591730207 -0.12181478085442683235 -0.34065162365044837633 -0.36054710709698495341;0.0066472069241103239751 0.012899960531869380381 -0.0029437121445508719446 -0.012165553297965859408 -0.01606156190329107239 0.02218633810947577209 0.012474429171526144403 0.0001464416991724852915 0.013324326241842923343 -0.025575941448897493435 0.019795410467463178672 -0.022335347996937957721 -0.024705819043313030636 0.023919356411508045646 -0.028458038092173749273 -0.0094686297170285208674 0.0092774815493353347817 0.012820243057794783112 0.015440639023688166806 -0.032465126316747749957 0.02165612308475132336 -0.0022748644060048123748 -0.01847907848116902077 -0.015148028361317608659 -0.021484819549668621869 0.013804001623151903114 0.042192980444683544916 0.12902390050789230846 0.085798828620595485317 -0.28265399991780520983 0.01803495507677838755 0.0030148963182880877086 0.018356597773281985858 -0.0081375469533611806405 -0.02659677851193543649 -0.011210997042973475796 -0.024186988232780978064 -0.029838153509327700746 -0.0044557294544797752811 0.012897912262461942029 0.0016013409472383883462 0.016865968258279503966 0.021529178589332363669 0.0090605993713486522589 -0.01160598102128192026 -0.0043492560239351066298 0.011289187093223547811 0.0074503436650162737157 -0.025185390923102020377 -0.029227188463558692599 0.010960682664396646444 0.0043408325112267356211 0.017127336501240288807 -0.035377948472196635299 0.032814468286682954568 -0.0078421820214660559883 -0.013394443064979014157 -0.10254555212669634601 -0.13318286523964453782 0.20251897455331074882 0.021196952957788364053 -0.025182266018388074075 0.0098409425396390661639 -0.012921497071268297357 0.0029156108581544762023 0.015011320385668349559 -0.029921153044783797142 -0.023980219160605328182 -0.0084700481085327478797 -0.024535453560336775714 0.012755280356630066541 0.0078367492960699294824 0.007754530457495895264 -0.027394654375892245335 -0.011263466839555405855 -0.0037547617148066757785 -0.024750753555351143881 0.012236697806498882807 -0.018800972274435341636 -0.0079979063445181249048 -0.018594034262005402353 0.022357492253168357449 0.0045768172523753111389 -0.0096439758064931629944 0.026527549746368016964 0.054479224448435677186 0.082869981824749444632 -0.037046660313289979383 0.1773064767214876658 0.29292410649569794456 -0.0037424977023801787694 -0.013262694924119522444 0.0056531334704357696225 0.021907494065468685607 0.0044152103563666151784 -0.0065710981738560311771 -0.0070764568845582001902 0.011200348907693296122 -0.029084232465718264093 -0.0057696323552121732761 -0.0029884563451776655421 -0.0080901979654887153787 -0.0047549738121144104544 -0.028542503448557781515 -0.023073717409553010094 -0.0034367090035695726201 0.019176890476044188699 0.018458741105957635759 0.015920878989372083678 -0.029797563265061909055 0.015084867670306640122 0.015258857428774608503 0.022667204809574580809 0.0052556554862955564764 -0.028155851168043234678 -0.039728129655113388063 0.050159890473706982006 0.082840047604684219351 -0.081012560591530571874 0.17182233626873169574 -0.0048197921991524408925 -0.021682573924961326406 -0.028587021957135871214 -0.0064583126787824485585 0.01537256491480652916 0.0047862424213537691636 -0.0086043037700566059323 0.0065946926304199723901 0.021181323102818117032 0.0020132773497180483056 0.014030585182360786126 0.01043698118907498279 0.00027276537520757465367 -0.03077657605620199438 0.019767035895027047776 -0.0088875933258984098767 -0.025731063993394125838 -0.029777316486081416291 0.018195357492709108432 -0.011988530391432225888 0.0086489708675801229426 -0.020928187092348223691 -0.00070601304222513659985 -0.024803344822415418491 -0.017650272801130986039 0.017408522373716355663 -0.031309428453019885752 0.0142592230972076843 -0.11627495747721883212 -0.12507758809979838133 0.023175127949905574565 -0.0011764623441161640299 -0.0027139468774767766361 0.012738141608112820216 0.018651924969870416898 -0.014068763404418349258 0.018397306247903123799 0.002041121666577153191 -0.0054301614194497832555 0.019264717214301629172 -0.0021618285637211775638 0.016888053844269577952 0.011038400488990039727 -0.025252574435878704512 0.016845649948148005287 0.021532264675144956179 -0.0056067610399076145758 -0.027324542949441140566 0.017402013881918330929 -0.020245040465614979469 -0.026433598360352330431 -0.022239401513796167725 0.028394610985789370955 0.014246549177205365677 0.0048901488122043909601 0.037739994596732023835 -0.034689063469133613049 -0.079319408588940348848 0.072195930930627746913 -0.2773149777643397762 0.0019776756733823064316 0.023692905475482698568 -0.027470058259502917741 0.021184608894240217203 0.0080869319523251166626 -0.0049477145440786967842 -0.016417376072507063739 0.014646887657767485372 0.0074667654569385505728 -0.011542889590912328371 0.0098851976105793562533 0.0064775126489675727628 0.020354149850261744892 -0.027939096187424267148 0.023218704096265526532 0.013336339411818455211 0.0068474130987409365448 -0.020868334985482964866 -0.019930021959166863144 0.018645568536653518016 0.016451477120771485635 -0.011014054770968371294 -0.00063805160944683614408 0.0011437528230551872056 0.029947874333971700317 0.0030458131218634456293 0.072210651310121901081 0.079879063424377200198 0.074662354909651465484 0.28085235649162682003 -0.028896500304442598178 0.0042124071114839622965 0.00074654063301795475002 -0.0064685286555865141936 0.016605028946971543691 0.003168327186764203357 -0.023282676030866901462 -0.01372754038802688481 -0.00043523622396086957594 0.014093434404077813046 -0.018535038381957979342 -0.026515155394227347269 0.015348412300191630747 -0.0049728906978856284027 -0.028898202710054811393 -0.023151631913383496214 -0.019677909129431559593 0.0068218711087966047227 0.0038667849835995857406 -0.027990846418150961555 -0.027209559926304038163 0.00081446757705252276986 0.009481599215880999118 -0.016117078506520620546 -0.03037314643098827649 -0.0018424525701253384978 -0.043475993679342593567 -0.081359232618550075822 -0.1000097714644883895 -0.091013444001743243339 -0.027445682615006100624 -0.024968121453746581345 -0.012480182637516885891 0.020336302101483214738 -0.020176323416263269861 0.014178560014190698738 -0.0093237107334071724768 -0.0007261307818097941652 0.01275590275365313421 -0.011220270106369344826 0.0057608888284058747467 -0.016044404393787133067 0.0013449694967964918608 -0.0068035218969625136862 0.0056284031500092642636 -0.02433614683905646961 -0.018886548089754970348 -0.024691494731011249392 0.020167517028634202036 0.013409853914279694712 -0.025190101168217252092 -0.020651213979446816915 -0.027257085987554496853 0.028966834728294942047 0.031086264642923033125 -0.048584308601173478714 -0.050776252797639254144 -0.020870797605653162998 -0.072872556180822556371 0.014275373553332507473 0.0042641969856097089106 -0.018185513902079272763 -0.020736004964737597689 0.00072135983348163665741 -0.00055426898003517303688 -0.013789175131945271419 0.019207957865328296326 -0.019460086693059017865 0.005004819040726005662 0.011962917115948898047 0.0081714555195996092102 -0.010681705545152827067 0.02053196577218000668 -0.019006742334823058249 -0.0066460984269032510538 0.0054755712812755742702 0.014678389675451120402 -0.014821999138531296442 -0.0056682922462525636015 -0.027177196703413994405 0.0014886418640312705421 0.0076018920459616076343 -0.0085857816973888296391 -0.028136000074346047967 0.0321010295706909074 0.0066030354104355806419 -0.052667343956292543561 0.055161099094808242749 -0.05145983724731443415 0.092746833180566728982 -0.0256642354708201334 0.010571913711727066662 0.015578198759310792759 0.018854551403807599114 -0.017514358674810843325 0.021966026333346103799 0.007917277203247200662 -0.0086834761135984959296 -0.029837461642241026871 -0.0069053516784081192884 0.004770597160155477974 0.0093708339398088837807 -0.011156621651706714882 -0.014333653100151050666 0.012471620172967153722 -0.0014979320425986108328 0.013944073993833887987 0.018303108056451574542 -0.012838048802930497605 0.0042125627320796369193 -0.026002401839581162912 -0.022783569762879603282 -0.0030309219751022339895 -0.019529000471582586701 0.027784089398376714958 0.042744859022631781498 0.079705886388855368141 -0.11093343120782409028 0.19114248445718065583 0.0076257990752476422641 0.0077787527883584816832 -0.023512501445208711798 0.016664850272025990424 -0.013381162439378806173 -0.025206962304485706905 -0.0053275088076034050541 0.016854787620643428558 -0.010946560236300494073 -0.0099247653259016601485 0.0051666558318637463218 -0.021347747797744311832 0.0082616745236934064495 0.0067862314189513625248 -0.026022570455940322032 0.015715561605697422193 0.021878392413983767384 -0.01455147991737719762 0.0033797563880017195484 -0.0084265394128476816399 -0.0066176053125126090351 -0.0050593224470721316968 -0.0060024308450421677563 0.0042653861497100962336 -0.0063390129184085260844 0.013658875186735700696 0.013617275720159381647 -0.07962300594495064221 0.14279658815159124163 0.090489237318028256651 0.019373371523877542383 0.00045935629486248551363 0.022279542569482481407 0.0019745312595413474707 -0.023519701089754811718 0.0051061046317442395845 0.0033019743162702040913 0.022963841214904096716 -0.029096326874097275944 -0.0074727677757251507323 0.0048940827532341800096 -0.0056336982633063848597 0.015965573719860827462 -0.01909222581623782472 -0.019243872531371983281 0.011575112397776818676 0.0006532614232678938572 -0.0059493532551519439505 -0.013961410710720769182 -0.015970084393190402822 0.019887784594650573938 0.019555256305025400798 -0.017124607465137272472 -0.012847365927515900369 -0.031114478964353979584 -0.031616775298297622454 -0.012670907286081254522 -0.038817069331819567535 -0.0947791105849614679 0.036377686245130561038 0.18098036692422334037 -0.019671730096837081875 -0.022783119312277201607 -0.0078186250318177316632 0.007797430489117126301 -0.0063304274448084535409 -0.015135141182293601614 0.01863030134304797733 0.014654283291778367679 0.008347572942484978234 0.011254237520949183365 0.016444302964064207856 -0.007838538935661398116 0.023093833704768300386 -0.017749142341250242344 -0.02831510850181363434 0.002781787767538867074 -0.015832569806195937595 -0.025258551974796684958 -0.023786096618344153286 -0.00401473900834257557 0.012843971116335237484 -0.0026556056670854416915 -0.01796033097557419439 0.0078364834746172604141 -0.0012742338819016006245 0.0015333938778152940603 0.048360909481228238349 -0.15607380722153635366 -0.056524829075981497528 0.098247783949507533352 0.015885841568760102754 -0.0043988722349729142413 -0.018134640539439222939 -0.0026646871257277084111 -0.011176267938772348198 0.0089141896126931768896 0.0029857819103849257171 -0.011518725400840666706 0.022666965100150097273 0.01700950427466541362 0.021771029049476219031 0.012257127499318069136 -0.02070264225467296007 0.010866774214186325845 -0.023611455494109798159 0.011845601809032546559 0.012887786391550162118 0.012989350199308528216 -0.012786112364282368678 0.00054812522042231072179 0.022174168468122180953 -0.028882831555816286528 0.026313117869732473991 -0.024327179774032862969 0.016263670613207176913 -0.039370806847471885581 -0.057793107728232789855 0.019175169594066357459 -0.031063337753979517603 -0.14154235713349286319 5.8745925714379630157e-05 -0.0062283751022038031167 0.014438344991751228541 0.0091176489624200836304 0.0054584004303147816081 -0.013102309966706976105 -0.020971935141073740072 -0.027413395227295186268 0.0076877430838699963717 0.0064480439383362573094 0.016518188895251115916 -0.021385925786949724209 -0.023319371249579709526 0.0018184036433338233996 0.018195721339572583364 -0.0083453636381608936601 -0.012114602654471624821 0.019674864378368388945 0.00019450627721848674323 0.012337168062482433209 0.0072805125286362999334 -0.025695048638758450493 -0.030743482146693690976 -0.037944072560992053722 -0.0045023987263164959999 0.051131046674369164118 0.083862828058491975525 0.099829308486764939401 -0.11809483201768182503 0.044686051661412935776 -0.013189954191670311828 0.017781996697070888425 0.0080339597516770333563 0.014114879723839499071 0.01767373224035723861 -0.013760787496759010681 -0.027987061489028665362 -0.016502589699290456937 -0.011596875497349296708 0.0077789718250795801546 0.016032165199121335003 -0.016837968091254873482 -0.015957663973534843421 -0.015778969311237900364 -0.0039622482351833005973 0.012684735146644468204 0.020900098220522255604 -0.025351220870569259741 0.0063925417236548745872 -0.017406837855979483132 -0.021572765782634742426 -0.0018807573590257256439 0.014782277207908407421 -0.0016745995012200237412 -0.014294265271919653904 -0.029510860656766293997 -0.036475949211611187473 -0.055860375933529209103 0.14957086731109472955 -0.26429708615986025055 -0.022795966432771833099 -0.018862652499493044733 -0.01679968464347189952 0.018400754732857450141 0.010167335364351683807 -0.0096349469336680163001 0.022195349613208310152 0.019823562944026984489 0.0064216114632450601793 -0.018481288402841567625 0.0052144109590894060363 0.0032403284339585672162 -0.014693102008586500853 0.015104060938775001194 -0.0098544807489046870597 -0.015498387417028153951 -0.0057310385002671496851 -0.016355107304184591382 0.016935061670554637375 -0.0064789401054848715783 -0.019461954284864441123 0.0031378216888884539332 0.0042274780179928812818 0.022272982280275317041 0.026521573824591922197 -0.043638263177367984935 0.047235105447462837069 -0.10741083389693754924 -0.064529845148276684941 -0.10136128855395563908 -0.027451771714265806035 -0.0098601515824392541032 -0.0012299890058133546977 0.01873466944161572903 -0.018736486868347970031 -0.013979985294969252477 0.017871404482797108304 -0.011496763752275446918 -0.024211511081467306655 -0.0060703709560201773651 0.012455499599877645905 -0.025832525215760387266 0.01481270841472288359 -0.0087504390387460745382 0.022229705641001948346 -0.026196238239107331319 -0.012415892717485645103 -0.026649465876196969799 0.004470542074931361555 -0.021468153511064170386 -0.0073057306916422901782 0.022643964399850398383 0.0083001438365726612489 -0.028151700113412326393 0.034198690193229346057 0.059569592249528839634 0.015907890877641047561 -0.13773358608368799216 -0.093083582005564907691 -0.32105033762206758308 0.016378574435241596147 0.0069643757302644340723 -0.012999264561291497613 0.016040755621658575603 -0.013931271583608786577 -0.028540553722009212589 0.0050072811243763665559 -0.0023460865011206981541 -0.023225866524217153586 -0.0024145480964120583263 0.013280863444273467364 0.011640338617542562299 -0.013277298984152238748 -0.0023466933177797686012 -0.0084792033946497428337 0.0018170413848446035927 -0.0041007062296090478898 -0.017302358559417207323 -0.027116602835144578559 -0.0049857381928796627377 -0.0046133870299024564224 0.018588228968441956879 0.0041777064905449846216 -0.036632558744383002247 -0.0176125349341628816 0.024359055646849901017 -0.070262380380517852618 0.02509231373293186948 -0.18130395323302181398 -0.029146142460128376256 -0.021401742197640846038 0.018390647757935897622 -0.0044805237695790161093 -0.0029315457590022475816 -0.0093052332372975370828 -0.000342808433580158486 0.0066564689764919077533 -0.0025094266617668769051 0.012417133528158754915 0.019259775761565196134 0.0095167759706336722825 0.015355544066760894173 0.00010995123431694887829 -0.0040936635352472466876 -0.022508206218262150761 0.021599897549892756177 0.0052005266397370346343 -0.00018137792311785888143 -0.0062229839665281887207 -0.0072325125144608558292 -0.026690215635128040211 -0.013722669166540682126 0.022053415534800759057 -0.0093520210490990636487 0.016242837551833783083 0.039203513167758330393 -0.05809021698667670569 -0.11221071259729709091 0.13106128600463545775 -0.28288519470049416915 -0.018716435404338597343 0.0036121063531402426532 -0.026381397434085230441 0.0061247072625594074433 0.0033003120028591357953 -0.00972492618913384059 -0.010099112376206160341 -0.0006100767743529750568 -0.029964294996508138852 -0.0048311469111305561236 -0.03009030196582055186 -0.019892583311507481408 0.023069781259493497144 0.0034247814851518206328 0.0041560558548639214838 -0.001788045467402524279 0.0094494303822126469311 0.001219830032197524684 -0.0087540445599979949121 0.023564808981329239679 0.0069085427408443773195 -0.026364020677500803885 -0.014016743167551084029 0.0021259627263483724113 -0.025827837170943737655 0.0035826067227625007887 0.064596018129113960682 -0.12235641718831355429 -0.17974726584626302128 -0.043196642657075678962 -0.027822034512203861617 -0.014934274757888011884 -0.00078269011145641522592 -0.033423494358234530355 0.004532218288897015869 -0.014418550183607726708 -0.0078903347817207026421 0.012066960445181577205 0.027575778095617013014 -0.018146463858744358438 -0.017210739078383052725 -0.022252033108199006234 0.013039404692034262459 0.0027665746296425697964 -0.016412970555977349912 -0.0092722939819308639042 -0.009098859106301955893 0.0041209945819301978254 -0.015584676409851744988 -0.027265044855353932213 -0.0082349950656553372319 0.022155811771160941609 -0.03015120223631578486 -0.0045141771099846735721 -0.0057224489852147732497 -0.090400967317761579678 0.084562451311451847236 0.050965093450767495753 -0.13569793059643550648 -0.18711051189889657542 0.02338467288778269676 0.0035705363469825911193 0.0094054549597532635663 -0.02820396576221198201 0.015493833134538535085 -0.021201679230352928757 -0.033168202491908757579 0.006142875281187375365 0.020877649357281102133 0.019630227800897157714 0.017885250646640715039 -0.018717369180865604805 0.004012319052494708535 -0.030711520761154829234 -0.03400439164976886558 0.030699959904045833609 0.015345381662698148045 0.035502696790948175265 -0.02712256043865161198 -0.026476589841307227036 0.019391958837696190998 0.019620840696160997407 0.023166444814882371228 -0.01961960087551219839 -0.14694308183462415074 0.086399248114010507305 -0.085623933548769154411 0.06328040956072802925 -0.12283834045243832711 0.057798545934207523622 0.02854496063781072554 0.034195434089930719368 0.0083775540675593822976 -0.0020107675457191383911 -0.015097114944530570096 -0.034096036054129572057 -0.038003271640842058166 -0.027267132029931473447 -0.0077851027610053857853 0.03100202031228852656 0.0012944601971227574517 -0.008984718594928060853 -0.0030439347337761330468 -0.0070480689356750784308 0.040862400083597170963 -0.041953192828257615532 -0.027385975775282445782 0.033866561823745991444 -0.0065996709338940100567 -0.0057551492177315161786 0.023690488215468739203 0.0028130899624414125448 -0.03664643750144231521 0.059140370749404702622 0.030443532354233169418 -0.11647715580520026646 -0.037933004008533589835 0.14532052224528599349 0.03189834405867539302 0.16970779508033723149 0.035238286292528800403 -0.023386215698728413798 0.0019823828949534060689 0.060136531765808139138 -0.031649790636937603916 -0.025188113807976870995 0.018959121019880224857 0.0029006940094037148882 0.0630955938243145803 -0.052986047508322836608 -0.022421061554868764593 -0.020116972478858359541 0.040493725797583708659 0.0091398506175939687318 0.012682169082174126959 0.01717070470104273272 -0.026995063024965307297 -0.059134154189618017006 -0.005023260696823379258 -0.043356474849013885986 0.039850628732176825164 -0.067120291421972289037 -0.086923741004778995456 0.00053524350676752033371 0.15095639324143150795 0.011589619608722269428 -0.13179329860192035007 0.16741444603345795317 0.11116897253575505622 -0.18009822058645499898 -0.018662336213409583263 0.074551455994078710821 0.028321313922449940087 -0.07641696490615385029 0.0074148331517482025596 -0.049511346527743624324 -0.0240335417793608834 0.008793445354870714839 0.084080209170261432927 -0.055778608315779770743 -0.060590292516438562509 0.093719805661351962556 -0.062511870756614892897 -0.035886858605109123177 0.061252484019208811028 -0.01307828632548816393 -0.021318219912943157934 0.032328198136200789192 -0.01802311186365501694 0.091302032134464972124 -0.090704318529902613899 0.083280986861599362592 0.16057316048807518394 0.14047993176291945217 -0.099567485337331659845 -0.033113774378460643366 0.024687042645340762786 0.090894907971883959208 0.18824123655640931374 -0.23527136744296689441 0.11846802072544214413 0.07969977890650649377 0.15534115440951712372 -0.074956530372699115006 -0.12441855564729398242 0.15420751778785202202 0.018650538744258302049 0.028192575051255070601 -0.085146941359246428038 -0.080153585500190971391 0.11486864830659102021 0.1521348473323895778 -0.098086035585703335027 -0.067437328972239238278 0.15643275219732741266 0.12106872404495458428 0.024408028933081932915 0.011196883010925745908 0.034449282375062277584 -0.11459317371202905333 0.07154086397694775501 0.024483073658706333564 -0.084574200913380429001 0.049348455765588682131 -0.14697515936562746686 -0.10571235534783500476 0.076998864928207177982 -0.014853556783933869606 -0.10730029044588733356 0.31148029891713030493 -0.15452893640030723743 0.1834729591475155186 0.08578611971137668768 -0.043876448032531309429 -0.074033868078046974337 -0.023890601904225761132 -0.019747708418149871601 -0.053387862900967329727 0.09207603105748170258 -0.065749519977937806448 0.078410527676437052902 -0.0034369658644961944075 -0.15638009612118233815 -0.055692894464741973803 -0.14811964431261342989 0.041954097292602451907 -0.046878747866292029556 0.041459115687097231051 -0.058678365675519428279 0.16953652044527176002 0.011169469975415517032 0.1189914950248753267 -0.011527277629878948315 0.1690908395686417931 -0.11350804748689592716 0.089326516046001586124 -0.09582295710206051309 -0.13098026582537894424 -0.11080406083548485774 0.28409174583581620066 -0.20894941213154866189 0.045438293957384787158 0.10798242309672145822 0.16036863682787697027 -0.24178833020601905868 -0.047569670614557309218 0.11254019278878164834 -0.1620851037378574222 0.30336389199001917438 -0.2171165128234439079 -0.016433334154967192686 -0.32606524171968154224 0.18307194196089243698 -0.30411058279023406303 -0.025033556124068739868 -0.11534650788624012385 0.13963019856252986695 -0.097542702517281199004 0.12289310925980269362 0.31865929202386161778 -0.033941739824153181748 0.16979890351004739424 0.14319005021504604969 -0.20526864559808888355 0.13493270730886125497 -0.024431585791718772593 -0.30887931005157898134 0.091453305136182008739 0.01860129731905597536 -0.26360896700853719832;-0.013568167874424170993 -0.0027056798102392427829 -0.0091689852860000042173 0.0263672320866082735 -0.00085275070768385389294 0.033762510109662149937 0.027715759634888734869 -0.015584192530188414189 0.017987707935425562011 0.013143787151749719219 0.027583024336138243365 0.028343345405856961577 -0.020041218962111917445 -0.018048207594968782713 0.020795554322175970746 0.015683506545558348333 0.029657482233220597984 0.032908228464047208084 -0.018376693147786799659 0.0093509572578844204344 0.0032071732472998327503 -0.017345605250944189091 0.03332381033693664063 -0.02999296600105132507 -0.030483661519883162999 0.011758177882242875842 -0.016186181642076795384 -0.11369588166463799606 0.10386014434520532412 0.26927621594357753487 -0.0021906687840819710072 0.03334733088430787834 0.031915254447240914981 0.0052076895961112477582 0.0098583338815134858441 -0.0099570537694361055392 0.029847373606688761688 0.0025590153385798095759 -0.0073516993604569227244 -0.011524699850957836542 0.0021292356465451595798 0.013904781360894347131 0.0085927019954188058742 -0.01410644198631240756 -0.0043416663434836582844 0.016918061084838547509 0.0083181841483035423579 0.018516755552414481539 -0.0091158890444085205473 0.018196125830824035063 0.024853035501401280621 0.03244546572897432507 0.015193674537149768136 0.0026509155089050849552 0.041035185999833273529 -0.03065357619185455143 0.0014209812412475594529 0.02267758469704098459 0.12841814861215342103 0.1020604092971291732 -0.0016918547042062167911 0.00027446978328530408087 0.019138058764404868722 0.035043562129206770606 0.023510995728144273853 -0.012261862623360661809 0.013325062899013563611 0.0075414268757987906397 -0.014098775110125269169 -0.0094505794909849408225 0.0099011399009129551219 0.015897190933281204334 0.0024301789944501436119 0.022728659875166423721 0.019706497498019920345 0.027345636731210726939 -0.018322942540791798544 -0.015382467775646561231 0.027768576167071810923 0.025233539008184646679 0.01785546600865719688 0.0078589729970345457294 0.024169641201245171958 0.016198704247064238393 0.03203475958982523325 -0.055725440534585578278 -0.022105129751519386055 0.019117463424478387674 -0.05520542590675146799 0.088161011220333873606 -0.0074558973029291136098 0.019310402895296681358 -0.0060196579310433616372 -0.010651483199044216657 -0.014049642970506764569 -0.0011221329594504286884 0.009044221489017942317 0.0047324865352120180917 5.7703424511630830489e-05 0.0011764553587858056147 -0.012943883067541416682 0.026307131786833040654 0.0050205690607837260425 0.026971359522071719494 -0.0010826311978424745224 0.026338476868840235423 -0.015692565232661982028 -0.0082980238855734512332 0.037269060249837358823 0.010487095883159604573 0.017551704212849815467 -0.01123925878434651679 0.033490573757430815161 -0.016566048989987435663 0.017584645763877422564 -0.010605049624604300645 -0.039656978046486976441 -0.031602284983484441039 -0.15912102061735877712 0.050265300269540583167 0.013678354463537364949 0.014906551035363700339 0.029096112310159696901 0.028200623357233799149 0.0086247906800566744023 0.018554234486956318328 0.01034661514712884034 -0.0073158316000865846601 0.025472744457668394791 -0.013710733832943087021 0.010945113856986753501 0.0035581214710217446383 0.017352764243079490253 -0.015582517892526936629 -0.0048894616127290561891 0.019104364372155423213 0.0079254846036751203098 0.0080441808767924560808 0.012098872359693755782 -0.0024723907129911284683 0.016908119002383894397 -0.017437902429066610283 -0.013700098239893180804 0.019481320417468094702 -0.025225348420633831453 0.030608620076205159816 -0.082366524383101297202 0.10899926844516240332 0.10745024073919791363 0.26445658095460422565 0.0086688421929928642651 0.03538244939797394184 -0.011702251220053779338 -0.01272652924468265466 0.0058538974193448568492 -0.013569597091429661667 0.023522683443657665253 -0.01564033970465899745 -0.017735748525852513408 -0.015478917944102584328 -0.017192621800341274102 0.0068961510474391746542 -0.020666676063362802995 0.01081827772915609949 0.0016819278004100773546 0.0097958947206788788559 0.001789517343893616292 0.024891994912242847854 0.016273527441040696456 -0.0081562391847820239071 0.034224332852099421942 -0.01690055491427843587 0.024431463705253751717 0.016619844737066513662 0.012923076140124854783 -0.039920238620615701441 0.053477358167095548347 -0.026219508230544960603 -0.055888832815739135362 -0.30898005182417426218 -0.0029165175449487054996 -0.012186053835946009105 0.0048070951545487400694 -0.0075103509079688266989 -0.0092804612918466807686 0.022553360734396860759 -0.01352263191685353777 0.021927230968673418199 0.023182925035264673186 -0.011950375769961611022 0.026280767277123744108 0.02290915583970756092 -0.01050213070253949027 -0.0033251029212018456266 0.0046502861005083837367 -0.0011698422642158205938 -0.0021587403156284080963 -0.016197448381973369308 0.0044173867422701235466 0.029293258098142746504 0.0095398761639635433485 -0.0025580156031971201455 -0.01476704445466062339 -0.011562024900799130339 0.042027848773678440353 0.056498618709362041779 0.0037203218051704190113 0.13392344368264130772 -0.16214334349253786693 -0.2907149744467075192 0.030855107371674024563 0.0042550033328679209843 0.026943931783238141836 -0.0054227219940378235466 0.0028348471984064511388 -0.0077967828530723440328 0.0084426618042750794374 -0.015027288465185370883 0.0030496907956136277973 -0.01259800523960454173 -0.021005685738580588684 0.0060001495427608412397 0.0080607505527011940466 0.012138448965396500187 0.024642119631801521346 -0.0017082615953332505598 0.012560748286410790969 0.0081688588895525802297 -0.017239918178014124184 -0.004834356258334918284 0.022956117085499286312 -0.024837204892904394399 -0.013489820796709614537 -0.018637321339449276075 0.042606104600733087084 0.014239996834109879681 -0.063382495738464578183 0.13902771362986809933 -0.1820657827385730454 -0.21585673943746849779 0.016073053952039437209 -0.014159331586410849393 -0.0019593185027642484597 0.0039532828100716553912 0.028391623198503187359 0.0073458022082459259461 -0.025754985852932430618 0.022888801787554952094 -0.02525596864601460656 0.010133137434562348306 -0.019286362648441163214 -0.0078816983711704445559 0.032562858718309481421 0.0073151106599610247333 0.0093262789613894787888 0.0074847996238617143377 -0.016994789206124398528 -0.0021767274018948674745 0.028600271022900563417 0.0091696012728860101099 -0.008001429501187425769 -0.024863234476014611091 0.024654292742585157822 -0.031381438620384678739 0.031855427715758360963 -0.048156898440615221457 0.044162008974560136576 0.00085388579123973852494 -0.14923863739899723146 0.18215001757326693133 0.0027441587627421919031 -0.00099651074129044432334 0.029198490092121661549 -0.021594688832101222031 0.0035021205361633251686 -0.0059798394589817898889 0.025526302408669748062 0.022718980146772562584 0.0079970694723247234825 -0.013765952504305123405 0.016056387183925310835 0.0091231354098462551228 0.017905665387727517923 0.028638547427264203493 0.014522726812135702129 0.0086520404158071679418 -0.0044048426361170262 0.0030095914846983251416 0.0052770396485468124698 0.015801826382247197156 0.023405943690928861234 0.012591716890215693889 -0.034212011772337305726 0.027815807784625834476 0.035914606645648494698 -0.023056276660301282949 0.030101472218357266941 -0.11825117692825387605 0.037246215400887482116 0.18265926497400417072 0.026300980673029460133 0.02642617054151271197 0.0077499591462151552756 -0.0018844991656385640458 -0.0010322970813124599659 -0.00064042847352466063249 0.021688794545438830341 0.012940980608849095637 -0.012141432271192511769 0.008461031195316623052 0.0071135811282823421114 0.01378552450616294181 0.011785755199136714252 -0.0053114689593984458493 -0.010528213595208614842 0.016640121721780126024 -0.0020012400819857060347 -0.00034291672506315748481 0.012732962471042153646 0.015368163832026431048 0.014227021201988071519 -0.0032017442831624746621 0.026007129236817982249 0.029632380035296636972 -0.035997544862277151834 -0.01540142533098174879 -0.081925478474230595261 -0.077967624838929938669 0.1762132176948911777 -0.17025239502110986467 -0.018028377453432331556 0.025049121843284644084 -0.011708171671011253362 0.026211681258180269394 0.0062645996628304043141 -0.020204973815358209105 -0.0053593528111330968403 0.0038585923208365510012 -0.021146318536950779732 0.0066972516702766306251 0.025055387940974206684 -0.0038050971767721363317 -0.017827519177884849216 0.005050304033238503347 -0.0024993945613309871689 0.0035096046630887414025 -0.0084597209896863298506 0.016987589370560642055 0.014483441941768121497 -0.0092645887954682475118 -0.0025527357670037226743 0.0019938223635399933767 -0.011125951834600331797 -0.034796498678481814493 -0.0079816393941695741587 0.030641478137604073739 -0.079522145475830502415 0.057163555441213709241 0.092436332071607479888 0.21350539770442605869 0.023041049913364926305 0.026350852682482561046 0.019327291477483091175 -0.014605868610859908813 0.016275606445556558416 0.0075114904630428089641 0.0038420732932704418881 0.008622434165324295921 0.024203788257469906892 0.0041695785550043204526 0.023888850862269352809 -0.0066121933814532298304 -0.0049021378317230523969 -0.017909585387591651917 -0.013211502358827547504 0.0053985089217098245623 -0.014028579179338829599 0.013939643170117839779 0.0054685926449318288459 0.030478365006135030302 0.027358814361141799154 0.011440675321137907042 0.021785596349926838328 -0.014618817222810737838 -0.0017520404541090169471 -0.0215212579241337576 -0.0023244096515107198764 0.024782580448156836528 -0.17037160958833114099 0.29801484669803085525 0.028307490543954334089 -0.012592080211977775897 0.022040684197517087378 0.0060859988985362354491 0.025286227661846787107 0.027082423447170361069 0.0080189528662584583923 0.0099795282338713403592 0.025066238224695037984 -0.016081580046668871725 -0.010236946325869978811 0.019823914715251210461 -0.012764355295041709612 0.0038808096534586290424 0.0024603626747484565532 -0.00017711865596562749968 -0.020419931243460233417 0.016680274864889686054 -0.0043143936831483951921 0.010912533561020900177 0.018784832064350574787 0.031961423408703872051 0.02644181292981366907 0.006851321244623897154 0.022631965200732816201 0.039159763094688000706 -0.057087965646085703231 0.038624073905907441162 0.028480817310195031405 -0.078148628788780788446 -0.013860084299638829319 -0.010115302013882793847 -0.0072050307267271353553 -0.01578548038571169973 0.027187951226890730294 -0.011584567416950186658 -0.0021901976912632476618 0.00044003123266999591597 0.0076731794720330172982 0.02098169979485531994 -0.021520049200010014923 0.024157231318576440765 0.01314810803910372583 0.0070467131713312777461 -0.015506210129118269334 0.025445084931018616126 0.0033154069699274923977 0.027093459831596802129 -0.00078989502359828726342 0.021803247232048898752 -0.0034129227545691008701 -0.015302938843388276188 0.0034724405281060018863 -0.020970507872183043879 -0.039258463376441440906 -0.010385856925328746519 0.017584344343679531031 -0.08119962233113826866 0.061767149351252360889 -0.1266739942530082097 0.006994290121731374342 0.031503216403700483317 0.029552030003060704433 0.020130625130417013208 -0.020701599182378987996 0.00070492477824868674235 -0.017662219042235836192 -0.020317793511989562516 -0.0090414048000935897526 -0.0050851170861265755987 0.020226143584650611157 0.024426618062418942179 0.001102653966340116096 0.004767961676989318151 -0.01210317480758605832 -0.0012204979300957908249 -0.015175463790099298633 0.0046248798221281599632 0.038047216524634414059 0.005614320892710519123 0.018296074855050557112 0.034078400078425219455 0.015573614760728226453 0.018184368982500146578 -0.026008619871243848082 -0.044117033533604022022 -0.077707139189303317539 0.14396166056267475919 -0.033409487380213320762 -0.23865594027214021011 -0.0034774968894671432276 -0.004531208842481704302 -0.010947974216710435261 0.029561321132846572063 -0.013727221797194400291 0.015207248517517828537 0.014726421262152422989 -0.0068969729635869128637 0.0046962807763351634149 -0.0047785384793375485293 0.007714752074934822304 0.015651489217471250409 0.016109319219561355624 -0.0050022760284085384871 -0.016893552104376090284 -0.0096701048580210002825 0.029328118910351728271 0.0010631117748354885696 0.043243385057488724355 0.040678893655320270961 0.034171496168394363546 -0.006158475248729493659 0.0015653107503073534525 -0.0039200617888816777223 -0.033642779492243729544 -0.01439275185101165748 -0.053554837395172472103 0.012689091990017182382 -0.18718169908911916344 0.037496292760998181648 0.010169150960899592598 0.026614996427068698254 0.035176533814699810498 0.00051532395920708814682 -0.0062025876828889544429 0.021971075523772545801 -0.01869913550417144979 -0.019567858346815118764 -0.012497436859923480301 0.013208846944032031148 -0.012173740194314171259 0.012818595147775932452 -0.0034529930866904678596 -0.0042741547378287881448 0.018382490578510424922 -0.001325858862198107252 0.035162007225606806138 0.028904451346684262303 0.032243429336579775002 0.010231553528381271898 0.010064361950663180956 -0.0016406227555387752071 0.034270505078039921465 -0.011125328720906508401 0.0004197306695962481262 0.053511800299695239103 0.016952973899783747164 -0.038654576164838944097 -0.18375782991494041263 -0.20968826367233794894 0.036343816713005232255 0.015426220760210416355 -0.01042862773663028042 0.035631488038164467469 0.0058056799583315211316 0.022854219848039883378 0.021802807099557459936 0.010014990655479959897 0.020888033920960277084 0.031937769636439405918 0.015886459793620445746 -0.0048848929570712885939 -0.00017686262234378876887 0.018381509895160953044 0.029388514954254481987 0.025767865467039054173 7.1821540092778567502e-05 0.0083548703828157655504 0.010153021989992724872 0.051736471869270071744 0.055323031310441556085 0.018159177336829094435 0.013844467594168392496 -0.0051896520376732719476 -0.032536615685306184698 -0.051841088454438383204 0.066377513452879760569 -0.04797706178160338758 -0.14647929610240303933 -0.23368381389374257018 -0.011483649297235436204 0.0064677937430552192438 0.015422666120507974932 0.016878689730289359039 0.0042546911686449648618 -0.0087175898572062742592 0.036569287541959039078 -0.01048243753220546616 0.036610674188453290467 0.0079249337324340859284 0.01971458085851302347 0.0059800257563600127397 0.004717474785139731154 0.030582080601054103391 0.038586528876669703991 0.022416991348350324975 0.045524591546704962219 0.04806729344741588611 0.053342124608135775554 0.044601273977977404228 0.015314481006296379664 0.0062792050938915563649 0.024134635023348529476 0.032199464354676250732 -0.0087020468316607035852 -0.04817077955665900052 -0.061716998727514342515 -0.0098894020522892495811 0.12303781422583830174 0.22891599273880605669 -0.0065357573041432822855 0.013415082828045024957 0.018686101976651724871 -0.014358168982703495981 -0.007652205930763543093 -0.010466739054619287469 0.012285827511465617287 -0.0062153632614953763583 0.018173086399199085 -0.004033457329488092033 0.0076923221418239377117 -0.0097111637198108065328 0.015212023248800261507 -0.0093198717908874045834 0.035371273820272948474 -0.0068455960276307369072 0.0075452612621326490758 0.040863734364586221104 0.050218787717921799241 0.025028329459797667156 0.0043578669799812386892 0.012717884820832163137 0.023721241105068537752 0.027101370377205474815 -0.032657693420725733557 -0.012545401433448271494 -0.069908391738580918928 0.088152274602950247973 -0.077903471677629579362 -0.26937683204235490786 -0.018060326018505417495 0.024524854601203155413 0.016419028746063452778 -0.016426343881520262535 0.011707508065860218471 -0.0034451892214373007646 0.020416462755116836919 0.010026336487087381122 -0.015320926115200925524 -0.00095071741194012633624 0.029974732172548000653 -0.00027230567411044999913 0.0002061570360237102717 0.032258859447821731925 0.017441936768438321553 -0.01151365746441098542 -0.0043047917747793115403 0.0035294144020821321614 -0.003118428047505877182 -0.0023052264742078770222 0.020602467800419792254 0.0073929790149833921747 0.0015608381829305796942 0.036375348772480206594 0.020514543047331561948 -0.0072109151895517241762 -0.15978478883353788853 0.09720228989183442303 0.14863302130021641134 0.11266487563327146071 0.021080771593655945467 0.0094562517154311818979 -0.018666223744060277817 0.025205480822082574482 0.0088558236340316731638 0.026865478301493085633 0.032486322426600197644 -0.02535589172748049791 0.0069270123532216079654 0.026479778421152715823 0.010417806099938173997 0.028310098830970086697 -0.018629596758196566297 -0.018139201728424932114 0.024753505005785693405 -0.024434586495609634388 -0.020944089299555053441 0.0075948446509494730444 -0.011448220055960049366 -0.0086505287195620221563 0.012039475709949372731 0.0061588219553115877355 -0.019636666915921922177 -0.037343683754124605556 -0.069423070122921495817 -0.10742746168394876061 0.10541242224905088276 0.15179745109036993367 -0.022477257686819736987 -0.26256141360698637133 -0.004275584535683813088 -0.022456935777638895035 -0.024920779515923103392 0.011874131754611497863 0.0096522133456596499734 0.02967789488067102549 0.024009669202051889952 -0.0052409026490617509342 0.028681993600852329074 -0.016250593092025967384 0.009233992081224055154 -0.0067887121895254705362 0.027814501605927632877 0.0039039849516668292083 0.019993089705002201062 0.018964475195086795412 0.011919288854909624101 -0.024692000667000224556 0.015108827029074728757 -0.0053242138067621461867 -0.011875106309734010865 -0.0044281469772722709122 -0.03885432956014046868 0.057373162096938386256 -0.04121556955016451862 -0.15845947391330036935 -0.0082788158030513946117 0.0016832896675555212001 0.023288769852167715696 -0.047913606381472774454 0.012926414034204438547 0.040626697657803488573 0.04023068763005144266 0.035221387894476867408 0.041083264445132890164 0.014738596170314803568 0.038248156970955717038 0.020924053704833682488 -0.03704967257602835573 0.0012092327976479379063 0.00531242736301300051 -0.043908685390154973682 -0.019282533854466286927 -0.031793528030156871511 -0.024919041471875284788 0.041741706367895467511 0.019375124202388363526 -0.015428574103602234885 -0.038797932192220364878 0.018978818260258694534 0.02089115821295641981 -0.016112761121228176553 -0.0099321008677623265348 0.051818333361657281655 -0.0038591278084864491862 0.012266350896234994722 0.094042581844325123797 -0.12013895253260470364 -0.067149531128566211646 -0.13157383609740821995 -0.01929799078779299501 0.014591115345407352014 0.015048169105274093391 -0.032498335336856969124 -0.026370698719698965062 0.032867630080341825316 0.034160123280707499482 -0.052771545928881821719 -0.046439688476860620236 0.053652584860027469071 0.028430977564911932842 -0.06012697671369297836 0.032728119694696480857 0.039313414560575507539 -0.04140375560332423821 -0.04488035565265937471 -0.054380493184980019383 0.055768777597426218151 -0.033283799842761196963 0.040214547235703237971 -0.056165923850506269122 0.052597324186986607608 0.012086100616541181618 -0.084905257249800539232 0.035002720689796811004 0.085952997042963205643 -0.13119895153161076351 -0.10128852889795184056 -0.003749830805437539584 -0.020725552918871282398 -0.0049880550878230924677 0.044014440677881308539 -0.018953905653184745933 0.046508439096948447911 -0.077732290382062599332 0.029359169555559040676 0.02843831675831711564 -0.054534086269123045743 -0.015375106200700507791 0.012453770481488421473 0.0089023283849231551329 -0.032193126060938749566 0.059991978660618991426 0.063858500975189816384 -0.071927599284877297148 0.075111059288993753391 0.018912290287906842468 -0.080138607974383449517 -0.023928519518760005963 0.08089947277306802631 -0.028228047845240366448 0.12558582429643880274 0.0030425616444358372092 -0.059548778177568900682 0.11638457185030012808 0.13888196161178545385 0.037767893987454635718 0.0045821224828773623322 -0.081528807149628720885 0.24157165143341913227 0.082909505580183298634 0.14054649544648845083 -0.033488163235902826398 0.12427468010321698899 0.14437452865847894001 0.14652691857307253986 -0.077346892622659854655 -0.056265877675164194249 0.14630539586301591348 -0.15562874522272990285 0.11138895981579972905 -0.10097589810063602178 -0.048286739305034714898 -0.034067353299218956775 -0.1341337120976398567 0.011423398641678857157 0.14080077992249234731 -0.068517120010567700295 -0.058979846655808215727 0.036074165303175871611 -0.10911165678364494191 -0.060098699813160537386 -0.10527150480841350466 -0.11168950204333250031 -0.11840206534404838778 -0.084624992508839869121 0.11708181357646949006 0.11516263265152074102 -0.10173104382116758548 0.25069841342064885792 0.039536581052395394775 0.13024338844095367795 -0.10904605614226024757 -0.096359792899219559592 0.080212794289610367393 0.079793279299977912244 -0.013915208815326134822 0.086848786925538060122 0.18277140908571684608 -0.13394252963401706569 -0.043260882835986252948 -0.10560842601665453022 0.021617358982581318105 -0.010807545957064419034 0.039647309388558656107 0.0071606528901290884825 0.0085103313516750947465 0.0072931112136248041691 -0.11036249263060403381 -0.068323191082313217137 0.17013004677312548729 0.14378585059224088805 0.0011460530416444452296 0.17318460383714034956 0.097799908940420898773 0.17648378256035804346 -0.039813633611557465442 0.11957643943086582183 -0.16429403447581222841 -0.24936793873162202417 0.20367387172562012587 -0.0046644797122356957894 0.18853581791116458266 -0.046461428155507633608 0.08372405484534471698 -0.065689200185688134681 0.31323537322974248642 -0.28252711099576188758 0.082826321156922233513 -0.079168473493288815668 -0.23656755983018751266 0.27507949775305085005 0.31037454076363718558 0.30411171713151002871 0.006664287930468889079 -0.20198830881647614199 0.24177414286983159308 -0.20410615537784240758 0.26453260802844774657 -0.10291799340075520608 0.29982631481261640127 -0.072989556094833998867 0.16655520168670998049 0.057104600040947514628 0.22596621654142581836 -0.29040703129202349864 -0.061865022969480196191 0.15091711808302238351 0.31541633348452996488 0.04696411341503040765;-0.028960107491790725021 0.0037612686353852213365 0.015007486830661564275 0.0050269493819668064488 -0.028243367109466368386 -0.021651839249927022635 -0.022151491782695594684 -0.02992511033553188482 -0.014412825923188139418 -0.0097739431965907976746 -0.026378588669021200974 0.012113947064953375921 0.013969662504392894517 -0.02244708457968338719 -0.015300948430035887088 -0.0089371887918612107071 -0.0090520056084216135583 0.015652686217733802199 0.011180758646272031392 -0.024906591673887177457 0.016720670125300426262 0.017080868450858963797 -0.0016243773122661914025 0.015326256281596362455 0.030993889024915094454 0.023661445078670649556 0.079652999445570457637 0.1040014372667435183 -0.028423136971827162034 -0.22858518302381578002 -0.024779487001429324755 -0.029129220577913884221 -0.0083937247201281116327 -0.026902636868887431359 0.0048234642188071255933 -0.010150121207827194486 0.0060557995281888595679 -0.014522245181462740266 -0.0099416313351988749858 -0.0041864987985761013822 -0.021265529160716414164 -0.028865086013201209092 -0.026348533825417994741 -0.024095006109604456129 -0.02487288985600439456 0.0071185421441516596314 -0.016756902643014156412 -0.0031570980683352603026 -0.034994055941574404855 -0.035859422973878438134 0.0012066290565009372537 0.0018859109292607887341 -0.0026208064499215156726 -0.032214480047068151658 0.041193957519821522428 0.044878446095591960352 -0.02388687558434642727 -0.10590194816245351861 0.16822644954135171358 -0.31118024918747094754 0.013549127547390325127 -0.032902747041804250583 -0.017081629195389493731 -0.01586378973288458949 -0.040373867555885706304 -0.029461981439422777612 -0.020089245185444814384 -0.0045002994472368943596 -0.017784787610781799955 0.00018793808987465124814 0.0054745288461713458722 -0.002033508763429310931 0.0068924203749524196039 0.0062542192285632769097 -0.035668592201339083259 0.0046572892165649510884 -0.041797524899107242613 -0.024565417529682904291 0.0027369961257121128151 0.0087602156344854069381 -0.0062998352864034757453 -0.0083246685051640532949 -0.0020608072133226577188 0.017031405745378942057 0.020953978149372741446 -0.034719593542761460758 -0.080470613406041002769 0.041368932286191997805 -0.061848182561570770599 0.2412588011609172467 -0.020809460663173334066 0.010687968745267969681 -0.0051449563466199480302 -0.01959236027159994703 0.010681009768080909628 -0.027004443177921392399 0.0068527275282582941762 -0.025228128044073185043 0.0034595220321110508287 -0.025250445424781137183 -0.011608918737947835839 -0.011026229927509192952 0.0099253358239156930232 -0.011232527813285932486 -0.0042369909855234358029 -0.024203341928371282371 0.0055000810170424815557 0.0071259905413291607656 0.0085261977651297036346 -0.016585363502686981119 -0.037909720769262821027 -0.0010470037213112534744 -0.036079356049004876472 0.011610343272034834294 0.032263705464114583732 0.042706932134807584767 0.02636658439390501471 0.020599623364667966896 -0.12524451879858722325 0.078027576564861825248 -0.0078565022661350840394 -0.025464209229285009184 -0.032821443050018418719 0.0064324986257324814898 0.012317534744855298742 0.0029390288955068680915 -0.009027474930077833068 -0.033433306974548472612 0.003922122506278350948 -0.010400864315748924518 -0.018362340457431701457 -0.028709277567558404848 0.0021472547379344248536 -0.017638657771460397594 -0.034809771091318046643 0.010908580175646413399 -0.020681741424469705926 0.011395493895051645242 -0.0016263825645776322591 -0.02061414572625881389 0.004508759228693487095 0.0049934874763667841391 -0.0071929640492463713455 -0.0090297906735679316775 -0.0013883576491414580372 0.036732192156996835986 -0.074173394619395829896 0.044174920249091385871 -0.058239286836897524724 0.18172078585414139229 -0.010477900864602367192 -0.031807778182223696295 -0.037058921995925669934 -0.028373689227941582824 0.010783548721753886263 -0.034468557293731820479 -0.0090697833507986658219 0.0153697149362233762 0.0034957717258625037315 -0.035017023285742132632 -0.024148933643277529365 0.0082781566039150048658 0.0093930426939154744448 -0.017236765193819371389 -0.0023994026556765774005 -0.010576355274337489315 -0.016816591705727034628 0.0043128872894463397836 -0.031644176062826177842 -0.023239988589058045015 -0.019900072091969457644 -0.036600220528073962312 0.012794265225816602374 -0.014554006584791303464 0.0060629715246100389023 0.055257719468330745993 -0.060169112195202011095 -0.10323192733912479879 0.17369852481863468086 -0.19761243989450291703 -0.019336893308507466932 -0.028451739611446247996 -0.023863917998434978907 -0.01579125823856096511 -0.0081342342716420150406 -0.013136814816258810673 0.011124359793547915209 0.013833677835719353916 0.0061562662935600500486 -0.011107632691270828001 -0.0081051592283040516801 0.0027963936515459190957 -0.032758435090245306698 -0.018342139777593732819 -0.022927600953169292863 0.0076161423360106197261 -0.039247760127696137977 -0.0094128632348241605965 -0.0039522603925841292422 0.00571348966158234748 0.0050197171065506640542 -0.0051208805620190324046 -0.016580625588999794995 0.022764776124407040681 -0.0008480291183125745081 0.030441815896957939019 0.070919125509262395668 0.052042423654106620412 -0.00080658081427184037671 -0.015529909705387593549 0.0037708353322023712394 -0.02168462462134464544 -0.00131308134993482809 0.01059206290057193231 -0.0035014654182449322234 0.0035674736307271387448 -0.023954255958002622362 -0.019939049195939553133 -0.021045349247132878051 -0.012426408183893233872 -0.020006928102608331765 -0.034890743764145262795 -0.017802438136703999105 -0.030880024551905561891 0.0087020831709166239498 -0.024181100315787656951 0.011803583058253868179 0.0019392318759213237819 -0.0012974115171279668006 -0.0045804525767215095722 -0.021327078359059583462 -0.030552201438214941082 -0.020114884893443554792 -0.0099955066200168880136 -0.0015168097826279598739 -0.037613536225543274527 -0.084641392891013009225 -0.015542846648440579796 0.040617130085002645101 0.24872953873205691511 -0.030540093008660128965 -0.033333559310825704169 0.0058808604098126802256 -0.016979771219293525453 0.0028069754003446005346 0.0031838676422257464887 -0.022138418814878140645 -0.013145726245686247327 -0.019011397637510557557 0.007946109922932265146 -0.013240891064799961696 -0.0017717422159358800493 -0.032119824020161044653 -0.0044571695654575544526 0.011354957582245948228 -0.015102265286357007684 0.0045345293976423129909 -0.00029854383856374672526 -0.032180954479489744247 -0.014168962441351760917 -0.01761992494373496726 -0.034771959990479155145 0.0052202057247032326512 -0.018883840559077543636 0.0055270556984066895878 0.019310504615025082115 -0.020186317912971537408 0.0070459285040353463597 0.073764015559548118395 -0.12267583782990032493 0.019171756352622165709 -0.031169225207112960518 0.0092207717834317647759 -0.015162611001533585209 -0.023382086035556571418 -0.025319524103556277639 -0.0049382111898037530859 0.00044917704059450869712 -0.025557427003623935102 0.0084998640425971803275 0.0016408765896839243997 -0.028333093280992538432 0.00309134759649184283 -0.015026796627058311775 -0.018488933984778799235 -0.010311545603124794984 0.014181795754160852335 -0.028112322523814719383 -0.002600690580105912645 -0.037167279971424133089 0.012827769527854372342 0.0036724304860587149435 0.023862387301220446684 -0.0084978648220569528299 -0.047080891116499941351 0.060932306196680385835 -0.047647068998674844964 -0.094257715111852297118 -0.044752140724182543075 0.016915067081826423018 -0.025369734254630439685 -0.029331038026420185733 0.0097958502458598793738 -0.020605571246864917007 -0.025429959509684050417 -0.0052434420671177489268 0.00024358939620422437843 0.019925761026493207101 -0.019326703740455173502 -0.0026596369631186971526 0.011340822740239226221 0.001044538092978669272 -0.017040752582876260435 -4.029304167188843544e-06 -0.022199662955713655998 -0.005171051043893910501 -0.010417856960332830263 -0.027088605679769645063 0.011312266528864224624 -0.0040425897366245921311 -0.022334690341206421549 0.0015691661803281930099 0.0057415804283548772108 -0.033736566424247882434 0.035503263111542726627 0.03252491178136186073 -0.023093877597073684399 0.068985028115114144232 0.16039331105302770397 -0.039013023889245102005 -0.024160583232992673131 0.010443719928527602642 0.0047275953931364602528 0.011427543792815658685 0.017455338397034173697 0.019040677377010966492 0.012345711166183303761 -0.011612913454407477673 0.005697743246855685971 -0.022538149719431084528 0.0038966685864856320277 -0.0020438655214982054745 -0.01234330714235132298 0.0077038097423877899619 0.0062354150977333433481 -0.0063069718161967150069 0.0067810880480028727299 -0.014208023434854966452 -0.038905723417822640764 -0.00023138690314834548141 0.0030504976039555427997 0.0039954894403450595328 0.00086894304533444112135 0.030053122224425705272 -0.01418718625551326773 0.018975385455426825587 0.083780567619467449791 -0.13621429354682609847 -0.036997893095414742526 -0.02188100760392929986 0.01841132606445510661 -0.031571217811092566752 -0.024091357063242491848 -0.026622196095325519061 -0.023432692724683672203 0.0075147055327811568617 -0.027240339502617328532 -0.011385739989616856099 -0.0056513910230024900702 0.015355147578268961775 -0.00040000845351024442303 -0.035701798986760228949 0.0001617039818874706561 -0.032746959522942466203 0.0065053226938431929841 -0.018009926922514369468 -0.010244110440984322691 -0.00022382602606750372741 -0.014908891204498231353 -0.017123471292779975095 -0.033591754447742393219 0.0036253938515903401038 -0.025448992369040409484 0.0289657162520414041 -0.021802584036946508206 -0.0071007178268595958631 0.045260261046046877664 -0.1537084336582991706 0.071035445944927000372 -0.22827957775844393007 -0.029739246973312937622 -0.0048061405586843136337 -0.025016605381494215476 0.023017277148225174371 